238 100
type -0.1459254 -0.2756998 0.061127268 -0.12826638 0.08609134 -0.27925026 0.15464097 -0.335676 0.1887033 0.22679392 0.00909752 -0.0498846 -0.35748246 0.13354921 0.05859187 -0.10208615 -0.00023145328 -0.3579745 0.17800607 0.14920284 -0.34097973 -0.124199875 -0.14464363 -0.0354493 -0.2507728 0.12663949 0.14535601 0.23025978 -0.39055315 0.056733005 0.0575977 0.61021066 -0.44008106 0.23243585 -0.100428216 -0.014877124 0.21009877 -0.05609019 0.47142163 -0.46712753 -0.25521043 0.22486296 -0.3685457 0.12387377 0.12342282 0.16773315 -0.41596168 0.39292264 -0.3118656 -0.38114148 0.07741271 -0.13949692 -0.21511456 -0.20142958 -0.24865478 0.12123135 -0.15798113 0.5813799 0.14300095 -0.63869846 0.1580254 0.083034255 0.21258573 -0.013795724 -0.51688087 0.24673155 -0.5662988 -0.3193813 0.061140124 -0.08923855 -0.06713138 0.19511893 0.067639954 0.41559246 -0.103143245 -0.1589838 0.111552976 -0.29696348 -0.23056008 0.105880946 -0.036605887 -0.0715187 0.111690424 -0.5801354 -0.13078815 0.016222823 -0.36514986 0.24249357 -0.24045071 0.0026469508 -0.2945184 -0.15910175 0.4184692 0.21669473 0.23410226 0.024642402 0.11333947 0.2920449 -0.30634776 -0.022598473
of -0.14845741 -0.35450757 0.0374182 -0.09950233 0.060538758 -0.23561819 0.1520887 -0.14653853 0.20794852 -0.007006722 0.11338809 0.017781531 -0.47239208 0.09367188 0.1774014 0.038881697 0.17953628 -0.532374 0.117731676 0.1023858 -0.048972975 -0.075953335 -0.092874944 0.060683694 -0.1723974 0.10617043 0.1333928 0.33388147 -0.24375825 0.06709894 -0.10895784 0.38629556 -0.32308066 0.1791854 -0.08847646 -0.021275735 0.16334276 0.07657293 0.30384076 -0.67949325 -0.22162318 0.41648635 -0.30431286 -0.11216697 -0.049309574 0.39941135 -0.13473922 0.531914 -0.18383823 -0.12693506 0.11588619 0.04578457 -0.013311171 -0.3088634 -0.27090037 0.20233198 -0.09135861 0.69642115 0.04610671 -0.65082055 0.15615453 0.0705717 0.14342366 0.03777315 -0.31358498 0.060042504 -0.5092534 -0.34663737 0.1620322 -0.03817492 0.10897044 0.05832019 -0.024688313 0.15338264 -0.21971902 -0.20869258 0.3159504 -0.14340022 -0.040627096 0.19471061 -0.18401186 -0.04119416 0.06085624 -0.44351968 -0.14880513 0.19249892 -0.33900076 0.22351232 -0.15675375 -0.09245274 -0.29551548 -0.15389755 0.11196711 0.24946028 0.3928611 0.08648587 0.27390075 0.34675294 -0.35946354 -0.09592007
super -0.26197422 -0.31470108 0.04982797 -0.009969123 0.15426068 -0.28977928 0.22072989 -0.16998298 0.19943003 -0.07906516 0.20305333 -0.08695938 -0.5502658 0.25990257 0.11457521 -0.051526666 0.1296027 -0.6636759 0.28559932 0.15949188 -0.29698098 -0.19675866 0.12665868 0.113367714 -0.064067245 0.10431021 0.2475872 0.49778807 -0.33479735 0.3729847 -0.31966662 0.61153024 -0.35256556 0.17505758 -0.12337932 -0.0044144145 0.61284024 -0.17787208 0.42436746 -0.85202813 -0.20356306 0.6674417 -0.3585808 0.011121264 0.009856779 0.5754934 -0.30078503 0.77708733 -0.47200367 -0.1916363 0.059502248 -0.18586609 -0.0011643532 -0.32321614 -0.24395292 0.33599523 -0.17521194 0.7877805 0.08577247 -0.83768964 0.13644649 -0.1590585 0.2742337 -0.059647117 -0.5997196 0.22158988 -0.53560084 -0.33853406 0.15150054 0.0017602363 0.12925619 0.20049097 0.02905643 0.36559644 -0.3791384 -0.2905553 0.39313993 -0.18912798 0.0031282299 0.17285858 -0.09344268 -0.0024966698 0.037046503 -0.582854 -0.22721542 0.042616997 -0.41313437 0.43947738 -0.24505293 -0.057331093 -0.48300403 -0.0057104053 0.2764132 0.35482037 0.26172024 -0.023752393 0.26309916 0.5174969 -0.32319894 -0.18493474
class -0.1608385 -0.43435612 -0.009204521 -0.17163567 0.123647735 -0.14417702 0.075916655 -0.14563036 0.1757511 0.0777128 0.13918523 -0.12764783 -0.37773708 0.19330963 0.08006742 -0.04227367 0.10318366 -0.60471904 0.204868 0.25598586 -0.2183326 -0.12876491 -0.016503032 0.2370404 -0.17408971 0.21169855 -0.005256741 0.58340764 -0.3562155 0.08629416 -0.15950519 0.6384718 -0.42470953 0.28186363 -0.24288724 -0.010747829 0.43737426 -0.01961316 0.60653514 -0.8890945 -0.104004286 0.76764375 -0.4163112 0.013037584 0.103423305 0.5594244 -0.29577512 0.79931504 -0.53951615 -0.26034608 -0.024492623 0.018794993 0.17299493 -0.28430635 -0.35249498 0.38248554 -0.03977492 0.789016 0.0016375735 -0.89759845 0.09477184 -0.07048885 0.22911067 0.058845006 -0.6445852 0.21791647 -0.56061655 -0.38388646 0.27559468 -0.063132 0.13737418 0.32067952 0.06815933 0.40068176 -0.5262687 -0.2424887 0.4352981 -0.0837395 0.13822906 0.14182377 -0.30658463 0.0020194326 -0.044438086 -0.48559594 -0.07943676 0.04244999 -0.5110023 0.36631334 -0.18808271 -0.012859064 -0.50896883 -0.17196658 0.248693 0.238495 0.3729751 -0.05235955 0.28793308 0.55754733 -0.36606866 -0.08943908
person -0.1625214 -0.3565916 -0.01639981 -0.037877783 0.12538108 -0.14490278 0.038491882 0.005242388 0.059085343 -0.09979463 0.08945072 0.0010153282 -0.36415407 0.097007014 0.17484179 -0.043569952 0.3415804 -0.71071386 0.2402015 0.073476456 -0.121544264 -0.09172018 0.0006536231 0.17400584 -0.16857536 -0.041094407 0.15860596 0.5117536 -0.34066898 0.31989098 -0.32828566 0.45233366 -0.23746255 0.0742429 0.048305266 0.122166686 0.2711678 -0.028971996 0.24898429 -0.88996387 -0.099271365 0.65119773 -0.28771627 -0.15589722 -0.017366812 0.7393359 -0.19457324 0.8046507 -0.543946 0.014789899 0.04466659 0.15887259 0.030038184 -0.34119198 -0.2017 0.37362105 -0.08746243 0.63192695 0.09450794 -0.5396242 0.037613876 -0.041688684 0.042307977 -0.06511666 -0.43549716 0.22778758 -0.60916543 -0.22663662 0.20027602 0.034407422 0.19376948 0.1940774 -0.09709282 0.29757395 -0.4022287 -0.27279973 0.42219302 -0.08096131 0.08755469 -0.055351425 -0.16416712 -0.0321501 0.018443363 -0.30295515 -0.2974398 0.06154302 -0.25909412 0.24594817 -0.33459002 -0.03908649 -0.3417934 -0.024852421 0.13910548 0.25204512 0.4369012 0.046467397 0.31164378 0.4300458 -0.16222581 -0.07632071
reviewer 0.065214574 -0.4011323 0.007604084 -0.20370588 0.13956468 -0.009632459 0.048305333 0.027271837 -0.08016221 -0.26169232 0.11074398 0.004666902 -0.13740152 0.0010577879 0.50288725 -0.2553879 0.40276185 -0.71261656 0.117484055 0.3593096 -0.08783132 -0.008350876 0.2858184 -0.18718827 -0.076501906 0.1698422 0.11659614 0.026658364 -0.26116118 0.19675048 -0.19287947 0.23615982 -0.4108933 -0.021443171 -0.097493105 -0.09270547 0.016039275 0.0040308805 0.28622794 -0.64716524 -0.08117113 0.60746807 -0.25219554 -0.33249015 0.054009482 0.7983434 -0.114807405 0.5074349 -0.52031267 0.39490095 -0.10878864 0.003586509 -0.012597816 -0.32104418 -0.12864502 0.027282733 0.049791668 0.52247673 -0.1127135 -0.3775962 -0.19648632 0.20589216 0.029727168 -0.21148308 -0.096188 0.013668163 -0.48705316 -0.26972136 0.18096618 -0.030973013 0.12310137 0.42012128 -0.21626946 -0.020328645 -0.04213318 -0.078633144 0.49509874 0.08433302 -0.025205275 0.06145513 -0.42851746 -0.12416698 0.030464739 -0.18496895 -0.16614486 0.1236095 -0.15236063 0.46211296 -0.116572075 -0.11125707 -0.088957 -0.06344526 0.044922784 0.41209403 0.43619594 0.36047307 0.30207846 0.08405506 0.05557672 0.24516016
committee -0.2837038 -0.16408455 -0.034750376 -0.5738469 0.39152798 0.0015764144 0.0017251512 -0.68051213 0.6777623 -0.11769865 -0.041294675 -0.21000229 -0.25953513 -0.26231468 0.083688684 -0.057772912 0.4860643 -0.5446968 -0.08014199 0.5171366 0.047789115 0.24260724 -0.0773196 -0.22009371 -0.3542263 0.110635854 0.4715851 0.41613743 -0.44306347 -0.090207 -0.34444797 0.703585 -0.14592476 0.30217615 0.068180494 -0.012910774 -0.07219251 0.22274128 0.52302116 -0.9724516 -0.26231107 0.59954554 -0.43288448 -0.39387327 -0.38958108 0.33140123 0.09213228 0.86108893 -0.19111535 -0.10912859 0.15149865 -0.18257385 -0.25037548 -0.29682168 0.05804528 0.12819353 -0.2525725 1.0897382 0.05817237 -0.54016364 0.070493355 0.33034518 0.21374947 0.051322572 -0.59007025 -0.40343586 -0.6709652 -0.35067207 -0.02880787 -0.13097447 -0.10667768 0.1876136 -0.04034054 0.04345603 -0.036294054 -0.5883862 0.53783286 -0.17244773 0.09523788 -0.09478997 -0.29082003 0.018877111 0.07995239 -0.070005 -0.43355438 0.27324882 -0.21510452 0.23069376 0.03684075 -0.12662455 -0.6801727 -0.07537185 -0.06074645 0.2616479 0.18176535 -0.006818497 0.25730345 0.6254807 -0.3892584 0.28624895
http://www.semanticweb.org/owl2vec#superClassOf -0.79427814 -0.19399337 0.13357559 -0.062902935 0.009322407 -0.28929156 -0.22006987 -0.488457 0.23232307 0.03611994 0.11852353 0.110296175 -0.25693265 0.37326163 0.074260466 0.4352766 0.07583398 -0.4479797 0.19511238 -0.08234095 -0.31730705 -0.34240356 0.11075523 0.05761344 -0.098981954 -0.03647336 0.23037152 0.5351821 -0.32528508 0.18374214 -0.14508103 0.88987726 -0.16968584 0.13838693 0.02855094 0.0669193 0.24540593 0.07305276 0.5173231 -0.79493207 -0.086723834 0.8372004 -0.029538207 -0.09984371 0.23205055 0.36031497 -0.25593117 0.45669398 -0.5106644 -0.24264452 -0.2094438 -0.006440971 -0.10375998 -0.04227126 -0.24130373 0.32985967 -0.0044662245 0.62151873 0.18455827 -0.88587475 -0.034624998 -0.08449904 0.0029783414 0.27862105 -0.8548298 0.022995895 -0.10472169 -0.13775612 0.16538581 -0.171006 -0.11899083 0.5905162 0.22122066 0.5566337 -0.20200935 -0.21492156 -0.10100203 0.021445058 0.23593402 0.066290684 -0.3472248 -0.007806091 -0.053800665 -0.20528644 -0.22763474 0.07064968 -0.36917034 0.076716594 -0.034075238 0.30808958 -0.49437374 0.28805175 0.11770992 0.20233546 0.030495265 -0.147888 0.1449359 0.65922284 -0.3584666 -0.4076433
subclassof -0.2194589 -0.30668855 0.11197547 -0.08121366 0.07400267 -0.24561147 0.19149986 -0.2519745 0.26752582 0.017310351 0.10822556 -0.12470235 -0.47003627 0.16609775 0.09832328 0.060961634 0.11673667 -0.5006663 0.12697698 0.26119474 -0.23069291 -0.12681909 0.098338224 0.039847784 -0.10605791 0.2384684 0.08230874 0.38536948 -0.40022483 0.08582206 -0.15475698 0.59155864 -0.4234262 0.20325935 -0.19272709 -0.13613842 0.4006398 -0.07886134 0.45467004 -0.71919084 -0.20595187 0.56374544 -0.2628477 0.011042707 0.16625485 0.33062735 -0.16168547 0.5843372 -0.22314464 -0.26901415 0.029096644 -0.21243162 0.029895162 -0.21619797 -0.288901 0.20092098 -0.10395705 0.687347 -0.08616258 -0.8372146 0.085303344 -0.07539262 0.2466937 0.0139346095 -0.53314984 0.028784787 -0.4498902 -0.33018094 0.06946968 -0.09703622 0.06582738 0.22844425 0.09327225 0.31443158 -0.14443833 -0.28289375 0.30583516 -0.089003235 -0.0050001093 0.20946278 -0.23245554 0.029932423 -0.00072147575 -0.57455444 -0.03012787 0.09946378 -0.3620001 0.41403338 -0.046271246 0.040337678 -0.3840936 -0.08806942 0.17291929 0.22459956 0.32003644 -0.03905359 0.2031132 0.37845936 -0.3957463 -0.037974875
http://www.semanticweb.org/owl2vec#typeOf -0.9519463 -0.29539123 0.34518558 -0.069825664 0.07567596 -0.2780396 -0.15051839 -0.46842864 0.36615402 0.045728713 0.10342666 0.08468363 -0.2555745 0.23098107 0.24150892 0.2258912 0.119013384 -0.32462403 0.22651987 0.037645433 -0.2763063 -0.35429448 0.1875805 -0.017095717 -0.11653993 0.07888455 0.23990224 0.2589661 -0.5244391 -0.084999554 -0.037018325 0.52630585 -0.2636597 0.16126576 0.22751346 -0.07297978 0.13217443 0.25497785 0.5737496 -0.78048706 -0.036530215 0.8568015 0.024835262 -0.049542855 0.12738755 0.4780624 -0.12338141 0.21441872 -0.22955881 -0.21422061 -0.33831337 -0.19032653 -0.36770862 0.17163168 -0.36416486 0.22888455 -0.010114699 0.7520073 0.22190793 -0.82082236 -0.02689646 0.11419643 0.09919959 0.17671007 -0.7657259 0.05491845 -0.10732709 -0.13597092 0.045595236 -0.2642537 -0.16359662 0.60872424 0.1604951 0.5912673 0.19238949 -0.28071955 -0.22166112 -0.038928416 0.0029669895 -0.07800023 -0.24179311 0.017848363 -0.05473593 -0.35321227 -0.19680852 0.13858159 -0.20068258 0.17613862 0.14779396 0.30188286 -0.5215839 0.22007026 0.15090685 0.19340014 0.042479616 -0.20820388 0.045305956 0.58313525 -0.38761964 -0.21470027
conference -0.16663155 -0.33555907 0.19233863 -0.2590212 -0.033287782 -0.11166052 0.09487896 -0.11721656 0.3524882 0.18899657 0.024088249 -0.25764567 -0.5631853 -0.08778899 -0.06145692 0.11715773 -0.23385422 -0.2868927 0.2621224 0.24430968 -0.1664248 -0.11884166 0.16863029 0.07858187 -0.21289726 0.4481499 0.0569508 0.58795875 -0.42205018 0.21122524 -0.055236902 0.2857813 -0.3135738 0.4178119 -0.14869015 0.06305126 0.44871664 -0.07582466 0.43858287 -0.60678595 -0.028497167 0.5657752 -0.23030853 0.24447592 0.35549882 0.400922 -0.06354138 0.5366461 -0.38464472 -0.37259418 -0.0053728526 -0.22273971 -0.20715159 0.19981022 0.11184863 0.61953133 -0.25135002 0.7675399 0.002524302 -0.4606562 0.2796323 0.2104854 0.45868677 0.053201273 -0.5427325 0.21685556 -0.27488285 -0.5947031 0.3393939 0.22265683 -0.15473004 0.034311857 0.014291147 0.11683777 -0.3715902 -0.5060931 0.4639747 -0.23615249 0.058692772 0.043759465 0.17259791 0.034051973 0.12550594 -0.32095572 -0.17828907 0.022886496 -0.24220999 0.38594624 -0.06795258 0.07571212 -0.6953952 -0.33066395 0.21115503 0.1602863 0.13540119 -0.022126373 0.53737634 0.40383613 -0.592391 0.37226972
http://www.w3.org/1999/02/22-rdf-syntax-ns#type -1.0503414 -0.28934053 0.40258536 -0.09675191 0.036142435 -0.2739273 -0.21597587 -0.5091705 0.2956858 0.12050966 0.119176425 0.15576261 -0.1887245 0.23989512 0.32656386 0.2437469 0.042094693 -0.2944765 0.27555588 0.01753356 -0.2902086 -0.42236245 0.23335046 -0.080337144 -0.12373016 0.08739807 0.2749692 0.15022175 -0.57280266 0.0019270028 0.015163042 0.48634908 -0.25897413 0.12811637 0.27871573 -0.06882289 0.0074420962 0.30533722 0.5680079 -0.71413904 -0.026863111 0.8945089 0.121579655 -0.064416885 0.17703098 0.5324582 -0.1726308 0.0779216 -0.28792638 -0.15012848 -0.4631388 -0.12943895 -0.44953126 0.24947621 -0.3248502 0.1897807 0.03407961 0.68118566 0.2860289 -0.7358922 -0.08965266 0.21709728 0.067147695 0.18614805 -0.75327533 0.11935579 -0.016354011 -0.16618653 0.08865168 -0.25563028 -0.25019526 0.73671645 0.1807688 0.57647586 0.34471604 -0.21064341 -0.34149337 -0.031431947 -0.055328276 -0.11434613 -0.26256666 -0.04712795 -0.05104919 -0.31486782 -0.25262046 0.15084031 -0.1713541 0.15077387 0.13320105 0.37311482 -0.51413506 0.29698318 0.18098752 0.16992804 -0.023811597 -0.115063936 0.048419252 0.5187573 -0.38064164 -0.15345314
program -0.19878806 0.04340448 -0.14047052 -0.47293916 0.25954023 -0.22746038 0.08075991 -0.68208635 0.7524716 0.02132148 0.10669146 -0.2240114 -0.36617735 -0.28060544 0.14466764 -0.29576242 0.5377564 -0.41481248 -0.059040684 0.46381322 0.112341814 0.27880168 0.07217683 -0.3131594 -0.4764961 0.035784118 0.47641784 0.48752275 -0.44597194 0.10696571 -0.37771875 0.62503093 -0.33865407 0.24391414 0.11414257 -0.07682885 -0.07266935 0.2006993 0.56771797 -0.944504 -0.16971922 0.5495323 -0.43068215 -0.38249528 -0.4087713 0.36184904 0.17113152 0.740469 -0.25276348 -0.0507964 0.28206134 -0.18985279 -0.2940996 -0.34030113 -0.104676574 0.027348999 -0.36077568 1.0731133 -0.08455999 -0.6556757 0.10266047 0.26050094 0.22446884 0.04912362 -0.5770616 -0.46498054 -0.65573835 -0.45365694 0.024195025 -0.06645004 -0.044455074 0.054660175 0.031454086 -0.0002772203 0.051005818 -0.52533376 0.40594515 -0.03488718 -0.0071536386 -0.012596709 -0.12545352 0.28370428 0.1406118 -0.06912224 -0.42268208 0.12257277 -0.26688346 0.26175967 -0.0060082492 -0.13539222 -0.57320964 0.0016064647 0.00267085 0.4067956 0.4157399 0.14595887 0.370635 0.5639956 -0.36881885 0.23967908
review 0.26224717 -0.52796644 0.33046272 -0.3496364 -0.046647824 -0.06851184 0.09731456 -0.072361566 -0.031134106 0.18108268 -0.31400275 -0.0982902 -0.5329747 -0.13072935 0.49619037 0.007823065 -0.16294593 -0.47593027 -0.03846355 0.31648317 -0.090121485 -0.16396949 0.42736307 0.027637921 -0.29894707 0.3049181 -0.18767852 0.16292146 -0.58998704 0.18777315 0.14986622 0.14986405 -0.37656826 0.27608097 -0.13513428 -0.09799548 0.010922069 0.05983682 0.318891 -0.5137435 -0.14369448 0.3971099 -0.16753502 0.17068475 0.26678932 0.15158089 0.027153432 0.18035705 -0.031153388 -0.051696517 0.12075853 0.008061772 -0.2434742 -0.028053224 -0.004051792 0.30497232 -0.11863727 0.29566154 -0.019827077 -0.37323245 0.042856432 0.42174894 0.27411264 -0.13288678 -0.33164 0.23350054 -0.3611764 -0.40549123 0.09516276 0.28287378 -0.18770702 0.11717466 0.10536559 0.13121004 0.1070931 -0.34092617 -0.051246013 -0.38773447 -0.094498046 0.021634413 -0.0041028345 -0.038110245 -0.10674631 -0.34025034 -0.09566697 0.31995213 -0.05080191 0.41969404 -0.39147955 -0.03803016 -0.15903555 -0.35297608 0.18308479 0.16349879 0.2617121 0.33533022 0.4200761 -0.18661845 -0.4012358 0.3694941
= -0.44159564 -0.24246687 0.09704434 -0.122231394 0.15677145 -0.1812573 0.0022579422 -0.37589258 0.4147768 0.009888635 0.17475396 0.075570785 -0.16910529 0.021559821 0.09359289 0.07651664 0.28808716 -0.21614842 0.05416961 0.087338194 -0.08331992 -0.15145524 -0.05932215 -0.28788903 0.026156245 0.16726428 0.32029444 0.02867463 -0.2440393 -0.07138277 0.025924688 0.31270507 -0.315804 -0.015107843 0.14103593 -0.049081597 0.025262186 0.19749285 0.39148802 -0.43280643 -0.07795514 0.37435427 -0.20959404 -0.13820142 0.16196984 0.30992475 -0.052546356 0.19962434 -0.15540165 -0.10777988 -0.09523886 -0.17199424 -0.21696286 -0.006285689 -0.24640164 0.038957436 -0.021765152 0.68324286 -0.038716506 -0.5347362 0.13772698 0.06508635 0.058143407 -0.02851619 -0.33274958 -0.18354763 -0.04558939 -0.24078758 -0.037608225 -0.26981282 -0.012813075 0.376501 0.0406125 0.220642 0.14329216 -0.19375752 0.16650715 0.032135047 -0.025666544 -0.06220221 -0.20983842 -0.033642154 0.19480635 -0.2686138 -0.029763997 0.06430204 -0.21787512 0.116975255 0.14823668 0.11567706 -0.33666125 0.119027205 0.11518636 0.17323004 0.1774732 -0.02349064 0.10783575 0.35527417 -0.22572322 0.014467126
http://www.w3.org/2000/01/rdf-schema#subClassOf -0.68480307 -0.29131454 0.28743806 -0.030021392 -0.08875379 -0.21680538 -0.13623121 -0.39894944 0.2319599 0.059715874 0.02945095 -0.0035244797 -0.36636904 0.2873392 0.18536331 0.43099946 -0.08936018 -0.42255986 0.17383893 0.1424799 -0.3443944 -0.34385508 0.35862848 0.13694325 -0.07289959 0.17613386 0.06558453 0.37859854 -0.5484735 0.13722079 -0.08292817 0.69123316 -0.28018606 0.17494214 -0.1146583 -0.064391695 0.30987856 0.054738775 0.5325652 -0.7349854 -0.06680465 0.888862 0.08426706 0.0615785 0.30834678 0.38502312 -0.102283664 0.3378411 -0.29032376 -0.26708502 -0.3533406 -0.12482237 -0.09857253 0.1035772 -0.23940557 0.3270659 0.028041974 0.57766294 0.09972632 -0.8989464 -0.104399465 -0.026995799 0.15668437 0.22261667 -0.73355293 0.106126785 -0.035299156 -0.20725986 0.1277604 -0.10990631 -0.22557703 0.57534075 0.21980608 0.4919914 0.052175283 -0.2714151 -0.14356184 -0.028450493 0.1672862 0.08163548 -0.33812496 0.005389098 -0.19945423 -0.39581215 -0.11300916 0.17180464 -0.27895942 0.28122896 0.052241802 0.3522157 -0.4246807 0.14847818 0.11092265 0.159247 0.0822638 -0.17692639 0.16169786 0.47214535 -0.4814718 -0.12825345
http://conference#Person -0.7515977 -0.2669784 0.2679442 -0.05320535 0.049313664 -0.05684073 -0.22711144 -0.1336193 0.06363178 0.030151434 0.061094157 0.1711138 -0.30117786 0.1938398 0.13082959 0.26767695 0.20992203 -0.5252967 0.20813352 -0.16574034 -0.1890023 -0.30791447 0.1498261 0.25212213 -0.046155654 -0.1649106 0.12268574 0.5622254 -0.4406227 0.20054588 -0.18785235 0.5083774 -0.05264556 0.16176498 0.28454304 0.20184053 0.25684595 0.10521252 0.22091626 -0.8748774 0.05354613 0.8571 0.057495613 -0.08467345 0.18280485 0.57951164 -0.18798846 0.61350226 -0.52040637 -0.07093223 -0.16294435 0.081618465 -0.13525002 0.08415385 -0.10549837 0.43401486 -0.047583062 0.5196121 0.2591282 -0.51216334 0.004308129 0.03944867 -0.07150707 0.12662989 -0.6509545 0.29105502 -0.18737635 -0.01660285 0.17779392 -0.04772699 -0.044197574 0.4083453 0.09377906 0.5418163 -0.2538228 -0.34336853 -0.025082566 -0.065272994 0.189794 -0.20084229 -0.25188476 -0.041099865 -0.024136698 -0.21456891 -0.2342732 0.047493573 -0.15628283 0.09245557 -0.11608688 0.30500016 -0.29831514 0.26004228 0.15549326 0.18970199 0.12130558 -0.22899103 0.22903267 0.5443365 -0.30300277 -0.20596632
Type -0.5791396 -0.14333346 0.034662936 -0.17830099 -0.18860401 -0.32370743 -0.095374204 -0.48839292 0.15545896 0.4217418 0.013226609 0.02597392 -0.24351735 0.033427645 -0.060564715 0.31995773 -0.2667882 0.09400602 0.1928984 -0.13962767 -0.44624007 -0.40186366 -0.23238403 -0.21452503 -0.24011432 0.25268978 0.22430062 0.27248228 -0.3701806 0.28618062 0.060719993 0.5112505 -0.20454915 0.1893776 0.014634671 0.23556481 -0.036250774 0.013634813 0.3038676 -0.25303885 -0.10212055 0.1450623 -0.12561144 0.12894396 0.3160867 0.0644036 -0.4225743 0.11757974 -0.38653123 -0.5006234 -0.17037319 0.19853263 -0.43320906 0.14325073 0.014338027 0.30790114 -0.07517402 0.42592973 0.16981836 -0.432756 0.14208513 0.2267385 0.12947415 0.31864396 -0.6642997 0.20089647 -0.14244951 -0.32004303 0.2505979 -0.062734134 -0.36097667 0.23782764 0.25447726 0.28568846 0.09586616 -0.060053356 -0.21190326 -0.3053474 -0.23725975 0.04257437 0.13324842 -0.28247318 0.28625023 -0.22111423 -0.42675892 -0.1002129 -0.42915088 -0.06045807 -0.17434111 0.23706275 -0.48819298 0.06152073 0.41667378 -0.027193628 -0.10375469 0.104953505 0.18180405 0.28014576 -0.5116577 -0.17027353
paper -0.026496574 -0.45359436 0.11500395 -0.1857326 0.092162445 -0.015259979 0.14924054 -0.021193927 0.098930284 0.04644221 -0.062156543 0.121286266 -0.31569558 -0.051054828 0.113491744 0.20582764 0.42671016 -0.52421224 -0.09355624 0.16106243 0.20432784 0.04764689 0.16341549 -0.3221344 0.12076127 0.2000266 -0.12695448 -0.03198126 -0.28720114 0.2702857 -0.009425914 0.18259782 -0.42111728 -0.11993425 0.09646903 -0.06853851 0.11506426 0.06476348 -0.018317861 -0.6302851 -0.15074593 0.2543959 -0.058350075 -0.20062272 0.45448232 0.20662075 0.016978852 0.49719682 -0.016261533 0.13070759 0.20778735 -0.0128890425 0.14622208 -0.20385061 -0.06797195 -0.003252045 -0.12058906 0.3246492 -0.48378724 -0.3704066 0.2214264 -0.08224945 0.0061993194 -0.22168793 0.070466645 -0.1720741 -0.0725247 -0.27923116 -0.10532412 -0.085828826 0.13302515 0.02955099 -0.11803456 0.11173023 0.07661249 -0.33922833 0.42561936 0.10720016 0.26818436 -0.031628545 -0.4080413 -0.030647637 0.19733435 -0.46276638 0.44380134 0.2967922 0.08183676 0.17256525 -0.00015821299 0.16173103 -0.04378563 -0.13717748 0.0024915368 0.3186451 0.50071764 0.18495946 0.4050822 0.19386746 -0.19041856 0.22534439
http://cmt#Person -0.69330084 -0.2205021 0.16863205 -0.12105763 0.20287097 -0.11052511 -0.33894825 -0.4054024 0.15693864 -0.10891257 0.11962704 0.15455845 -0.07888359 0.27792504 0.30777487 0.2830915 0.24633984 -0.47586995 0.16742156 -0.058833975 -0.045279235 -0.2752595 0.19639589 -0.016775826 0.008536865 -0.06904666 0.22410092 0.3737265 -0.23413557 0.1783848 -0.16989973 0.5269474 -0.05255354 0.038198642 0.17983201 0.08659506 0.024167309 0.22293858 0.44943106 -0.8186359 0.078278504 0.8779834 0.046258293 -0.2689672 0.1667006 0.56371224 -0.032047745 0.38132152 -0.5597487 0.15726736 -0.22318678 0.054952394 -0.15644449 0.023080815 -0.16000795 0.31015447 0.006920538 0.6268436 0.12039849 -0.5874642 -0.11650006 0.20146134 -0.03954356 0.09225236 -0.68649906 -0.13898405 -0.01944425 -0.14768657 0.22139533 -0.04502371 -0.05807549 0.687749 0.13842323 0.3463964 -0.17646025 -0.21674445 0.017053524 0.14308517 0.2419819 -0.059720635 -0.3852594 -0.0029491258 0.0027382765 0.114433356 -0.31149375 0.1551386 -0.15014637 0.06078967 0.06699619 0.23249528 -0.48132056 0.3347419 -0.092952654 0.16127849 -0.012572116 0.02695319 0.22691007 0.5105032 -0.12261165 -0.19308001
member -0.15223889 -0.15819499 -0.103972174 -0.39567384 0.17813013 -0.11482961 0.16991383 -0.32995123 0.57089335 -0.078145735 0.12196067 -0.20535898 -0.4216101 -0.16238898 0.16028938 -0.17124453 0.21573326 -0.3984257 0.07152699 0.36280575 -0.029217606 0.06649957 0.15215433 -0.08003674 -0.15850705 0.29288787 0.2792372 0.42180595 -0.30165914 0.0843795 -0.3229568 0.44221285 -0.2963354 0.38053825 -0.1980531 -0.026993206 0.26073337 0.031563576 0.4470686 -0.82238334 -0.07862439 0.56240386 -0.48406488 -0.1870858 -0.19500227 0.42593458 0.09746433 0.7567897 -0.30783716 -0.07406559 0.15881571 -0.1609615 -0.09593649 -0.25271106 -0.07414269 0.2250723 -0.30374628 1.0880044 -0.0531342 -0.66485804 0.1345488 0.20311631 0.3798323 0.029029896 -0.4697513 -0.2596616 -0.46978664 -0.47306776 0.2048874 0.06662555 -0.010040957 0.07652932 0.016220633 -0.036132876 -0.27395728 -0.45614558 0.5619605 -0.18801257 -0.034969058 0.19999962 -0.10080524 0.04231275 0.15504205 -0.20026657 -0.36559448 0.12253627 -0.39364627 0.48236507 0.08623115 -0.105718546 -0.58927083 -0.18416744 0.03293158 0.39413655 0.29143226 0.03741065 0.3216778 0.46859083 -0.39682215 0.18329509
http://conference#Program_committee -0.74122185 -0.05917019 0.18796764 -0.26329476 0.16885434 -0.12604026 -0.18981098 -0.77398527 0.686182 -0.0429235 0.04100825 -0.12295415 -0.15386449 -0.11187334 0.14311017 0.16236271 0.4146096 -0.33162957 -0.07498908 0.31324753 -0.029632742 -0.09511719 0.1850603 -0.19994898 -0.28110373 0.005629425 0.45506057 0.36160985 -0.62546694 0.039157085 -0.29485586 0.70551705 -0.15563169 0.123617545 0.15155728 -0.08943607 -0.11630216 0.38173485 0.6151257 -0.89233273 -0.03982378 0.8391175 0.024163106 -0.27898625 -0.17542106 0.41747242 0.21223603 0.40639594 -0.1848255 -0.021838259 -0.13263056 -0.21181996 -0.40440443 0.017231306 -0.10887274 0.11477633 -0.11135058 0.89304495 0.07318344 -0.69724756 -0.16681553 0.24638171 0.069328815 0.16585457 -0.70258427 -0.4679913 -0.1702133 -0.2515849 -0.042306967 -0.22234023 -0.26797968 0.55158633 0.107782796 0.3417498 0.34780473 -0.45582354 0.027087646 0.059287954 0.168017 -0.26473007 -0.35357532 0.22495915 -0.11800138 -0.033781283 -0.37902552 0.19750658 -0.074113086 0.17470431 0.18647514 0.2958942 -0.5473405 0.36609468 -0.084856234 0.22945796 0.1466195 -0.1016912 0.21535048 0.5387689 -0.398279 0.14904177
http://cmt#Reviewer -0.67840123 -0.35894233 0.3433074 -0.13703106 0.041276466 -0.025384737 -0.29943222 -0.31472814 -0.09941489 -0.03174767 0.17435099 0.2257081 -0.111526325 0.34593838 0.4663268 0.21335836 0.17607509 -0.5812867 0.32184315 0.19641812 -0.21853264 -0.2503508 0.50391513 0.03894937 0.01950574 0.08257677 0.19761397 0.08974699 -0.32861704 0.15465358 -0.01753998 0.47261736 -0.22894922 -0.01391499 0.10037995 -0.04590057 0.09744632 0.11117172 0.44801548 -0.7986298 0.046779238 1.1378449 0.15851279 -0.20351009 0.1344201 0.77380455 -0.17351049 0.28251082 -0.61645514 0.25427884 -0.6013997 -0.059809048 -0.050691172 0.13626376 -0.26054996 0.2239283 0.20224065 0.5552154 0.027009973 -0.58580744 -0.2798582 0.14293846 -0.032083873 0.031988677 -0.44783142 0.16038628 -0.0057139816 -0.12379524 0.22371462 -0.14073516 -0.16535275 0.8962652 0.04291411 0.46724397 0.13008204 -0.08599288 -0.060745474 0.20818757 0.14619398 -0.06328876 -0.5136077 -0.079283744 -0.17773889 -0.23176755 -0.17979874 0.09673092 -0.15699458 0.24012417 0.06539963 0.3018766 -0.21952443 0.35858548 -0.034960736 0.3036665 0.06948477 -0.052093647 0.13552085 0.47941217 -0.21420918 0.009660673
http://cmt#Paper -0.54015535 -0.3353761 0.3563367 -0.05305802 -0.06128875 -0.026762983 -0.088284075 -0.32287952 0.28525823 0.097630605 0.0032244415 0.19646755 -0.25994685 0.15817828 0.09480482 0.3835426 0.2620008 -0.36424768 0.023100516 0.13775337 -0.07092278 -0.22413792 0.28047755 -0.15091568 0.06621122 0.08837543 0.05898411 0.14735998 -0.5457018 0.056858644 0.060776938 0.42370358 -0.3464542 -0.036377262 0.15612783 -0.13337632 0.19285797 0.21193783 0.29348 -0.65017897 0.048708443 0.6762409 0.106922425 -0.095768236 0.52795285 0.35547656 0.08100598 0.22786696 -0.07394317 -0.07289392 -0.29468685 -0.15872453 -0.06628857 0.20162155 -0.1509261 0.07881174 0.06459911 0.4283916 -0.11711397 -0.5867666 0.024250079 -0.12682001 0.08618217 0.023735853 -0.41802847 -0.112446465 0.1714901 -0.1356324 -0.13378358 -0.19462006 -0.16391274 0.507631 0.043905973 0.40782562 0.2542455 -0.37592664 -0.0997112 0.10082611 0.28665525 -0.13567974 -0.4177978 0.08349677 -0.058776025 -0.32499737 0.21219544 0.19298442 -0.06842901 0.21274076 0.22229858 0.51207983 -0.19859698 0.11499414 0.0018315905 0.22861168 0.20960948 -0.11782154 0.2072397 0.3885367 -0.32657412 0.120739274
http://conference#Reviewer -0.81224895 -0.26789516 0.34049582 -0.08324695 0.049186237 0.0055111484 -0.27231544 -0.20667553 0.0956571 0.04947249 0.10209295 0.21647976 -0.17378964 0.17541635 0.25259045 0.19333862 0.2256723 -0.47310436 0.22005506 -0.090564184 -0.09607994 -0.29713884 0.30547044 0.047985982 -0.011018647 -0.09841072 0.16888884 0.27212083 -0.43391865 0.124792784 -0.07253072 0.3567079 -0.07855505 0.12710051 0.32786903 0.066157445 0.1043719 0.22248323 0.27221677 -0.80269605 0.050678443 0.8900855 0.19113398 -0.1281122 0.17283118 0.6148 -0.12213215 0.31699923 -0.45572254 0.10989463 -0.33750466 -0.03658618 -0.22783296 0.19890507 -0.09758062 0.24521022 0.0382581 0.53580904 0.19785988 -0.40500006 -0.07029478 0.13065849 -0.09953169 0.0635409 -0.5027763 0.21123296 0.015080282 -0.05398795 0.10056169 -0.09019328 -0.1270844 0.57125247 0.07713609 0.44627663 0.07846989 -0.27976218 -0.118183866 0.046745013 0.16878232 -0.23939931 -0.32943097 -0.04908546 -0.06499121 -0.18160819 -0.14214861 0.12597403 -0.04585157 0.097985975 0.019423882 0.38711858 -0.27701274 0.3245478 0.0647347 0.20979722 0.063479476 -0.15287374 0.17747444 0.5078882 -0.24350305 -0.03655393
document -0.029191732 -0.45782176 0.24797457 -0.18196367 -0.074413806 -0.07998507 0.16355722 -0.030882819 0.17552799 0.13185859 -0.14710452 -0.08978184 -0.597535 -0.03539095 0.18939696 0.16925313 -0.17343128 -0.40010196 0.09653977 0.1952448 -0.19183561 -0.18532929 0.37181216 0.143626 -0.091818064 0.37747234 -0.16612966 0.31269687 -0.50367755 0.133924 0.06570338 0.23121952 -0.3655889 0.33966893 -0.21736784 -0.04537521 0.37512356 -0.05673912 0.2860817 -0.59668905 -0.028298697 0.48053512 -0.14264554 0.24340254 0.35236806 0.24632628 0.029005922 0.3737641 -0.12061498 -0.19076584 0.0141034415 -0.075652435 -0.07988127 0.036741335 -0.068805136 0.4109535 -0.17403674 0.54911417 -0.07195446 -0.5364476 0.17427371 0.12498118 0.33022788 -0.04069399 -0.36201468 0.20015642 -0.19756013 -0.41812247 0.14035437 0.19943063 -0.13790616 0.09704493 0.06231541 0.20308605 -0.14561492 -0.38261953 0.14918032 -0.32316422 0.005189442 0.117045656 -0.014854839 -0.002842548 -0.03139691 -0.4868995 -0.025994942 0.20210178 -0.19681829 0.43821365 -0.109133855 0.15482838 -0.33146715 -0.343582 0.19295049 0.21166326 0.28518328 -0.027052972 0.3698376 0.14978403 -0.49588203 0.2534404
http://conference#Review -0.88536364 -0.26567367 0.508391 -0.17540039 0.0136653185 -0.15780503 -0.19777976 -0.40817797 0.2065279 0.33591375 -0.10844187 0.2115019 -0.22330077 0.023019744 0.33387458 0.27852198 -0.22851548 -0.21182638 0.19712335 0.107704625 -0.2138717 -0.32442418 0.3397334 0.02075196 -0.14864488 0.08438086 -0.026098954 0.17045243 -0.8784514 0.14908211 0.058182076 0.12884793 -0.2620866 0.12905678 0.36503324 -0.069283955 -0.16323477 0.28409407 0.35368773 -0.5927626 0.026632313 0.73565084 0.23647337 0.18563099 0.34021962 0.3917117 0.031861678 0.068557575 -0.22660172 -0.06953777 -0.37260604 0.1900982 -0.41662437 0.39070183 -0.058035325 0.25324354 -0.10005762 0.30844504 0.35435146 -0.47289076 -0.07473359 0.50120866 0.113338694 0.085525006 -0.58490336 0.35137215 -0.018923094 -0.28291574 0.07846993 0.021307465 -0.40010574 0.50063753 0.11307925 0.4393281 0.43630898 -0.34878078 -0.50771135 -0.25551593 -0.10750114 -0.2554209 -0.10844537 -0.06202882 -0.13268885 -0.2644333 -0.3467512 0.263436 0.09513437 0.03289768 -0.01106536 0.5018759 -0.45403165 0.19389084 0.30371925 0.0020828098 -0.008749694 0.049049847 0.17563199 0.18334559 -0.51997626 0.2846032
http://cmt#Review -0.66839737 -0.34723055 0.57299376 -0.11031861 -0.2531985 0.009827862 -0.14909497 -0.42299166 0.1390226 0.2249822 -0.17621091 -0.04367305 -0.36259973 0.031114317 0.29371047 0.31851906 0.10082231 -0.27065563 0.1471159 0.016701542 -0.19383 -0.38497022 0.5357276 -0.20825803 -0.2094191 0.04707626 0.17728977 0.23681742 -0.6552909 0.15421718 0.06746345 0.4287041 -0.17738226 0.2414771 0.13758004 0.06290735 0.010740918 0.24254836 0.5253604 -0.7873434 0.14836043 0.7106582 0.3292201 -0.13753045 0.31362316 0.37098727 -0.0056588673 -0.07684876 -0.1459568 0.04385115 -0.45853388 -0.013937917 -0.5068513 0.32866648 0.0027975487 0.20008278 -0.015197901 0.49707112 0.11665059 -0.40097106 -0.19171439 0.19539504 0.17566298 0.17027974 -0.67087704 0.057022505 0.2720543 -0.04001707 -0.013422408 0.00066776905 -0.39595464 0.53566194 0.22745767 0.47457352 0.45116127 -0.21928228 -0.46747655 -0.15735263 0.05339754 -0.16132002 -0.30619118 0.031282544 -0.17641377 -0.22679052 -0.20167057 0.20060447 0.06612161 0.25304773 0.004694227 0.488131 -0.2627489 0.089609794 0.09221378 0.17974827 0.013416878 -0.20654349 0.32608563 0.35350308 -0.4678971 0.1340487
http://cmt#ProgramCommittee -0.726341 -0.08582045 0.2447895 -0.39535615 0.3249102 -0.20017189 -0.19767912 -0.8157119 0.68870515 0.033012673 0.13669407 -0.10059973 -0.12607674 -0.17943935 0.22380291 -0.047155745 0.5085179 -0.20357953 -0.01716282 0.37734443 0.031924143 -0.027902663 0.054936897 -0.36664334 -0.32596985 0.05058665 0.528567 0.1591171 -0.60411125 -0.1629873 -0.18785301 0.50335693 -0.21735731 0.14164706 0.37391344 -0.1395656 -0.244385 0.46481565 0.67330086 -0.8306346 -0.03691971 0.7278898 -0.092546254 -0.341006 -0.17832853 0.48937234 0.11599125 0.2509441 -0.12796392 -0.07239567 -0.1840263 -0.3046086 -0.6052403 0.100695975 -0.1555512 -0.0020215414 -0.11004277 0.9820056 0.08044633 -0.5678465 -0.04626368 0.3902573 0.035470247 0.06143706 -0.7032527 -0.46050343 -0.24840526 -0.30821532 -0.10175795 -0.30190864 -0.25054407 0.5042492 0.079126 0.28645787 0.50895315 -0.40156007 0.033794183 0.04979268 -0.029856103 -0.33497733 -0.24262945 0.18458156 0.021166472 -0.07005575 -0.41845596 0.18824507 -0.04694663 0.17809369 0.20110254 0.16111621 -0.5751141 0.34349942 0.004118687 0.13846372 0.124876834 -0.0010450552 0.17476071 0.5299231 -0.3097357 0.25838172
regular 0.023005988 -0.40055102 -0.08500557 -0.12919456 -0.035450358 -0.039518595 0.07306001 -0.2544229 -0.054370627 0.19168802 -0.041783024 -0.016652808 -0.6650274 0.1505778 -0.21996808 0.21617286 0.31190458 -0.84116817 0.0072792238 -0.030315045 -0.068893045 0.058610674 -0.019448807 -0.03278162 0.031067168 0.03195654 -0.093061335 0.7021475 -0.21457067 0.15610625 -0.09298068 0.7640454 -0.33292827 0.22150739 0.078317866 0.1202989 0.4488012 -0.3583592 0.081143685 -0.91322136 -0.29820988 0.37513763 -0.31490362 0.008352744 0.56457365 0.1661178 -0.36603135 1.1656548 -0.7992586 -0.21312831 0.100165285 -0.1165485 0.33796036 -0.29040775 0.18156952 0.16761312 -0.24884295 0.4948538 -0.17874996 -0.71438134 0.26646098 -0.06802746 -0.21857445 -0.025709907 -0.38764486 0.3186891 -0.56978637 -0.14629988 -0.19216597 0.1048929 0.1816487 0.10508443 0.023487126 0.27625182 -0.5616149 -0.4069749 0.6133132 -0.04700595 0.30803463 -0.09914657 -0.40376052 -0.114295736 0.13260232 -0.62670374 0.15320787 -0.006275485 -0.49411604 -0.11742314 -0.35180348 0.22110091 -0.16172272 -0.07154001 0.31804445 0.12999314 0.4589392 -0.21594273 0.36239672 0.5765639 -0.26859608 0.14297424
author -0.18640347 -0.27167216 -0.17364256 -0.13836074 -0.14008927 -0.2779929 0.049976993 -0.1521787 -0.10126175 0.2635959 -0.04462944 -0.23427336 -0.5678018 0.14597258 -0.262378 0.19660135 0.42068627 -0.5796554 0.1572515 -0.13730846 -0.21189606 -0.08581676 -0.17693348 -0.015353103 -0.28293955 -0.095887415 0.10690485 0.8959279 -0.42356372 0.3363951 -0.24707857 0.97731113 -0.31012574 0.0668669 -0.0626811 0.15474856 0.06831789 -0.22735624 0.029635005 -0.98795426 -0.19800378 0.38264495 -0.19788 -0.16942598 0.42737687 0.18969578 -0.46777624 1.042522 -0.7782261 -0.3208089 0.26190257 0.31501842 0.21798304 -0.37535092 0.12916598 0.3358144 -0.24010155 0.5486444 -0.055051975 -0.47948882 0.14419733 -0.30072483 -0.29188728 -9.0326765e-05 -0.5550818 0.22597227 -0.8731485 -0.119880624 -0.025731208 0.013713131 0.25321722 0.11396217 0.067635864 0.50947887 -0.3831081 -0.32945806 0.3740957 -0.27569222 0.056452353 -0.15568088 -0.21991703 -0.14847931 0.053722057 -0.6760049 -0.23826735 -0.16104348 -0.3839791 -0.18235971 -0.52240646 0.23069677 -0.30357325 0.0933133 0.3123477 -0.18978745 0.578217 -0.078262754 0.31525117 0.42893785 -0.523231 -0.21069898
http://cmt#Conference -0.9408599 -0.2688493 0.36793968 -0.10946087 0.045283567 -0.10820735 -0.29915282 -0.36893612 0.6073379 0.06788283 0.08754206 -0.059524804 -0.11962149 -0.19738476 0.054919753 0.17337498 0.1583314 0.045697674 0.25155765 -0.1549759 -0.14464322 -0.38269213 0.2490861 -0.37988913 0.0225577 0.2051916 0.44663286 0.1905395 -0.44247293 -0.14160879 0.13385111 0.060913097 -0.34457225 0.027308522 0.43318737 0.017927213 -0.15102266 0.38448176 0.49985164 -0.47912905 0.26796252 0.67113143 0.022023704 -0.047290087 0.5251052 0.5658708 0.122276135 -0.027533637 -0.42390606 -0.012261694 -0.21431366 -0.27637812 -0.6819113 0.6113658 -0.0012503343 0.38399956 -0.059281368 0.9262973 0.046867337 -0.2129734 0.019168364 0.36288172 0.16737905 -0.02954406 -0.47087792 -0.14696305 0.26592958 -0.28979072 0.15103984 -0.16220286 -0.3787188 0.5667377 0.099603705 0.4377633 0.27329993 -0.48226076 -0.039547272 0.0033490364 -0.021960888 -0.3895489 0.071926616 -0.02235348 0.31617594 -0.16966224 -0.21868844 -0.059751745 0.024096325 -0.008793317 0.23874111 0.45092696 -0.68048257 0.2629775 0.19808353 0.06454576 -0.0640908 -0.17305191 0.21017349 0.40715867 -0.4248508 0.28573418
chair -0.30882433 -0.05104896 -0.25765297 -0.46037647 0.13308278 -0.16639641 0.00057581934 -0.5458603 0.3963678 0.5253835 0.06530607 -0.09636165 -0.40347713 -0.13574365 -0.2960196 -0.1481255 0.30652267 -0.4263456 0.27070555 -0.08659174 -0.08141387 0.053879395 -0.50584644 -0.2115871 -0.7145425 -0.32259545 0.650834 0.8054492 -0.39887014 0.5427896 -0.08823141 0.94798553 -0.13192585 0.19960561 0.25330618 0.37119544 -0.17833917 0.14302903 0.42805734 -0.8511357 -0.2679822 0.3456846 -0.42030632 -0.31723362 -0.22397247 0.26609534 -0.45889688 0.76436865 -0.6525466 -0.26492986 0.3262808 0.36306748 -0.3126726 -0.39597097 0.21737675 0.28099224 -0.37654418 0.78631204 0.3913295 -0.23335586 0.37773976 0.050910328 0.030523207 0.1300645 -0.6798035 0.21818697 -0.7418509 -0.4703864 0.19567439 -0.014933465 -0.12655686 -0.024485014 0.050550126 0.39087063 -0.21958491 -0.3746062 0.09670236 -0.438689 0.033449754 -0.2719304 0.03553401 0.03669447 0.2762987 -0.28079003 -0.6295517 -0.097742125 -0.3907942 -0.28763658 -0.7347027 0.0081276465 -0.6451985 0.063013725 0.4644286 0.18979323 0.3821958 0.07246925 0.44011775 0.6859496 -0.43576628 -0.016227813
contribution 0.020675596 -0.22909552 0.10015139 -0.24451636 -0.40603966 -0.3195426 0.19580327 -0.0328658 0.15729088 0.16217239 -0.16451041 -0.2656233 -0.5739738 0.04745451 -0.34687814 0.5817904 0.08011763 -0.4921127 -0.024073275 0.14609496 -0.23585385 0.023995394 0.28202412 -0.15411922 0.061502676 0.49301365 -0.14704688 0.58724636 -0.43819165 0.2756452 -0.12785253 0.743153 -0.51389396 0.06616 -0.40669227 0.014380373 0.36806008 -0.4665217 0.05401485 -0.6456766 -0.03956706 0.27197355 -0.15966621 0.164861 0.98834693 0.013598118 -0.05115457 0.827668 -0.53329957 -0.26814047 0.1032541 -0.12372282 0.13163142 -0.21363224 0.1604246 0.28913978 -0.283359 0.39160344 -0.6105554 -0.6336167 0.24181825 -0.18248476 0.028747484 -0.11734116 -0.21679349 0.05432556 -0.34694 -0.4638846 -0.031681303 0.12722515 -0.0296001 -0.05331873 -0.027858052 0.099461906 -0.3090767 -0.1225511 0.67839545 -0.03928487 0.039785188 0.19489892 -0.2674381 -0.20958492 0.046594553 -0.8011695 0.1618587 -0.024603939 -0.28720298 0.10897735 0.029523505 0.27637935 -0.36510083 -0.21017952 0.29047123 -0.033912092 0.50712 -0.028048128 0.43979606 0.31126636 -0.7017157 0.19985883
external 0.17623241 -0.5560384 -0.098299906 0.013838305 0.02990107 -0.10855293 0.115006 0.15527306 -0.1639142 -0.15228008 0.16099723 0.0871292 -0.18586667 0.112274416 0.4539625 -0.23090774 0.39771268 -0.85589075 0.22017257 0.18125983 -0.10610085 -0.19210978 0.012213032 -0.047154907 -0.025556995 0.11412992 0.15610388 0.072673835 -0.20563385 0.41548544 -0.28248355 0.34338748 -0.4074778 -0.07224586 -0.21146579 0.032678228 0.09403213 -0.039681036 0.22564417 -0.7379615 -0.0924536 0.57457966 -0.39794925 -0.3187644 0.09864776 0.97694814 -0.302212 0.69274205 -0.72645926 0.35442 -0.144409 0.26994562 0.12560737 -0.5694394 -0.24770461 0.07795287 0.12040577 0.5738136 -0.025858574 -0.53452027 -0.1853272 0.112659946 -0.0138633605 -0.19882147 -0.1274702 0.19545525 -0.5851687 -0.30933523 0.2256833 -0.0016941752 0.30287173 0.391051 -0.2100362 0.022773243 -0.3211689 0.06706494 0.59246886 0.03594903 -0.087737836 0.093509756 -0.43755227 -0.27871758 0.025367605 -0.2522148 -0.26059672 0.10637173 -0.37309158 0.4178563 -0.34307575 -0.15527368 -0.11156491 -0.053380206 0.15558329 0.39554164 0.55698246 0.41787955 0.27156523 0.08780167 0.14067116 0.075666904
track -0.1981717 -0.19818178 -0.14350186 -0.4700883 0.11038119 -0.10659248 0.020231972 -0.2268197 0.40062097 0.5167685 0.1029513 0.030435186 -0.36831743 -0.09956606 -0.27441233 -0.08879793 0.061148982 -0.44923192 0.42856243 -0.14033566 0.0025766995 -0.019881854 -0.4312042 0.012502467 -0.5897144 -0.23368417 0.59035915 0.74811584 -0.3495144 0.7461121 -0.020752385 0.63408285 -0.13613795 0.29693753 0.16416323 0.47381967 0.092155956 0.18425186 0.40485582 -0.7292172 -0.11243761 0.4370004 -0.47530976 -0.13175425 -0.17031795 0.4442698 -0.42857954 0.6515041 -0.671704 -0.13589779 0.2585456 0.37045783 -0.3257975 -0.3194129 0.18015654 0.47522628 -0.34676173 0.6907927 0.4625773 -0.13871671 0.48896104 0.056867827 0.23511863 0.06712153 -0.51991326 0.4637956 -0.42811808 -0.6722911 0.47226354 0.19086081 -0.22426982 -0.13573161 -0.04495163 0.34774065 -0.48247346 -0.30560037 0.21202627 -0.43792993 0.09581433 -0.17485954 0.17485593 0.018343436 0.26715833 -0.2779881 -0.5274759 -0.03218717 -0.34846678 -0.11662617 -0.8154244 -0.04363122 -0.7128353 -0.12496834 0.4860817 0.4181008 0.26952207 0.14016156 0.6095301 0.7445549 -0.39601767 0.0677453
invited -0.46274218 -0.674546 0.40099892 0.07878622 0.20094101 -0.08815615 -0.021374654 0.05144878 -0.046788868 -0.39688644 0.0688949 0.2091415 -0.52131057 0.42215365 0.38644943 0.14837378 0.2090739 -0.92108756 0.17434004 0.21748447 -0.08764229 -0.34319842 -0.06741463 0.43770966 0.08943606 0.21715736 -0.17298557 0.6848985 -0.62287074 0.46400273 -0.48024645 0.0074274084 -0.06571565 0.08737381 0.26240736 0.28476962 0.64196736 -0.17745139 0.30119044 -0.930517 0.0015805203 0.7757013 -0.3587003 -0.1377804 -0.068923146 0.84565806 -0.06804978 1.0241841 -0.23516378 0.2143939 0.35904446 0.16429695 0.17097624 0.019865487 -0.42279702 0.63064927 -0.08477754 0.47840354 0.38884795 -0.9842294 0.43984753 0.11410548 0.21227005 -0.10361807 -0.5403209 0.40490207 -0.71744066 -0.29624668 0.2660838 0.14647202 0.37119353 0.18495394 -0.08795277 0.5632224 -0.4034565 -0.5359466 0.40742663 -0.10448572 0.12758958 0.09056985 -0.039701674 -0.016705483 0.30510682 -0.7209938 -0.35722926 0.16915753 -0.17082518 0.44710666 -0.27337825 0.020549644 -0.26991236 -0.08600902 0.32698542 0.2526968 0.4073335 -0.10772105 0.6841659 0.37394184 -0.73610824 -0.18550117
http://conference#Conference_document -0.82174677 -0.28334823 0.38064063 -0.07650407 -0.07304744 -0.1528933 -0.13796075 -0.26180708 0.1904083 0.2802491 -0.098780625 0.19848503 -0.30078766 0.02449753 0.23838732 0.35096264 -0.24052273 -0.20569718 0.21532272 -0.0046153786 -0.23013707 -0.2917608 0.2561792 0.18302566 -0.09476419 0.1069753 -0.12015146 0.24193937 -0.7671383 0.20500414 0.020538019 0.089505665 -0.25637773 0.09400312 0.32031655 0.03014238 -0.06925284 0.15201566 0.22198457 -0.49201584 0.10486838 0.63093436 0.1648128 0.29446873 0.37007064 0.4105559 0.029658671 0.24737823 -0.23930958 -0.117939025 -0.3179336 0.2528568 -0.32315192 0.30889708 -0.06797011 0.36203635 -0.12990265 0.3284573 0.27883005 -0.4815962 -0.014040409 0.396252 0.10872024 0.13918036 -0.50748914 0.43709096 -0.04542434 -0.22574162 0.10280025 0.060361784 -0.33700287 0.3421118 0.038437136 0.40325442 0.1318881 -0.28440332 -0.3155004 -0.29060534 -0.08087465 -0.19852597 -0.03582885 -0.11638981 -0.11650681 -0.25485533 -0.27271056 0.19813412 0.05553691 -0.041650884 0.008249091 0.40515038 -0.38887736 0.07733218 0.3012615 0.032806963 0.01862229 -0.038801514 0.17449704 0.22331484 -0.5080423 0.16207165
workshop -0.18794288 -0.17733654 -0.11739414 -0.45132077 0.104980916 -0.15728922 -0.014887954 -0.2943281 0.42767167 0.5489618 0.07609859 0.037050113 -0.36743942 -0.08906665 -0.29775417 -0.05989887 0.07686833 -0.45319054 0.40759057 -0.15013334 -0.007135302 -0.02653913 -0.46121237 0.00055634475 -0.6274427 -0.2690411 0.61592424 0.7387773 -0.34920132 0.7061744 0.026155135 0.64608973 -0.1392761 0.30441603 0.15880686 0.48265728 0.098226026 0.19790003 0.41058245 -0.7635143 -0.14884882 0.4057388 -0.424385 -0.11042039 -0.17120174 0.37994766 -0.48597634 0.6415317 -0.6993057 -0.22346479 0.3020409 0.37687227 -0.29333964 -0.29801536 0.20884478 0.48551935 -0.3625629 0.68235064 0.47332278 -0.12845734 0.5339339 0.024646642 0.21311298 0.07360644 -0.5909674 0.4625687 -0.4395955 -0.64724207 0.4591132 0.17046529 -0.22773173 -0.110911265 0.0063574933 0.39932242 -0.44820777 -0.30729175 0.17251366 -0.4500552 0.1194735 -0.15525562 0.18857974 0.005493594 0.26540554 -0.29651514 -0.49107665 -0.029997034 -0.41169295 -0.17560144 -0.84233797 -0.0067647975 -0.7418948 -0.10789591 0.50945586 0.38924515 0.24069917 0.13688709 0.61879456 0.77359855 -0.46414754 0.04325595
http://conference#Committee -0.6601802 -0.076633744 0.15516248 -0.18838313 0.032294232 -0.084674366 -0.17786856 -0.6191837 0.48591924 0.019736541 0.0043227593 -0.04576925 -0.15126769 -0.02806379 0.095118135 0.2844241 0.26833108 -0.28947058 -0.038086228 0.15282844 -0.06874243 -0.1783788 0.16282572 -0.13280712 -0.17928559 -0.0069960975 0.36094826 0.33293647 -0.49587512 0.16170873 -0.21021628 0.64585525 -0.08799033 0.0812123 0.06964865 0.005165463 -0.0756134 0.281293 0.44739327 -0.71344227 -0.00591703 0.7116225 0.07568828 -0.21406412 -0.041026376 0.3004435 0.11682359 0.34504473 -0.21524581 -0.0032183821 -0.15805812 -0.056132756 -0.27324605 0.010469631 -0.025188245 0.13443072 -0.078706466 0.6663629 0.06556588 -0.59745526 -0.14189057 0.16598122 0.029651819 0.18472049 -0.58029187 -0.33758882 -0.02150742 -0.1771787 0.0033348615 -0.149143 -0.2478854 0.49644554 0.12200362 0.33461624 0.23716998 -0.3260665 -0.018191393 0.027364893 0.19615309 -0.19877452 -0.33335543 0.1046912 -0.10411266 -0.022068303 -0.28639874 0.1625148 -0.09269003 0.0770743 0.11189645 0.32857653 -0.41044945 0.32580817 -0.061756723 0.1967997 0.09053952 -0.088495426 0.21595666 0.42951733 -0.3728712 0.062323224
http://cmt#ConferenceMember -0.56816614 -0.2457233 0.20381387 -0.12688556 0.0215261 -0.030720126 -0.24655353 -0.29371122 0.03847874 0.031905215 0.067979544 0.17137203 -0.1619381 0.23920685 0.23067419 0.31252074 0.12357699 -0.448603 0.20589545 -0.003723962 -0.10783937 -0.23834863 0.27919695 0.064052515 -0.012652399 -0.024132548 0.16178605 0.30622333 -0.26388434 0.23317875 -0.08296622 0.46416384 -0.08692776 0.057847474 0.093454085 0.09861092 0.0965263 0.118134975 0.31309772 -0.69746846 0.051594116 0.8255052 0.07734069 -0.16459866 0.1524871 0.48319554 -0.09565892 0.36039722 -0.50591356 0.10568321 -0.3073937 0.07677003 -0.059407823 0.06047604 -0.08153255 0.281025 0.03135183 0.47311458 0.10068193 -0.5076094 -0.110552646 0.11514181 -0.027296469 0.095212065 -0.48171118 0.07490522 0.012730575 -0.1068019 0.18598555 -0.0118868565 -0.10999073 0.5700444 0.082186684 0.3815498 -0.08470055 -0.18346453 -0.032416075 0.044720493 0.21220572 -0.07203593 -0.33440277 -0.06530094 -0.09216807 -0.078337066 -0.19908291 0.1155547 -0.13806005 0.064364284 -0.0043338677 0.2818585 -0.27766544 0.26311094 -0.026707029 0.20052876 0.057729274 -0.067159325 0.22202091 0.44655094 -0.2526683 -0.06311177
speaker -0.3672347 -0.5527785 -0.045915876 -0.056631036 -0.00037809904 -0.100196555 0.039975513 0.032029487 0.31042 -0.05336623 -0.14964563 0.12096872 -0.7252135 -0.10309073 0.41460812 0.13341211 0.42253444 -1.0198609 0.059761863 -0.014463571 -0.1228002 0.04586126 0.29828778 0.5745275 -0.20051818 -0.13172488 -0.31362978 0.4782519 -0.57736063 0.25370622 -0.2329093 0.4919534 -0.5070032 0.12222726 0.19792052 0.17504072 0.20430991 0.04876691 0.09994116 -1.1691018 0.014580901 0.7819324 -0.3303497 0.26342693 0.01082513 0.88659126 -0.0020262192 1.2802446 -0.4268668 -0.04856542 0.031646546 0.2631039 -0.06675445 -0.5017168 -0.4474619 0.60176295 -0.25117803 1.0446367 -0.110808976 -0.88820916 0.029965876 0.13156016 0.066999994 0.16010115 -0.46206 0.46766672 -0.7086014 -0.047354512 0.082828976 0.14348923 -0.004617988 -0.007903569 -0.24746148 0.2409109 -0.8725881 -0.30734792 0.5488921 -0.40623814 0.17877114 -0.10165752 -0.35621047 -0.03217243 -0.25775787 -0.20774004 0.06564373 0.38244814 -0.1654673 0.0726271 -0.16706613 -0.19971234 -0.17857741 -0.35372773 0.05561628 0.6449209 0.6056312 -0.11482998 0.2602819 0.72765654 -0.21915093 -0.18107584
meta 0.12829553 -0.52318543 0.009771664 -0.17491049 0.07273754 -0.07315375 0.15878727 0.0071901055 -0.13104722 -0.19889782 0.12126209 0.036371157 -0.29465726 0.1284253 0.55984175 -0.20118253 0.2738179 -0.73867184 0.14224651 0.34664193 -0.11909593 -0.10295729 0.2676675 -0.087055594 0.013645409 0.22233789 0.07684518 -0.0139871305 -0.21319321 0.2961625 -0.111635126 0.29410136 -0.43698698 0.018540937 -0.22115071 -0.10108547 0.11213707 -0.089160405 0.24770887 -0.6014459 -0.1417567 0.5587663 -0.32976156 -0.24727811 0.034820598 0.68652767 -0.23476534 0.53203297 -0.45025468 0.32387975 -0.07423556 0.013509196 0.12091972 -0.41854274 -0.23302127 0.061580956 0.0767207 0.5348655 -0.1211116 -0.53884184 -0.1290151 0.13807854 0.1155182 -0.14657535 -0.100981355 0.14282508 -0.4850348 -0.30479828 0.21102418 0.007206469 0.15369238 0.40293798 -0.09318242 0.009008021 -0.16546811 0.029058468 0.49932107 -0.022390224 -0.08116091 0.20913464 -0.4340211 -0.20823719 0.06450951 -0.34871873 -0.05251254 0.16626427 -0.33489215 0.48809808 -0.19164743 -0.16542372 -0.03750594 -0.109795325 0.10843257 0.41949224 0.38728595 0.38035053 0.24350391 0.07474563 -0.07166885 0.082124636
a -0.15483847 -0.53124434 0.06838628 0.01938571 0.0630053 0.1164322 -0.04041748 0.11847724 -0.22027022 0.010815779 0.07867242 0.29402512 -0.24527949 -0.06639971 0.6613269 0.041384008 0.47132024 -0.63987195 -0.028719565 -0.11578145 0.2545112 -0.3663176 0.09695438 -0.39077005 0.178103 0.22904226 0.077875726 -0.45811194 -0.16133797 0.6643904 -0.03851912 0.012748061 -0.45602483 -0.36222813 0.11822217 0.0025496108 -0.24037442 0.12779288 0.17426735 -0.46781537 -0.19653954 0.2729741 0.07689293 -0.18201706 0.5119097 0.7347876 -0.3631561 0.15936245 -0.34399945 0.5802727 -0.057022706 0.5043229 -0.115006484 -0.42511824 -0.119800605 -0.09865829 0.054355156 0.30868205 -0.41314062 -0.22012822 0.121892065 0.299209 -0.054911476 -0.2696701 0.2428301 0.057003222 -0.12274489 -0.31919324 0.25627527 -0.16912155 0.18611199 0.5068464 -0.033146773 0.085444614 0.054354932 0.09983026 0.3577433 0.05080839 -0.03402775 -0.05998265 -0.4605013 -0.21728426 0.24563774 -0.4800274 0.13809218 0.35710827 -0.048361152 0.12171367 -0.45067027 0.087743975 -0.0025489538 0.15958887 0.13223562 0.24796213 0.57546085 0.6672692 0.6166559 -0.0843532 -0.080234595 0.20163967
. -0.30013296 -0.4629216 0.1100322 -0.3383489 -0.25462413 -0.010756411 0.097809106 -0.21212792 -0.016296772 0.21405943 -0.003472496 0.22242236 -0.27118614 -0.15724902 0.4942816 0.1826072 0.14920858 -0.3139359 -0.023549467 -0.049131017 0.031095585 -0.1777412 0.24846402 -0.66158 0.08028291 0.32717672 -0.017163564 -0.42688277 -0.3178963 0.4579412 0.22630136 0.02274198 -0.36179692 -0.11700132 0.1491558 0.11803923 -0.35070992 0.1560277 -0.03231695 -0.39507127 -0.03139634 -0.05421261 -0.2473475 -0.35571727 0.5381425 0.3046002 -0.2154519 0.18702468 -0.22191414 0.44280806 -0.04802803 0.31549972 -0.15407069 -0.18589693 0.06702942 -0.16635689 -0.10792439 0.39180186 -0.3412871 -0.29376733 0.0959748 0.40405095 0.09456955 -0.104420915 0.21756306 -0.06811778 0.0601793 -0.29593503 0.079708695 0.09990304 -0.2604422 0.29095015 0.05013036 -0.11225954 0.39359817 0.08733086 0.20287047 -0.20462662 -0.032184735 0.17555112 -0.38274747 -0.5538603 0.5259869 -0.38175595 0.23964944 0.20740676 -0.25571272 0.08173828 -0.10020934 0.11141542 0.08265413 -0.18862545 0.2728645 0.54873186 0.36095515 0.5220251 0.37422755 0.041021194 -0.27806887 0.28040776
the -0.68817586 -0.06549725 0.09975437 -0.5453063 -0.41810894 -0.07886441 0.002653238 -0.17123085 0.18528162 0.34163883 -0.10701112 0.32191637 -0.25647542 -0.2977674 0.3187492 0.37741277 0.27150023 -0.19435836 -0.18186475 -0.1959549 -0.04437973 -0.10859541 0.27204546 -0.934545 0.020102348 0.4210939 -0.087995745 -0.35980597 -0.25567892 0.37647045 0.24951985 0.23439811 -0.43194735 -0.22932912 0.30211458 0.24024102 -0.37652665 0.005515161 0.078716114 -0.31725034 -0.1271892 -0.115693234 -0.18996134 -0.2801737 0.77657837 -0.01352337 -0.19216411 0.2634448 -0.23227152 0.2755193 -0.02569567 0.16814756 -0.5302747 -0.016586035 0.16124184 -0.32812417 -0.3825306 0.31870747 -0.5147445 -0.18559116 0.22427322 0.56599754 0.22536336 0.1013613 0.13589504 -0.07535182 0.11466401 -0.24616818 0.16509074 0.15647806 -0.432797 0.19206391 -0.038208783 0.004750544 0.40373477 0.03396483 0.14604105 -0.25515813 -0.10447575 0.28250742 -0.2948653 -0.4748796 0.74492455 -0.46015692 0.076684356 0.26183704 -0.18447162 0.07169751 0.09283998 0.18931277 -0.04709302 -0.23044446 0.268593 0.54815036 0.40259296 0.39158693 0.46657115 0.108251795 -0.59226185 0.40661362
http://cmt#Document -0.522308 -0.31025407 0.39237338 -0.10232804 -0.22304288 0.011670519 -0.11896883 -0.30225912 0.1623546 0.21121737 -0.10350111 0.049158826 -0.32610002 0.080950335 0.12155705 0.38513985 0.023932537 -0.25347283 0.13251594 0.029531632 -0.1633248 -0.33385393 0.38499773 -0.07143068 -0.08680478 0.1004875 0.0731563 0.27653295 -0.5492772 0.21810783 0.046189424 0.4093085 -0.18688503 0.1468093 0.06429252 0.05010077 0.11937079 0.14356147 0.3414371 -0.62898046 0.1317085 0.6513554 0.19684985 -0.038718544 0.4058138 0.30708796 0.01355537 0.12174384 -0.2049084 -0.03812989 -0.3578284 0.010638516 -0.23603165 0.24611837 0.032644667 0.23067552 0.0020660318 0.3980162 0.0395343 -0.4286008 -0.069531515 0.057890546 0.13170785 0.13505383 -0.51044697 0.07924528 0.21499467 -0.11548311 0.014931384 -0.0022961996 -0.28670698 0.45120537 0.15033221 0.40609324 0.21401311 -0.27517274 -0.2594519 -0.11801223 0.16359031 -0.13198721 -0.25364354 0.00018150808 -0.12298982 -0.22434548 -0.084886976 0.13158752 -0.05284607 0.17191601 0.035365704 0.48309708 -0.25868502 0.09007597 0.08522573 0.15091442 0.06242525 -0.16168025 0.29450572 0.31540614 -0.44541016 0.12826659
http://conference#Invited_speaker -0.52953726 -0.22483343 0.17655106 -0.076152965 0.042304423 -0.026458941 -0.16630061 -0.1612304 0.07622788 0.042855415 0.03451139 0.15068594 -0.21185766 0.12094475 0.14680701 0.18959048 0.202589 -0.43435735 0.14392179 -0.091492854 -0.07604356 -0.23181178 0.13903001 0.08865429 -0.038485397 -0.10157348 0.10698573 0.35593063 -0.31334355 0.19357117 -0.11148882 0.38054794 -0.07191954 0.13227414 0.17461258 0.1326203 0.13048863 0.10874302 0.19914478 -0.65907216 -0.004575657 0.63855064 0.026487973 -0.08757469 0.15693052 0.44247165 -0.1317987 0.4324373 -0.41699544 0.044135578 -0.11251187 0.06570173 -0.100711726 0.034237944 -0.035990335 0.2570968 -0.027385421 0.45027986 0.1552612 -0.4002052 0.0072475276 0.08789063 -0.063034944 0.08084811 -0.45956108 0.15713076 -0.099856384 -0.05094842 0.10595577 -0.020781046 -0.046869963 0.33671552 0.055337176 0.3408582 -0.14186145 -0.25733498 0.021978611 -0.06085097 0.15667331 -0.11605816 -0.24305159 -0.06186454 -0.011095887 -0.12229363 -0.14546292 0.08597352 -0.11384162 0.058715988 -0.084487475 0.2456957 -0.24268362 0.19272383 0.07094008 0.19397989 0.1158432 -0.098121144 0.22643499 0.4082965 -0.2446342 -0.09074807
http://cmt#Meta-Reviewer -0.33191758 -0.3299438 0.16178812 -0.14526294 0.028706094 -0.06080467 -0.14491664 -0.19663039 -0.1193772 -0.056636576 0.1395801 0.134982 -0.11421969 0.25852355 0.35702953 0.0686249 0.17178349 -0.5303143 0.24235688 0.1940044 -0.206519 -0.19684009 0.26092967 0.027653778 -0.0004708676 0.07811084 0.18975016 0.15779456 -0.23333809 0.25015798 -0.099271454 0.4507949 -0.24765038 -0.010525056 -0.035831183 0.00065105 0.046581995 -0.011970121 0.34297857 -0.6052333 0.034699958 0.8586782 -0.05180326 -0.20642722 0.08432089 0.65239406 -0.21336603 0.41219255 -0.6046399 0.23181014 -0.37044558 0.031026013 0.011350843 -0.068743765 -0.16583003 0.15873325 0.13238107 0.4756098 0.037413232 -0.48853096 -0.23177247 0.14210989 -0.0065608188 0.027638579 -0.36850294 0.11939969 -0.19214867 -0.1553551 0.22820158 -0.06951459 -0.055046324 0.633519 0.009471579 0.28021476 -0.096865416 -0.02381983 0.13799033 0.10010478 0.06618564 0.014575219 -0.4073339 -0.11839685 -0.09160026 -0.1379386 -0.2566536 0.048685353 -0.2561105 0.23009196 -0.06484847 0.10682454 -0.18116859 0.21929033 0.025853993 0.2516369 0.08776809 0.103022836 0.174354 0.29138762 -0.14567257 -0.0071547413
volume -0.11671947 -0.39517707 0.049282704 -0.21777351 -0.10137604 -0.065616705 0.17292777 0.09952738 0.34989357 0.13031408 0.04895407 -0.2670448 -0.6684561 -0.11845729 0.04311464 0.07388309 -0.30835992 -0.22316203 0.33592877 0.083547615 -0.14907719 -0.25139114 0.26483625 0.15179075 -0.01910109 0.56647635 0.028063301 0.53162724 -0.3797006 0.35343945 -0.028006349 0.13957243 -0.2576971 0.46793362 -0.33700484 0.10321531 0.51280916 -0.099720806 0.26383942 -0.60635066 0.07748504 0.48509234 -0.24317141 0.2298837 0.34393755 0.47065595 -0.0180755 0.5058992 -0.44488937 -0.23044525 -9.383762e-05 0.033489548 -0.038757328 0.12132754 0.13529891 0.7011692 -0.28440386 0.92036635 -0.02498636 -0.38169187 0.37719148 0.080728896 0.44672835 0.009201152 -0.35730368 0.19678189 -0.13960274 -0.6475849 0.44457006 0.35149032 -0.09956408 0.031188259 0.03314033 0.08427427 -0.46565887 -0.46804258 0.46170527 -0.39387977 0.03341507 0.123037964 0.23256218 -0.04599214 0.18186317 -0.43265918 -0.28043115 0.030714074 -0.3545915 0.46439835 -0.18221948 0.14592284 -0.62176645 -0.41755638 0.25947434 0.20675908 0.27340403 -0.061088648 0.5782572 0.27707297 -0.5991142 0.34710628
http://conference#Paper -0.37180072 -0.23535772 0.14392938 -0.058187574 -0.19247393 -0.13760845 -0.13739394 -0.18455587 0.11762494 0.08239682 -0.06322135 -0.056979142 -0.4127307 0.24466905 -0.11275553 0.63571715 0.21827565 -0.47882792 0.04536177 0.029016893 -0.20521255 -0.19347377 0.31868672 0.060917344 0.15493953 0.08337641 -0.018540913 0.52285695 -0.427604 0.23590174 -0.22309354 0.7912415 -0.33601105 -0.015114892 -0.1896289 0.028595543 0.23785089 -0.17529932 0.18591817 -0.72187203 0.07591713 0.72412944 0.14521019 -0.07537582 0.72035885 0.27496043 -0.080217436 0.66210926 -0.43119612 -0.14739488 -0.16592725 -0.05766126 0.2702382 -0.054047663 0.052870616 0.21272908 -0.06334235 0.34992614 -0.3198622 -0.6771901 -0.06778821 -0.2207591 -0.08005738 0.07594954 -0.4427893 -0.045501236 -0.046923175 -0.13236211 -0.067913786 -0.037129465 -0.027587002 0.320634 0.17071918 0.42678922 -0.17542394 -0.2578062 0.26807487 0.1467006 0.3743846 -0.03234184 -0.46722484 -0.09014698 -0.12725943 -0.45353994 0.20987922 0.118963845 -0.23987933 0.040381312 0.08765163 0.48516062 -0.21758465 0.21457642 0.011381 -0.01032193 0.275063 -0.12831725 0.24952401 0.39135215 -0.4920708 -0.004822095
http://conference#Committee_member -0.54177666 -0.14238566 0.11478417 -0.1449783 0.04772369 -0.06303466 -0.1602053 -0.2664137 0.19112287 0.061579697 0.03984588 0.07453673 -0.23071055 0.05595143 0.10408 0.18835826 0.16975504 -0.33662626 0.12649564 -0.044919875 -0.086121924 -0.20868374 0.08724689 0.05407886 -0.08178582 -0.052744932 0.18722808 0.4249071 -0.29111665 0.22093256 -0.18177213 0.4524162 -0.064415544 0.17468703 0.1402412 0.15427893 0.10847603 0.09846326 0.23519607 -0.6668952 -0.0010089285 0.6247786 -0.041606482 -0.099217184 0.09279462 0.3937494 -0.1038206 0.49273127 -0.41856498 -0.029859561 -0.07268525 0.07912598 -0.13046747 0.0035109373 0.01251142 0.2781707 -0.086553626 0.5474595 0.14006895 -0.4448498 0.021053439 0.12011733 -0.005134917 0.13350736 -0.54143953 0.05862825 -0.116055645 -0.11745931 0.14509654 -0.011895556 -0.08088455 0.28297818 0.10968502 0.28512445 -0.18970972 -0.30823433 0.0607638 -0.081836626 0.14588816 -0.083203785 -0.17923746 -0.05990137 0.025784876 -0.04840723 -0.24467261 0.068811506 -0.17732562 0.08075064 -0.07310491 0.20020191 -0.34077457 0.19166078 0.064253286 0.192754 0.06776506 -0.07313582 0.24618609 0.4344013 -0.29433763 -0.08516639
that -0.1712776 -0.50220925 0.08818904 -0.10385542 -0.018280873 -0.047955 0.07170418 -0.036814895 -0.09562496 0.21589567 -0.003196955 0.38326514 -0.20526692 -0.12538242 0.46535295 0.14864546 0.45674545 -0.6042893 -0.032161396 -0.066737905 0.21414377 -0.23720278 0.023045214 -0.64667165 0.08404994 0.32048005 0.141245 -0.56416595 -0.20766073 0.59327227 0.03958608 0.12459652 -0.5114792 -0.28407317 0.08975542 0.025072567 -0.23930183 0.14833447 0.06606599 -0.50994664 -0.21277085 0.09462951 -0.050112795 -0.31139234 0.49346802 0.5644478 -0.27794668 0.2690158 -0.26862797 0.44463915 -0.033873785 0.43264902 -0.15509543 -0.37352934 -0.084910385 -0.21360679 -0.015054344 0.4320765 -0.44786528 -0.24220216 0.11915648 0.3727141 -0.014553778 -0.20922565 0.20951267 -0.13526262 0.018069291 -0.34662133 0.12932138 -0.106833 0.00983312 0.31873724 -0.10431192 -0.07769779 0.25162148 0.023091305 0.3304193 0.07949276 -0.08011664 0.051876407 -0.47042447 -0.30044717 0.44539985 -0.40636948 0.14045501 0.31925982 -0.05557343 0.08819092 -0.22802316 0.2095587 0.039576244 -0.002584379 0.121032566 0.42982793 0.50965613 0.6033485 0.4645711 -0.09633423 -0.061620522 0.20867614
http://conference#Conference_volume -0.44864398 -0.24755707 0.14556067 -0.13872151 -0.08932052 -0.05673986 -0.11026249 -0.2362108 0.2148454 0.1164091 0.06014197 0.006482333 -0.30153918 -0.0005171216 0.034499317 0.26944488 -0.033380207 -0.15958291 0.12114596 -0.050927628 -0.12940042 -0.26754937 0.21209578 0.0061591296 -0.0029198767 0.114595555 0.12202153 0.3608911 -0.31762415 0.17910329 -0.11282505 0.30545664 -0.15022895 0.10052693 0.054489136 0.13973656 0.13979368 0.019150618 0.29378742 -0.4755873 0.1295985 0.55099237 -0.08859214 -0.021385392 0.2883765 0.4200066 -0.10031527 0.39774036 -0.4480291 -0.101008825 -0.114119925 0.11121689 -0.1410402 0.14288518 0.06486689 0.41368377 -0.06369454 0.57035357 0.10464587 -0.36596775 0.024993451 0.15161842 0.08081392 0.075605735 -0.42239434 0.09424969 0.009026124 -0.2000694 0.17449915 0.05260885 -0.11043547 0.34575534 0.08194971 0.26404247 -0.22595441 -0.26196545 0.09066015 -0.14609703 0.1615738 -0.08540948 -0.014833608 -0.103631295 0.004597943 -0.11285325 -0.2274021 0.076119654 -0.14402406 0.111380264 -0.0119330855 0.23214191 -0.39092404 0.069272466 0.14262566 0.05537022 -0.0009462534 -0.038095884 0.32793176 0.35103002 -0.43931538 0.051161192
http://cmt#ProgramCommitteeMember -0.7030527 -0.17313485 0.18469226 -0.1593778 0.033041634 -0.10364045 -0.31705654 -0.41008544 0.083987944 0.07695798 0.06656605 0.20630775 -0.06543626 0.22837743 0.19120152 0.4140988 0.12308927 -0.30596384 0.15274262 -0.18038347 -0.10840636 -0.32551074 0.10813971 -0.09628703 -0.009756351 -0.047465935 0.23551261 0.3006721 -0.21149962 0.28035668 -0.050274055 0.5247837 -0.022309992 0.01681796 0.18206276 0.18080288 -0.10402533 0.18815854 0.30940717 -0.5895889 0.09364815 0.69223714 0.09296595 -0.22786376 0.30232117 0.37921184 -0.11356737 0.2500683 -0.55303633 0.1147999 -0.25767276 0.18014747 -0.21410571 0.078276984 -0.0029250295 0.23410377 -0.0041478206 0.44588777 0.1437236 -0.42922908 -0.09178764 0.23602937 -0.0767951 0.15133473 -0.5693332 -0.07949136 0.12593688 -0.11679841 0.18784547 -0.027691387 -0.165761 0.61510223 0.15280989 0.3503739 -0.05994611 -0.12778044 -0.12409974 0.05195688 0.1884793 -0.094821416 -0.3292941 -0.13031481 0.050531287 0.109685495 -0.30985788 0.091020614 -0.14086561 -0.067913815 0.030941397 0.33094504 -0.34696263 0.34278953 -0.0038504084 0.105540164 -0.06534552 0.052289564 0.23721515 0.36927444 -0.18247263 -0.15834858
http://conference#Track-workshop_chair -0.5020761 -0.07921949 0.017987851 -0.25857106 0.026249923 -0.049514916 -0.17738172 -0.3109983 0.21188045 0.37145793 0.057566382 0.14991212 -0.1836777 0.048161797 -0.16070987 0.13612598 0.13260196 -0.3077904 0.27683955 -0.2479218 -0.04574541 -0.14825101 -0.20161055 -0.025711602 -0.34921876 -0.32015046 0.42969468 0.5493914 -0.28104654 0.4642686 0.0073767165 0.59018517 0.008007353 0.15003008 0.26683527 0.34081787 -0.027275752 0.18467723 0.24732023 -0.59656155 -0.05338791 0.4710783 -0.08227727 -0.17130688 0.012085008 0.3029197 -0.3136412 0.39326927 -0.55887705 -0.082761124 0.018265482 0.28474873 -0.25568563 -0.074640475 0.17218584 0.2809676 -0.16498439 0.41060412 0.3782065 -0.13750589 0.21800417 0.047574457 -0.03751829 0.1414612 -0.5235396 0.27151844 -0.12540348 -0.2337676 0.22345155 0.010137692 -0.20554408 0.16890764 0.06879514 0.4228767 -0.17021076 -0.21650968 -0.11620657 -0.21083175 0.17153895 -0.22259852 -0.05577424 -0.031091033 0.111780964 -0.10044935 -0.35420758 -0.026932705 -0.20600137 -0.23736916 -0.46390852 0.20857376 -0.42969063 0.19933917 0.27473083 0.22242527 0.08574949 -0.03257325 0.33873877 0.56414527 -0.29005647 -0.082650445
participant -0.2394375 -0.5635299 0.12293322 -0.27148628 -0.114029266 0.1531033 0.16688664 0.084701456 0.016384086 0.19852915 0.06384563 0.094865896 -0.7095848 -0.36928806 0.0101189185 0.29525688 -0.042782396 -0.13075322 0.2914644 -0.075850464 -0.24004626 -0.36551425 0.15490927 0.20404013 0.07371796 0.64247406 -0.088492595 0.44637623 -0.4024465 0.47553176 -0.1404711 -0.09498553 -0.338779 0.52956766 -0.11337167 0.2964115 0.59376234 -0.11169938 0.14041083 -0.57644004 0.090053275 0.57991475 -0.31639567 0.23873721 0.39304957 0.6064068 -0.011890872 0.77113146 -0.38685927 -0.3793542 -0.17371121 0.09248425 -0.14939319 0.31245923 0.10859632 0.7336402 -0.108894125 0.9478429 -0.20036384 -0.3901857 0.16764948 0.16932778 0.37653896 0.13338187 -0.57517457 0.34346423 -0.078291535 -0.54504186 0.5001764 0.245241 0.008966604 -0.00032274064 0.049943186 0.06839792 -0.5066956 -0.48336875 0.70994467 -0.5143385 -0.20251249 -0.022887863 0.24320565 -0.306159 0.34746397 -0.37864766 -0.37388682 -0.13937923 -0.5167502 0.5398771 0.16387206 0.33479866 -0.6146289 -0.25799343 0.2498916 -0.029677132 0.23238888 -0.046696592 0.5605662 0.33509132 -0.7212178 0.19688936
http://conference#Regular_author -0.69709307 -0.19494097 0.26506788 -0.09047762 -0.010520843 -0.0013200783 -0.24756221 -0.24111931 0.099835955 0.109998286 0.031506717 0.20075496 -0.16490108 0.10298769 0.15829788 0.29417035 0.16866258 -0.32012132 0.13868351 -0.14211 -0.07803862 -0.30666113 0.18808848 -0.006465022 -0.01141326 -0.08679031 0.15487687 0.2553775 -0.35870966 0.21781816 -0.038035043 0.34587756 -0.039185528 0.08666592 0.24879953 0.13762198 0.019625321 0.19298065 0.19154002 -0.60776836 0.04909069 0.6442737 0.15298371 -0.10315713 0.25852624 0.41849706 -0.10141772 0.2543378 -0.39237556 0.08066861 -0.21737656 0.10199254 -0.20084608 0.16771527 0.011344359 0.21744534 0.004704913 0.41060105 0.14469157 -0.32877183 -0.036920536 0.14417386 -0.0911759 0.116367154 -0.45176703 0.09724904 0.10469434 -0.042386685 0.08704558 -0.056827266 -0.169354 0.4329227 0.10111485 0.36181867 0.041662917 -0.22609872 -0.12445017 -0.020594148 0.16564207 -0.17358465 -0.25834194 -0.093091875 0.014949597 -0.076940216 -0.14159596 0.09887264 -0.06124868 -0.0052639875 -0.012518211 0.38253814 -0.23964337 0.28058797 0.057302505 0.15959698 0.031522032 -0.08503871 0.22697198 0.3689873 -0.2685462 -0.049249172
part -0.1704763 -0.2055612 -0.040129904 -0.39821374 -0.092721485 -0.11740594 0.08301974 -0.15132838 0.36923224 0.55436707 0.046330534 -0.07149523 -0.44864762 -0.20532474 -0.2573267 0.08092725 -0.25648275 -0.071433105 0.39562213 -0.17882083 -0.11115057 -0.18464053 -0.25231317 -0.06986508 -0.39327514 0.17761827 0.3937937 0.52466464 -0.36285314 0.6290871 0.16162409 0.31637478 -0.1674101 0.3751386 -0.019671392 0.40928355 0.12401366 0.09147991 0.2791041 -0.41964167 -0.0018728008 0.1979722 -0.32002372 0.13270853 0.20773414 0.25229064 -0.33168787 0.32546952 -0.5139855 -0.2577387 0.18180414 0.291675 -0.3874107 0.0241843 0.3072481 0.5440875 -0.37161022 0.64496744 0.2731588 -0.0017759623 0.5155069 0.13907874 0.33681136 0.07799927 -0.40208143 0.36191747 -0.11445496 -0.721917 0.4913357 0.28601256 -0.3577038 -0.14710928 0.039776567 0.2145567 -0.29545578 -0.28995568 0.1538321 -0.5199583 -0.06473789 -0.06652021 0.39496914 -0.09442846 0.36989072 -0.3415645 -0.46583018 -0.10156474 -0.32413995 -0.0014121925 -0.5676224 0.15207635 -0.68646944 -0.26202935 0.50136876 0.21017115 0.1457435 0.10401421 0.60981977 0.43791404 -0.5636723 0.23648544
co -0.25751767 -0.110308826 -0.2207631 -0.3257953 -0.12357032 -0.0771414 -0.053109225 -0.6346818 0.04002738 0.69333005 -0.0800802 -0.041091427 -0.5965262 -0.083779246 -0.3564573 0.06351382 0.32150257 -0.42313835 0.1815833 -0.31275663 -0.14591539 -0.0052173655 -0.4589347 -0.35268766 -0.58767194 -0.28438866 0.38987383 0.82409227 -0.37901753 0.4175479 0.095082045 0.94463336 -0.14782023 0.16916814 0.37314928 0.3817912 -0.2598329 -0.096811794 0.079144515 -0.8141545 -0.32770157 0.08281754 -0.24574152 -0.24061562 0.30649805 0.013934285 -0.60307974 0.9272911 -0.94315845 -0.3767973 0.20808837 0.4263415 -0.10693666 -0.21965861 0.49121633 0.18934567 -0.40263143 0.58870953 0.1923302 -0.14070466 0.33560354 0.11502583 -0.34096733 0.16146441 -0.62650335 0.31269416 -0.7634363 -0.16253665 -0.1342146 0.07316656 -0.058276612 0.11574511 0.1369524 0.47019187 -0.14327092 -0.42003012 0.08527347 -0.4376636 0.05284689 -0.3719349 -0.06428558 -0.16789663 0.3592348 -0.45577517 -0.42397192 -0.26803908 -0.5392483 -0.6138645 -0.766339 0.31899193 -0.3106174 0.09858085 0.55895454 -0.10802801 0.43902054 -0.073096454 0.44092456 0.48593193 -0.49550325 0.080973096
for -0.17525814 -0.47499698 0.11703325 -0.44334614 -0.30149126 -0.031383075 0.19479135 -0.26852196 0.07465895 0.17248218 -0.10423358 0.17709108 -0.44061098 -0.17532626 0.433649 0.2334553 0.18381615 -0.33844396 -0.06958474 0.044246994 0.07096322 -0.061095968 0.2967948 -0.7051045 -0.0035754996 0.3901904 -0.030297544 -0.30099478 -0.28498802 0.38911006 0.27236688 0.097590126 -0.39884344 0.05524721 0.04761415 0.094153896 -0.23685382 0.10744533 -0.13405061 -0.4233241 -0.109255016 -0.13020627 -0.1647212 -0.29254967 0.61178154 0.18480192 -0.17023346 0.23932512 -0.20714359 0.358406 0.08121154 0.20233868 -0.22119847 -0.08568927 0.13038129 -0.0450769 -0.23111016 0.44701728 -0.36990163 -0.2504538 0.120716356 0.4153867 0.05762536 -0.068412594 0.22016788 -0.08738153 0.063606404 -0.38751727 -0.006189472 0.12020929 -0.20109408 0.13926911 0.013866604 -0.1974664 0.34332687 0.065245636 0.37550786 -0.15222478 -0.108318195 0.21080285 -0.4059492 -0.52269626 0.5485993 -0.42782974 0.32554767 0.26878646 -0.109199345 0.12617913 0.022074478 0.14067815 0.08315551 -0.30878046 0.20264554 0.46722928 0.37966496 0.49747738 0.4311374 -0.04083515 -0.35962 0.25366703
http://cmt#ExternalReviewer -0.63086617 -0.18319844 0.1571585 -0.15548635 -0.004785249 -0.07697124 -0.28691918 -0.37763947 0.08723116 0.065193176 0.05861515 0.1946938 -0.08754939 0.19080281 0.18806995 0.3587759 0.11409582 -0.2854909 0.15376982 -0.14624459 -0.094290435 -0.2899105 0.10779276 -0.096878886 -0.014988905 -0.033363648 0.22307648 0.27041146 -0.23387735 0.259704 -0.05854935 0.4760385 -0.058880787 0.011087306 0.16312484 0.156796 -0.10497107 0.16711117 0.3005186 -0.54974425 0.08440677 0.62723243 0.06697054 -0.21316266 0.2648576 0.36245507 -0.107538834 0.2444767 -0.49872386 0.10540777 -0.22748064 0.14870527 -0.20710596 0.08312513 -0.0070668613 0.21496022 0.000111499496 0.44789946 0.12697928 -0.40747824 -0.07466619 0.2304124 -0.07080279 0.124962024 -0.5250279 -0.07023292 0.088704675 -0.115187444 0.17225817 -0.030707153 -0.1576089 0.5637369 0.14183168 0.30610687 -0.03984476 -0.13054942 -0.09567482 0.044938933 0.15159275 -0.06927581 -0.28548458 -0.11180504 0.06289703 0.07303016 -0.2848295 0.09288029 -0.14691813 -0.056131423 0.016341621 0.3004131 -0.32927245 0.30317464 0.012525465 0.12284549 -0.016566785 0.054533463 0.23819634 0.3439912 -0.18986998 -0.11027856
http://cmt#User -0.38078502 -0.25908783 0.13667022 -0.11961889 0.038737 -0.025163215 -0.12425464 -0.19193734 0.056062855 -0.026379002 0.04470127 0.118159205 -0.19222441 0.16917385 0.21402206 0.21428517 0.17472208 -0.4682569 0.12723587 0.039774172 -0.060505487 -0.18349782 0.23874153 0.035178795 0.028030109 0.017709456 0.122233786 0.25185987 -0.22011806 0.2108877 -0.11395987 0.41044042 -0.11672877 0.050856877 0.016450772 0.051626395 0.121204294 0.06579199 0.25037313 -0.656516 0.005748769 0.6712128 0.0038383144 -0.16545337 0.14191024 0.42624873 -0.066449285 0.4041699 -0.4056918 0.12170954 -0.17877947 0.059503067 0.02031365 -0.06902098 -0.08143995 0.21220633 0.0080651045 0.45984012 0.010342064 -0.48320204 -0.057765115 0.062980846 -0.008435832 0.041944265 -0.36318487 0.023935268 -0.056589495 -0.11802156 0.12966533 -0.024018891 -0.016701167 0.42184398 0.04037913 0.25964132 -0.1412163 -0.17472334 0.112864 0.032387406 0.18880628 -0.02816134 -0.34712178 -0.05668334 -0.050293554 -0.12006116 -0.097288325 0.13642888 -0.16166753 0.12863761 -0.006642982 0.18682112 -0.24493794 0.15028901 -0.026117157 0.22961657 0.1369724 -0.01778812 0.2236741 0.35941145 -0.19634953 -0.051563155
user -0.02128348 -0.39361143 -0.01447568 -0.14166257 0.063252866 -0.041239727 0.10256991 -0.0047652414 0.084072165 -0.08208465 0.042065777 -0.0015953456 -0.35451382 0.041904524 0.19765697 8.252659e-05 0.25253236 -0.624865 0.09199519 0.17204803 -0.030137252 -0.060741913 0.1394838 0.062413003 0.0032195174 0.12464096 0.036738746 0.3045002 -0.24453516 0.2488584 -0.20845205 0.34781104 -0.27289864 0.119521745 -0.11829448 0.03486118 0.2742241 -0.061679717 0.19811438 -0.7269501 -0.077391244 0.5221886 -0.27610913 -0.13142286 0.07022723 0.5019228 -0.09425995 0.6980611 -0.3913424 0.06960838 0.036809437 0.043420605 0.12883882 -0.3058806 -0.121130124 0.23134077 -0.07278769 0.58037764 -0.08208875 -0.53767186 0.06490111 0.017684637 0.10206253 -0.06574964 -0.23710409 0.11116925 -0.3963698 -0.25970563 0.15498649 0.052325968 0.15516295 0.1553601 -0.07693056 0.10906766 -0.36079392 -0.22054344 0.4908639 -0.07982894 0.09625748 0.066043444 -0.28925398 -0.07386492 0.042795174 -0.3137023 -0.058958586 0.14153601 -0.27163416 0.29616407 -0.14835347 -0.032618348 -0.24337156 -0.103938 0.071950205 0.31647962 0.37061906 0.07416854 0.311508 0.32194036 -0.20337658 0.049364477
be -0.5187723 -0.40532917 0.16036096 -0.43295226 -0.18350881 -0.019690376 0.07515504 -0.24461924 0.117995486 0.25490746 0.048056405 0.4359797 -0.25856876 -0.1549153 0.3996584 0.34968856 0.25747657 -0.28687608 -0.042353332 -0.08368639 0.041853577 -0.152856 0.17004272 -0.81244576 0.15047534 0.3011252 0.050178953 -0.48999545 -0.31993896 0.5399679 0.30243117 0.008088271 -0.44150442 -0.17434089 0.28832132 0.15569845 -0.3010542 0.20398591 -0.086191125 -0.32916057 -0.16322266 -0.004550521 -0.17159124 -0.38708508 0.6297356 0.14446081 -0.2603518 0.24629878 -0.18836333 0.33634582 0.14139774 0.23688067 -0.23844588 -0.032105632 0.06105487 -0.2246943 -0.20691222 0.40860653 -0.28471276 -0.2279043 0.26846454 0.4456138 0.12321973 -0.11836947 0.30999717 -0.09413245 0.14449267 -0.27896124 0.101691596 -0.01367433 -0.30795145 0.22956921 -0.10688064 0.0016207757 0.44144958 -0.17795147 0.12898302 -0.17137566 -0.0783046 0.19012958 -0.37973604 -0.46139243 0.7156423 -0.38761708 0.25908166 0.24445446 -0.019404313 0.063573144 0.060409218 0.30193275 0.16867852 -0.0846842 0.23898861 0.6596774 0.41645542 0.41228178 0.55300057 -0.0039487234 -0.33478975 0.37785566
, -0.21319503 -0.5220188 0.1490678 -0.2298021 -0.14378366 -0.11670159 0.23106523 -0.25433546 -0.051374555 0.24533805 0.010765744 0.44691548 -0.16792277 -0.02750397 0.39270535 0.22479042 0.31851864 -0.5072227 0.140328 -0.12756509 -0.043460555 -0.15842478 -0.10579848 -0.64292544 0.073382266 0.1552458 0.2762992 -0.453309 -0.37407422 0.5379309 0.2110657 0.08116232 -0.43301657 -0.15437968 0.11582026 0.12634003 -0.41718152 0.23996632 0.018558824 -0.44509622 -0.19265594 0.082646064 -0.13087536 -0.5063193 0.55693716 0.54675066 -0.24429457 0.068192914 -0.43288514 0.36293188 -0.10583081 0.50386167 -0.27094647 -0.24733758 -0.11444699 -0.21031158 -0.052703846 0.45165876 -0.14497331 -0.3096795 0.033159032 0.34117645 -0.11527806 -0.2190622 0.34178331 -0.07873725 0.07833224 -0.34785324 0.09341389 -0.18475361 -0.17413516 0.19592105 -0.18158603 -0.025596509 0.49229613 -0.034105733 0.21598586 -0.024693701 -0.20831788 0.005626283 -0.48624963 -0.49421555 0.44591618 -0.21927014 0.010168401 0.21997967 -0.12439954 0.19996037 -0.11319659 0.28798795 0.15331438 -0.0369195 0.18350649 0.48676157 0.6001106 0.51854795 0.4734477 -0.17302242 0.03459271 0.35687962
is -0.037130818 -0.5573091 -0.014708135 -0.075077325 -0.22399648 -0.104321085 0.11388594 -0.016707644 -0.21914718 0.086392514 0.013566385 0.3659103 -0.08304296 -0.060966834 0.52454513 0.06337942 0.36829883 -0.6614359 0.15842065 -0.031680886 -0.11244373 -0.24474066 -0.028378077 -0.520753 -0.04053136 0.2567127 0.25788432 -0.40443602 -0.25360024 0.5113029 0.021424012 0.24681392 -0.5086886 -0.23299123 -0.100966975 0.15025015 -0.30451363 0.16015576 0.16443224 -0.4885741 -0.1841779 0.2284137 -0.22512537 -0.48936245 0.52227926 0.8884308 -0.37877715 0.2561129 -0.6482112 0.40695453 -0.2676603 0.56401706 -0.25509605 -0.48932058 -0.17081444 -0.20320408 0.13582994 0.39063805 -0.19278754 -0.34883484 -0.18279831 0.3603991 -0.08831013 -0.27023128 0.23125982 -0.0013316404 -0.22397211 -0.32785276 0.25877765 -0.11960973 0.016340133 0.43044677 -0.29762074 -0.045474853 0.31301942 0.14104632 0.2980264 0.07841558 -0.20354706 0.010530944 -0.49663827 -0.5755387 0.32648298 -0.20883954 -0.23339766 0.19146518 -0.17002147 0.33314848 -0.2892314 0.18896043 0.16930403 -0.046768937 0.1744539 0.49877787 0.7174453 0.63167477 0.39365506 -0.2114808 0.16902462 0.34478098
http://conference#Conference -0.5382543 -0.25011578 0.15915571 -0.09333708 -0.039280005 -0.08564601 -0.13033405 -0.25267524 0.24691583 0.07613215 0.047133476 0.040094282 -0.24418835 0.0044221776 0.0793398 0.26372808 0.032504763 -0.1393282 0.109481975 -0.06963942 -0.13557455 -0.29460594 0.20438845 -0.03783312 0.041785754 0.12242652 0.16322775 0.25459388 -0.2995301 0.099340424 -0.066087745 0.30408633 -0.1523073 0.059810467 0.08490242 0.09058555 0.080645785 0.087825 0.31115726 -0.4512016 0.090483874 0.51635617 -0.03430402 -0.040160764 0.31455547 0.39597443 -0.07409529 0.28289655 -0.37442824 -0.09005058 -0.11944989 0.04402406 -0.18200235 0.14583945 -0.00047647598 0.33871403 -0.013584689 0.5711036 0.031293523 -0.3972698 0.0067142374 0.15407032 0.092205234 0.062071774 -0.41012228 0.0053827898 0.047117326 -0.19306108 0.14837418 -0.037601687 -0.14881761 0.38493994 0.10540854 0.28526896 -0.10931915 -0.22884944 0.043430116 -0.07666113 0.12635414 -0.102113016 -0.06969616 -0.098854125 0.05559001 -0.13434395 -0.14793457 0.095665246 -0.13971223 0.1061075 0.07052624 0.27850628 -0.38301542 0.11942325 0.11555009 0.09943632 0.011412441 -0.057263095 0.25640512 0.35029888 -0.39405394 -0.0019895518
http://conference#Regular_contribution -0.39762944 -0.24236456 0.16822036 -0.039952602 -0.1295342 -0.045753278 -0.13407035 -0.23122965 0.1082904 0.034587648 -0.04599112 0.12772496 -0.31215325 0.18333295 -0.021346083 0.52050817 0.13835694 -0.5472988 -0.020092765 0.0031264296 -0.13524912 -0.15804844 0.30262816 -0.004471762 0.17015682 0.031239143 -0.008374715 0.41775018 -0.35356414 0.25674194 -0.0886093 0.6001321 -0.17095885 0.0073987483 -0.02202987 0.013269484 0.2598273 -0.06812255 0.18808109 -0.6663244 -0.055748675 0.62243944 0.032291345 -0.018968116 0.5542703 0.22079939 -0.035257272 0.51578325 -0.47075015 -0.011834329 -0.17118037 0.030313043 0.15734926 -0.033414703 0.02959494 0.2242554 0.020858476 0.3455545 -0.13989228 -0.68662196 -0.0027210622 -0.12742485 -0.09507234 0.07877671 -0.39565518 0.084066235 0.086628586 -0.083045244 -0.041043486 -0.050081614 -0.08000866 0.38555554 0.07389683 0.30692047 -0.18005699 -0.23369862 0.13633181 0.096866235 0.3441636 -0.08989808 -0.48302987 -0.07828335 -0.096472554 -0.2683777 0.09132382 0.15082733 -0.18712473 0.006662833 -0.018159783 0.4284563 -0.16743717 0.18468063 0.110285535 0.17405148 0.20151544 -0.16125554 0.2826518 0.38511696 -0.35005602 0.015101765
http://www.w3.org/2000/01/rdf-schema#comment -0.4041889 -0.24898149 0.05580264 -0.08918078 0.07606143 -0.15487492 -0.14112842 -0.26102996 0.05075825 -0.07621231 0.124180965 0.09340187 -0.12567557 0.23377742 0.25594792 0.1253272 0.18658006 -0.46270975 0.17375259 0.061087426 -0.14760365 -0.20582531 0.101604626 -0.018864758 -0.01399236 0.04215968 0.19398874 0.22997354 -0.17624848 0.20187595 -0.15858448 0.4855837 -0.17021583 0.029973242 -0.015213375 0.040820308 0.06589228 0.04964329 0.36241293 -0.62441725 -0.030173207 0.6532469 -0.10088249 -0.19608071 0.07540191 0.50357777 -0.18179941 0.41640767 -0.5020916 0.08583587 -0.19356322 0.06851497 -0.050035875 -0.13986029 -0.18654183 0.17067036 0.037614953 0.5273234 0.049559396 -0.5624704 -0.10592652 0.10856663 0.012091694 0.06364447 -0.46598554 -0.0104714045 -0.21030217 -0.17089483 0.20064788 -0.079340905 0.011613516 0.5062004 0.050894868 0.23485571 -0.18093601 -0.07044596 0.14234804 0.0720501 0.06645815 0.06917306 -0.3356842 -0.08240708 0.0014775335 -0.07656404 -0.26585573 0.090223975 -0.27764305 0.15845671 -0.040385224 0.07576167 -0.32415915 0.1757729 0.0323269 0.21861686 0.10227824 0.09496311 0.1647444 0.35962397 -0.120981686 -0.1517515
http://conference#Conference_contribution -0.24708416 -0.22664414 0.14925669 -0.14736016 -0.17774388 -0.1195194 0.015264619 -0.18977694 0.12465756 0.27286038 -0.09093021 -0.02949285 -0.35036126 -0.042181086 -0.060565375 0.29591286 -0.11007963 -0.1784917 0.09898216 0.0025676969 -0.14416423 -0.15860699 0.09715434 -0.059208024 -0.051441815 0.26499313 -0.015039574 0.29304814 -0.39886615 0.2671906 0.011126251 0.25277132 -0.257967 0.11799792 0.026636869 0.10499692 0.066426694 -0.091194734 0.13248341 -0.32764027 0.022174098 0.24143085 -0.015676338 0.15509386 0.4870842 0.14645836 -0.09127782 0.32472685 -0.33055133 -0.15085852 -0.06690071 0.09224655 -0.14368926 0.097751915 0.14470595 0.25651315 -0.17877096 0.2775671 -0.07338755 -0.3032228 0.1560092 0.17856468 0.08738436 0.03764186 -0.27613792 0.18804246 -0.07051881 -0.33239758 0.08302917 0.11321607 -0.17947032 0.07701606 0.06371645 0.14468499 -0.056124736 -0.19308187 0.11304722 -0.1798238 -0.035945073 -0.043712348 -0.01507813 -0.1523291 0.10122058 -0.30867982 -0.10953551 0.0040547205 -0.15306701 -0.012473772 -0.08619026 0.25404346 -0.2992232 -0.07118284 0.2658289 -0.018971445 0.12105996 0.03183368 0.3081604 0.1642827 -0.44230536 0.22364275
decision -0.35422263 -0.036725633 0.013364875 -0.4534483 -0.30100638 -0.15899892 -0.037439216 -0.2863567 0.0795468 0.39851955 -0.016538238 0.2632668 -0.06048163 -0.25340942 0.15602173 0.16934091 0.049873468 -0.15450597 0.04832055 -0.060584456 -0.26183128 -0.03064801 -0.021736069 -0.7473825 -0.18393059 0.24282728 0.091191374 -0.18996938 -0.30200633 0.3457589 0.12921213 0.31310987 -0.42582572 -0.08029907 0.10684329 0.27687156 -0.4018318 -0.013805554 0.054237153 -0.12167838 0.006316852 -0.07031008 -0.2899671 -0.33596912 0.45043084 0.10931176 -0.21677405 0.2653161 -0.41556966 0.112122715 -0.1173401 0.2669856 -0.5101818 -0.014080528 0.2295743 -0.28311676 -0.20124352 0.32457122 -0.11877638 -0.16326848 0.00065563305 0.50838697 0.064136066 0.13260311 0.028468521 -0.111832626 -0.080830134 -0.22041051 0.22693071 0.11098219 -0.4491523 0.20463894 -0.106128454 -0.05118981 0.33171558 -0.055300377 0.11025109 -0.25362206 -0.21333745 0.1494856 -0.11507032 -0.5042015 0.5374827 -0.14209342 -0.2999789 0.08094954 -0.16069719 0.06244191 -0.08102988 0.2222202 0.023960099 -0.18338683 0.3101688 0.49683994 0.23436067 0.41690573 0.3135391 -0.033296056 -0.23338152 0.4329265
art -0.3911237 -0.17593662 0.101066776 -0.09667366 0.07297461 -0.089727916 -0.12027557 -0.39027318 0.26737073 0.050155386 0.098437704 0.12435527 -0.17217243 -0.060051855 0.15097308 0.13541283 0.30174646 -0.14319634 -0.036219254 0.08412842 -0.03295524 -0.14245027 -0.0337243 -0.33244574 0.009073 0.114797264 0.28486285 0.03842263 -0.3399837 0.10961821 -0.0036708207 0.19593324 -0.24184766 -0.038051922 0.18811163 0.09066433 -0.17906645 0.23144822 0.28321737 -0.34406698 0.018981615 0.26238742 -0.04800883 -0.10121021 0.24874954 0.32196137 0.056257688 0.19063269 -0.23761068 0.0069231605 -0.14210474 0.045088354 -0.27819395 0.065473534 -0.109054826 0.002685449 0.0015506508 0.47274202 -0.076629296 -0.35009974 0.099616155 0.17198965 -0.062550746 -0.050160434 -0.28473005 -0.19567654 0.050425433 -0.2607999 -0.050541297 -0.1499189 -0.097705655 0.38376552 0.093731366 0.084824115 0.25127006 -0.10376785 0.16332513 0.071930185 -0.07177908 -0.19357748 -0.19600525 -0.06048245 0.19211408 -0.07937673 -0.11028997 0.042445388 -0.16033348 0.06281536 0.08109032 0.18808362 -0.2047682 0.18418051 0.116292335 0.08243274 0.15045075 0.078751534 0.21376516 0.15805519 -0.26679087 0.11934271
http://conference#Conference_part -0.28885898 -0.18352377 0.06212606 -0.28034145 -0.1625994 -0.093769826 -0.0361908 -0.24738975 0.20919715 0.51586145 -0.010735844 0.015537593 -0.26787925 -0.14384618 -0.16744272 0.22385167 -0.16810943 0.032386158 0.23162128 -0.18325727 -0.09624523 -0.22522822 -0.1867429 -0.19410655 -0.25365114 0.15683098 0.26856095 0.30713883 -0.3608421 0.5194202 0.14396083 0.21064535 -0.12780608 0.1832774 0.13177148 0.3384649 -0.08849616 0.10192891 0.1232973 -0.26462767 0.050123975 0.13421732 -0.14565217 0.09096855 0.34478074 0.14292452 -0.2739466 0.19615552 -0.424188 -0.16890913 0.0287462 0.29345715 -0.38199398 0.13353866 0.3110187 0.34629312 -0.23093295 0.38219333 0.17766501 -0.0054066596 0.29667965 0.23752196 0.121008344 0.1294142 -0.35696417 0.2530796 0.008134236 -0.43289813 0.26805365 0.1796285 -0.34958112 -0.010111269 0.07193266 0.17700025 -0.046039104 -0.18260401 -0.002459339 -0.34477454 -0.07562568 -0.1552799 0.2315186 -0.20400761 0.29582837 -0.1625626 -0.35325137 -0.09134629 -0.19279423 -0.16815513 -0.38317248 0.22636637 -0.42978996 -0.03282183 0.38266337 0.06928168 -0.0046229 0.1311591 0.4721694 0.23617055 -0.4676823 0.18359773
and -0.10030695 -0.43849498 -0.033320706 -0.22781692 -0.29728135 -0.080191806 0.14677323 -0.087782145 -0.07483134 0.19041368 -0.05811976 0.3394951 -0.2080985 -0.1801483 0.37442812 0.22313009 0.2587737 -0.48563462 0.003931643 -0.009793336 -0.0760709 -0.029391106 0.047430128 -0.6855057 -0.081366375 0.34988528 0.11523027 -0.34818712 -0.211327 0.2981289 0.11834922 0.30014133 -0.564874 -0.18692107 -0.08395349 0.11351208 -0.2648556 0.07045436 0.06474313 -0.41774553 -0.17508824 -0.066856 -0.21545441 -0.43126 0.58234036 0.5092022 -0.25459796 0.27950862 -0.4135954 0.28877613 -0.13818625 0.33651653 -0.35196495 -0.3796044 0.028027244 -0.22731578 -0.035596367 0.4310603 -0.39962366 -0.38223994 -0.05172942 0.42624855 0.008418359 -0.16564707 0.27212462 -0.14872155 -0.09172564 -0.336275 0.11960549 -0.029018432 -0.15581508 0.27571666 -0.26957265 -0.10714279 0.4240472 0.13944319 0.3285624 0.026174273 -0.092721194 0.14168766 -0.44610015 -0.5254186 0.39389247 -0.3465232 -0.00044629403 0.26834312 -0.12205563 0.20176083 -0.005717034 0.22660398 0.21203856 -0.20369887 0.15476108 0.57462144 0.612871 0.55998796 0.38440016 -0.08077695 -0.105723344 0.38467488
to -0.2528661 -0.40315273 0.12659727 -0.35467625 -0.21670495 -0.1495964 0.10337187 -0.154626 0.03401531 0.35836208 -0.0166828 0.4136481 -0.11135977 -0.15710992 0.34043702 0.24088772 0.30550036 -0.4305471 0.06440652 -0.029777318 -0.059751574 -0.14647846 -0.011045431 -0.80737364 0.011744319 0.25977066 0.07526179 -0.49742767 -0.3459052 0.47244987 0.16657552 0.17780097 -0.5547886 -0.16025755 0.12088328 0.13159756 -0.3333006 0.12016038 -0.015220086 -0.39097366 -0.1814259 -0.00656207 -0.22466408 -0.45207512 0.56400985 0.35047072 -0.2355847 0.24435578 -0.34488446 0.3037121 0.011490248 0.36931974 -0.34352243 -0.1871565 -0.026302956 -0.29284698 -0.11628053 0.4106451 -0.28627685 -0.25123906 0.041811056 0.39214855 0.028150322 -0.12394934 0.21235132 -0.1343832 0.08151704 -0.3714222 0.12634102 -0.033141613 -0.26232648 0.1847379 -0.20289102 -0.03853674 0.44296873 -0.11459147 0.18256305 -0.07465212 -0.18126798 0.16199526 -0.363061 -0.4878177 0.5850499 -0.27652374 0.034727804 0.27985102 -0.06741164 0.16563325 -0.088173866 0.31054914 0.116998896 -0.19866394 0.21151485 0.6603122 0.45212373 0.5389733 0.42522442 -0.11888824 -0.08393127 0.3635088
by -0.4155542 -0.6723686 0.30273476 -0.30051723 0.06711403 0.03352991 -0.05084077 -0.45745257 0.26961726 0.46864834 -0.12882285 0.057262972 -0.5013893 -0.32433343 0.44947216 0.29623392 0.39913484 -0.34749073 -0.12051458 -0.12566978 0.6633845 -0.38859215 0.108160794 -0.5510971 0.1252106 0.3430458 0.11190519 -0.32325944 -0.47296554 0.9229516 0.23512006 -0.15864357 -0.13576567 -0.023799652 0.4645914 0.22760484 -0.39035776 0.49176475 -0.21943955 -0.72401935 -0.022404084 0.015622201 0.19554506 -0.14579637 0.4985997 0.27022156 0.055773206 0.31710437 -0.043534152 0.44802317 0.29047918 0.5611149 -0.047303446 0.0143003585 0.174817 0.28321588 -0.18974052 0.55727935 -0.46215093 0.010876566 0.42750123 0.18468368 -0.15488401 -0.062106896 -0.20253417 -0.13702358 0.45778465 -0.57384765 -0.10460532 0.13050245 -0.13843946 0.04069566 0.34774852 -0.14173533 0.1169521 -0.20539574 0.2011739 -0.15906402 0.1077301 -0.31050256 -0.26967078 -0.19039701 0.59016556 -0.28276634 0.3921742 0.30280516 -0.0588022 -0.35519615 -0.4160843 0.2744805 -0.52464014 -0.019595748 0.18056764 0.13848901 -0.041889396 0.4281549 0.6887998 0.2758437 -0.53201497 0.07690391
submitted -0.04905559 -0.10204446 0.0638925 -0.45967248 -0.44776905 -0.1904944 0.18650688 -0.2549248 0.13195528 0.26353773 -0.1693116 -0.0656692 -0.5163596 -0.11340676 -0.15454158 0.4516968 0.10956394 -0.38845897 -0.15778334 0.07945718 -0.11251059 0.17826176 0.24488337 -0.61575794 -0.0067748157 0.46037683 -0.12569734 0.16028392 -0.2903627 0.21639186 0.022682624 0.5357983 -0.55566186 0.058668997 -0.13812315 0.12943815 0.02945906 -0.4374086 -0.017953211 -0.37821537 -0.09536108 -0.14916575 -0.20061506 -0.025069458 0.941832 -0.0950203 -0.10704138 0.6921454 -0.4227156 -0.023186559 0.104894005 -0.1784851 -0.13510789 -0.11799437 0.34656093 -0.13810794 -0.45323023 0.3329806 -0.62090516 -0.45596355 0.23344053 0.3483283 0.07664073 -0.03584681 0.10077718 -0.13364571 -0.20161915 -0.39763734 -0.13926099 0.17831692 -0.27960032 -0.11308673 -0.057929695 -0.190781 0.0522854 -0.026948605 0.6414177 -0.013212229 -0.03974929 0.28308222 -0.29169157 -0.34383312 0.4013073 -0.5673159 0.2542382 0.04442497 -0.21691391 -0.042569444 0.20828371 0.1808626 -0.06943415 -0.34558505 0.25428572 0.2599201 0.39138645 0.19253899 0.46690986 0.14672153 -0.5532852 0.4670025
applicant -0.052703403 -0.3542458 -0.016982177 -0.15114707 0.031506352 -0.05054117 0.11092901 0.0015144733 0.14339902 0.0022459081 0.037025306 -0.036988907 -0.41587967 -0.019092742 0.09869842 0.037760377 0.11355595 -0.4620609 0.12609567 0.077956796 -0.041620318 -0.100772716 0.08243055 0.09830631 -0.011579342 0.18822214 0.02486198 0.35740364 -0.23579414 0.26246777 -0.14371176 0.26545316 -0.24747518 0.20518135 -0.12975988 0.09853753 0.30325264 -0.049866717 0.17787246 -0.6323086 -0.046499874 0.42838165 -0.2823107 -0.01509192 0.120510966 0.42808145 -0.08734727 0.64501125 -0.3599975 -0.043205462 0.08303654 0.068749286 0.07079018 -0.19008905 -0.05819389 0.33680573 -0.14903711 0.622571 -0.050621066 -0.45971397 0.17120247 0.016500792 0.1669542 -0.02977049 -0.26439458 0.13266526 -0.31909746 -0.33428022 0.21176867 0.11868463 0.08150538 0.05280887 -0.030342467 0.105432026 -0.4030697 -0.26847517 0.4530761 -0.18568231 0.06825921 0.073830925 -0.10966416 -0.06969461 0.111287795 -0.32969326 -0.114511535 0.091515556 -0.2951074 0.26366428 -0.16102073 0.009836374 -0.3310745 -0.17661734 0.14062813 0.2509416 0.31163317 0.026983162 0.35675326 0.3286342 -0.30510342 0.062475912
http://conference#Conference_contributor -0.2587907 -0.25839567 0.04693839 -0.10606073 0.030091153 -0.027274892 -0.04816296 -0.098066315 0.08511379 0.0130051 0.018468652 0.07557208 -0.25282386 0.067509346 0.114302605 0.13227344 0.20159067 -0.44074932 0.08994323 -0.0034519893 -0.013493741 -0.118826635 0.085550115 0.047966585 -0.0065105427 0.00859953 0.0707621 0.29566434 -0.22319743 0.23489945 -0.13058189 0.3234259 -0.13019362 0.0869094 0.039816782 0.109094866 0.13689299 0.02677309 0.14754756 -0.5984486 -0.02756932 0.4631102 -0.1015051 -0.109603964 0.121574335 0.37995243 -0.09866929 0.51416826 -0.35141557 0.048919164 -0.0059151277 0.10391986 0.027675133 -0.12685487 -0.036439996 0.22033648 -0.062767886 0.44477877 0.0056483243 -0.3978278 0.06380528 0.040725645 0.00018812431 0.021912616 -0.28727555 0.09554714 -0.1794785 -0.14579059 0.12202349 0.021598032 0.032079127 0.18504253 0.00036194987 0.18772364 -0.2301913 -0.20430046 0.23052017 -0.059177034 0.13919319 -0.023393884 -0.22732118 -0.06978597 0.049269643 -0.17420293 -0.07270982 0.1153302 -0.18006931 0.09228385 -0.11631401 0.10112074 -0.218856 0.033636898 0.05769475 0.21546562 0.2087846 0.009844617 0.26596946 0.33386648 -0.22681974 -0.03186276
http://conference#Graphic -0.28664365 -0.22848116 0.08518363 -0.15019462 -0.029073784 -0.07330021 -0.030375538 -0.23100445 0.13048147 0.10642162 0.0069993925 0.087814085 -0.18217483 -0.051673714 0.15130585 0.14506081 0.17004423 -0.21962066 0.044450566 -0.0009472905 -0.0042946124 -0.1353254 0.044562757 -0.23860289 -0.029044878 0.12198876 0.12887731 0.014212398 -0.25366086 0.22476827 0.018501429 0.19686651 -0.19674096 -0.0050321845 0.12503174 0.076438226 -0.10319496 0.12646896 0.13994214 -0.37243 -0.041420992 0.22019467 -0.051484205 -0.12073488 0.23073219 0.2767288 -0.07740908 0.21566935 -0.22332287 0.07941101 -0.045375876 0.1223657 -0.17155115 -0.03171816 -0.010208739 0.06425155 -0.058934618 0.38228342 -0.08005327 -0.24957816 0.06504928 0.16863982 0.002833179 -0.009817295 -0.1670481 -0.0462098 -0.040393222 -0.21871158 0.04749907 -0.03935484 -0.1028702 0.20155592 0.027079156 0.08959361 0.09605175 -0.11338651 0.12598693 -0.04289241 -0.010347752 -0.062277645 -0.17090012 -0.1192198 0.19483387 -0.1662133 -0.05636388 0.09458579 -0.10761184 0.031546492 -0.042967528 0.14519079 -0.1687707 0.03526988 0.11880406 0.1611729 0.1689163 0.14757113 0.26130337 0.1658029 -0.21194364 0.09963717
http://conference#Book -0.2865835 -0.21975818 0.0894443 -0.14238721 -0.020783762 -0.058201782 -0.036958266 -0.23295578 0.14793116 0.11068369 0.020336023 0.08549327 -0.18212552 -0.057180267 0.162264 0.13781658 0.18377581 -0.21082102 0.035967384 0.00079283724 0.0034948399 -0.13526054 0.030730572 -0.2387459 -0.023494668 0.12684612 0.14341588 0.026998177 -0.25198102 0.23038642 0.012042606 0.2035207 -0.19098833 -0.0034350771 0.12901576 0.08247003 -0.10237095 0.13106269 0.13949887 -0.3825168 -0.041145097 0.21639769 -0.042554572 -0.118315056 0.22929128 0.27371836 -0.07969532 0.21302529 -0.21649231 0.06097283 -0.048877966 0.11338807 -0.17674772 -0.022384137 -0.0041936063 0.07603285 -0.060659174 0.388134 -0.08368618 -0.24732928 0.07809541 0.18302003 0.0076041766 -0.006074329 -0.1845668 -0.053687878 -0.022010716 -0.22054917 0.04339582 -0.032148764 -0.09785056 0.20952938 0.030737614 0.08690925 0.09312071 -0.12243874 0.1078952 -0.044935804 -0.0050663976 -0.07700668 -0.15797105 -0.12018388 0.19494297 -0.1556853 -0.048348323 0.08243881 -0.10736084 0.017862141 -0.046632156 0.14402717 -0.18701927 0.04288719 0.1036787 0.16095854 0.15949513 0.14112452 0.25919193 0.17176661 -0.21542153 0.09307163
http://conference#Weiver -0.27421772 -0.21529277 0.07835462 -0.1510843 -0.027734838 -0.071557745 -0.034306087 -0.23295115 0.12599011 0.12127122 0.0032202965 0.080802746 -0.17841491 -0.0634019 0.16300294 0.13623503 0.16773236 -0.22290465 0.031475995 0.0014861806 -2.350593e-05 -0.12676066 0.03349662 -0.23429762 -0.03171179 0.121077605 0.1361882 0.0079730805 -0.2654162 0.23020214 0.021053838 0.1997513 -0.1965018 -0.011124318 0.11646738 0.08574138 -0.106499165 0.1233763 0.12874655 -0.3662816 -0.032995213 0.20056883 -0.05216168 -0.11631538 0.22555073 0.26727903 -0.0753478 0.20728074 -0.22285298 0.07249141 -0.026514322 0.114833966 -0.18087819 -0.032806635 0.008617774 0.06553764 -0.07622867 0.375921 -0.079721734 -0.24023902 0.077445805 0.1825858 0.00073945645 -0.0014639811 -0.16461237 -0.040059354 -0.03249236 -0.21552256 0.04389478 -0.023404017 -0.10696513 0.19201736 0.034123745 0.08317265 0.09440518 -0.12913524 0.110849015 -0.05320096 -0.005558218 -0.06244869 -0.15169294 -0.12946062 0.18576972 -0.17200446 -0.05840037 0.10017467 -0.10844177 0.021560373 -0.053029243 0.14641264 -0.18301345 0.027416512 0.12146243 0.16244535 0.14997348 0.14820193 0.27017778 0.15777262 -0.23143773 0.111674756
book -0.32180095 -0.20086159 0.08907738 -0.1348905 0.014156592 -0.06483314 -0.056601655 -0.2793975 0.19315338 0.10742302 0.046677664 0.07278609 -0.16117136 -0.06649196 0.16446468 0.14957379 0.20905133 -0.17996906 0.019345397 0.022869257 -0.0033911408 -0.14232227 0.015754381 -0.2706095 -0.015264512 0.12886997 0.1709823 0.012995484 -0.2572007 0.19278869 0.010875414 0.21341245 -0.1985283 -0.022876382 0.16557746 0.08431521 -0.11585713 0.15243472 0.16620533 -0.3761538 -0.030693855 0.21930183 -0.026456945 -0.12406315 0.21817204 0.28032342 -0.04992568 0.1914121 -0.2053401 0.04247557 -0.06686561 0.09055892 -0.20353562 0.0044712257 -0.020533279 0.07905014 -0.045484107 0.41596097 -0.07859464 -0.24698114 0.08589016 0.19211155 0.0038503504 -0.012314832 -0.20260042 -0.09007978 -0.0010022259 -0.21220483 0.01846 -0.069636956 -0.102189295 0.23669815 0.036300413 0.09083512 0.12585098 -0.1264208 0.09097758 -0.026251864 -0.008248353 -0.10026909 -0.15923789 -0.09048524 0.20303841 -0.15426777 -0.059864078 0.077583574 -0.11445613 -0.0024329 -0.008871939 0.14646731 -0.2050644 0.06471937 0.087619826 0.1465632 0.14916365 0.12246402 0.25778255 0.17763428 -0.22236979 0.08277381
expertise 0.18373154 -0.4721827 0.26541927 -0.4082049 -0.17507254 -0.14683625 0.07493769 -0.24623293 0.005018734 0.37576237 -0.32560417 -0.061225787 -0.56968844 -0.12365251 0.38473994 0.12904373 -0.25132796 -0.3323912 -0.052654073 0.14465004 -0.20125617 -0.21843903 0.19106795 -0.028692989 -0.3344573 0.3240807 -0.08944277 0.17530574 -0.51812357 0.18490079 0.25854596 0.31166467 -0.34782767 0.3061147 -0.14156114 0.03131082 -0.070395604 0.06380721 0.33242556 -0.40278938 -0.14275487 0.21826303 -0.24368542 0.22227465 0.37173483 -0.032413136 -0.13139808 0.15539971 -0.10321865 -0.25562617 0.12651734 0.07888327 -0.41497952 0.0011197667 0.024056487 0.29384753 -0.13595374 0.33175105 0.053996276 -0.3915104 0.072737336 0.52223706 0.20745856 -0.0075154486 -0.4058446 0.21512774 -0.30704948 -0.41218984 0.0710376 0.2736691 -0.3195738 0.10030291 0.23034379 0.17446935 0.11344783 -0.24864055 -0.12552923 -0.5071725 -0.21512309 0.04288002 0.09481159 -0.2133177 0.035567723 -0.31456926 -0.20217012 0.23989257 -0.23955148 0.2817556 -0.39194238 -0.0015422074 -0.15832023 -0.3212203 0.31246713 0.08061548 0.14709783 0.36575902 0.37805185 -0.17693198 -0.46507835 0.2731442
