275 100
of -0.27875158 0.39199412 0.30820513 0.30496332 0.013097458 0.10058111 -0.65210766 -0.29831785 0.8922565 0.15830141 0.6483973 0.3153472 -0.3031806 -0.62660956 -0.17346601 -0.3383115 -0.1575976 0.4148076 -0.25326782 -0.046954222 -0.19956143 -0.50481164 -0.1059232 -0.028109593 0.27469528 -0.40815666 0.12699826 -0.2227578 0.22891957 -0.33014253 -0.16533066 -0.6584251 0.09170135 -0.00027311756 -0.0824491 -0.08602709 -0.2802384 -0.21562234 -0.1760265 0.09201556 0.102356136 0.04988544 0.11384145 -0.45930463 -0.15102446 0.20316221 0.21075115 -0.163913 0.18269621 0.0059135207 0.31070966 0.035462968 0.2187431 -0.44916263 0.02458497 0.2558168 0.011464023 -0.414515 0.10559918 -0.21742572 0.31542665 -0.42175767 -0.04478117 -0.07483503 0.22365738 0.015473131 -0.00064437446 0.18207408 0.17310584 0.13353036 0.0051909103 0.16581783 0.24206583 0.048186105 0.35160333 0.017221656 -0.027412407 -0.31836918 0.21735126 -0.46256426 -0.059428416 -0.309063 0.62482476 -0.25301045 0.2263421 -0.17052916 0.15037407 -0.33874738 0.24978316 -0.48153704 -0.3747199 0.03919169 -0.105290115 -0.110102996 0.17074867 -0.28521538 -0.3369488 0.27828285 -0.1302431 0.21852759
type 0.10593964 0.22601178 -0.04375293 -0.15912172 0.015071043 0.19153619 -0.4593677 -0.085348316 0.47951686 -0.093215294 0.16473427 0.18779218 -0.06876663 -0.13437359 -0.079612 -0.14940156 -0.3040562 0.1350931 -0.5678632 0.19937494 -0.31697387 -0.12010738 0.019600792 -0.21458185 0.013146101 -0.6191767 0.3627697 -0.25942448 0.28630483 -0.6022466 -0.09006003 -0.10098386 0.34861955 0.029404612 -0.23802961 -0.04079225 0.030186985 -0.50616777 -0.0114495475 0.21088086 -0.13987459 0.16765654 -0.0713925 -0.57402426 -0.040878586 0.40463823 -0.17687069 -0.1958328 0.16432145 -0.13506971 0.53536195 -0.15602508 0.3132978 -0.3481028 0.2029026 0.32120207 -0.5701917 -0.40837666 0.5278182 0.08140384 0.09440115 0.04533143 -0.14936207 -0.02367111 -0.000599316 0.03199688 -0.15713364 0.23170693 0.36198947 0.28659394 -0.11563544 -0.069455676 0.5621358 -0.022986969 -0.20136544 0.26091057 -0.21505602 -0.25109234 -0.060239222 -0.4531598 0.026239397 -0.3233536 0.32503137 -0.2061101 -0.06214571 -0.09626219 0.38476938 -0.19516395 0.11969585 -0.53112966 0.22565149 0.47366232 -0.18384703 0.22981657 0.0645926 0.04311101 -0.21921234 0.080986686 -0.48877743 0.23024146
conference -0.5635277 -0.023146857 0.19467486 -0.39467403 -0.30354884 0.3810487 -0.09977276 0.4147039 0.5819843 0.4814462 0.05747072 0.29010946 -0.19181475 -0.0408173 0.1859854 0.3905251 0.13643561 0.049626175 -0.32883835 0.015932629 -0.06163531 -0.19786483 -0.20440926 0.13531269 0.036956623 -0.56146854 -0.039404478 0.102143906 -0.16379733 0.09523126 0.002299322 -0.21904351 -0.3256146 -0.16255711 0.11284032 -0.006310831 -0.18780354 -0.32681715 -0.26274496 -0.24505483 -0.21760625 -0.065370694 0.12331961 -0.37425768 -0.5536576 0.5487308 -0.32351628 -0.2247778 0.3877653 -0.1223132 0.15818729 0.44876608 0.23268433 -0.15592992 0.13922936 -0.035657167 0.042906143 0.15817916 -0.01879024 0.17891324 0.13888852 0.20174812 0.14344214 0.26859158 -0.72236407 -0.01630393 0.09161654 0.1836426 0.49079657 0.4234903 -0.11469381 -0.24460661 0.7136425 0.15324531 -0.5738045 0.14175029 0.09510993 -0.25301492 -0.0059533874 -0.47021437 0.040332224 -0.51692414 0.17805289 -0.5005086 0.2545874 -0.02938386 0.16487025 -0.19196399 0.54990494 -0.29243216 -0.7304928 0.44376597 0.0538768 -0.45448822 0.035408165 -0.07719277 -0.86844444 0.2333266 -0.08770951 0.79470056
reviewer 0.003713402 0.005835006 -0.10884838 -0.07050634 0.3289399 0.13755411 -0.16210586 -0.32353702 0.37686202 0.08700769 0.14109308 -0.103295244 0.047488723 -0.016157854 -0.16156574 0.08963184 0.051620618 0.07386892 -0.42091268 -0.08104779 0.20083034 -0.21492425 -0.47714776 0.26846552 0.24417953 -0.568451 -0.027528312 -0.056315202 0.30611706 -0.28478846 0.017448107 0.012024305 0.21975982 0.20529272 -0.3942768 0.2592819 -0.14203607 -0.5156555 0.24851413 -0.25601447 -0.22425315 0.18473203 0.32070673 -0.1255752 -0.29169998 0.05779098 -0.08800357 -0.23160943 -0.108502395 0.32345203 -0.3220364 -0.2679376 0.56553537 -0.020025218 0.4762391 0.7643739 0.1938646 -0.2892263 0.13288273 0.30608657 0.32510686 -0.11549084 0.40568134 0.38631982 0.084931985 0.086285174 0.60519207 0.36495772 0.24916388 0.20475751 -0.0008504928 -0.001171351 0.8183852 0.08562635 -0.1222948 0.039369464 -0.16334233 -0.32559705 0.26190558 -0.65331197 0.1241685 -0.13082929 0.95805347 -0.30072492 -0.078875974 -0.12363815 0.49186328 0.12983425 -0.19510426 0.05273054 -0.19411941 0.40430617 0.2809671 0.16953418 0.2864264 0.32743272 -0.58468974 0.057391614 -0.36853603 0.6527407
paper -0.5651716 0.1233603 0.17340116 0.21623169 -0.30212194 -0.14358625 -0.4124274 -0.10737487 0.27686518 -0.21872559 0.19299084 0.01417263 0.3507796 0.0047389492 -0.28563127 0.38265294 -0.026380606 0.5577384 -0.1840707 0.13382371 -0.065387085 -0.32137734 -0.18966971 -0.15678425 -0.04964162 0.003058198 -0.40905935 -0.60748094 0.05749241 -0.20212604 -0.12862168 -0.1652028 0.19250163 -0.21430479 -0.049956776 0.20641701 -0.2702601 -0.0014925909 0.6203927 -0.35287377 -0.13424148 0.06611261 -0.2706869 -0.1743038 -0.34611404 0.48657525 -0.031006439 -0.16517118 -0.07385302 -0.54370826 0.45358118 -0.009671124 0.49967054 0.30042666 0.051809907 0.9004725 0.009689893 -0.17173135 0.47386068 0.15708028 0.1768411 -0.66026455 0.38289827 0.5466664 -0.35539135 0.2875933 -0.10329521 0.16200328 0.11663786 0.21240763 0.017062608 -0.037217792 0.41112497 0.32837525 -0.15332192 -0.02306961 -0.33359134 -0.27258867 -0.08521618 -0.77687085 0.35741052 -0.06284305 0.3116425 0.063755974 -0.012969346 -0.145235 0.19059315 -0.30095395 0.44392198 0.25616178 -0.07616702 0.7612958 0.45351043 -0.23551677 0.15040535 0.18338 -0.43577397 0.1913284 -0.19786604 0.8411599
person -0.13845117 -0.4125827 0.15662247 0.20907009 0.10533377 0.042479765 -0.5850722 0.059257228 0.5885378 0.30796033 0.30699274 0.22640334 -0.6042577 -0.6480609 -0.024311239 -0.019987112 -0.65197426 0.4375838 -0.5463125 -0.12725133 -0.30940622 -0.36827087 -0.23816031 0.24948657 0.05374437 -0.79575866 0.08762959 -0.7257232 0.26244575 -0.26256818 0.049733594 -0.5455025 -0.04538091 -0.39198387 -0.12706542 0.21416539 -0.21819383 -0.26037475 0.48501363 -0.5627429 -0.3925063 0.43029517 0.26406515 -0.28695866 -0.35417104 -0.18298529 -0.44359285 -0.12698317 0.21338435 0.19321121 0.25490323 0.25302225 0.49708617 -0.7202996 0.22019432 -0.058082063 0.15649022 -0.5577321 -0.18447381 -0.39357862 0.1351244 0.32554874 -0.12254774 -0.426308 0.18465574 -0.27656353 0.6059094 0.17563552 0.01408708 -0.01899612 -0.1378385 0.03728452 0.089506485 -0.28818038 -0.12640543 0.006934465 -0.218164 -0.38280728 0.6351118 -0.11064027 -0.09171214 -0.043638784 0.6461064 -0.5135972 0.09412553 -0.5789347 0.22154419 -0.5278912 -0.103372976 -0.79070306 -0.48223326 0.18765071 -0.27525342 -0.23120612 0.44571218 -0.10129599 -0.25726596 0.65880316 -0.5183192 0.37313977
super -0.3697621 0.07332789 0.53353465 0.24064352 -0.09074001 0.07545915 -0.5650314 -0.15237516 0.9552996 0.25026768 0.22993015 -0.082982704 -0.18168841 -0.7053687 -0.09507008 -0.4382785 -0.397251 0.7586706 -0.14955638 -0.27201784 -0.2966645 -0.2609442 -0.04052636 0.6347786 0.42701566 -0.51389956 0.158211 -0.30735543 0.43015733 0.055197835 -0.2079366 -0.40382722 -0.10953896 -0.28531402 -0.31208926 0.017029397 -0.55665743 -0.4085027 0.071747944 -0.13287851 0.24779633 0.47859365 -0.04210839 -0.12340994 -0.26783893 0.18698715 -0.054212376 0.01578555 -0.042625155 -0.36815643 0.0717383 -0.13458177 0.08626886 -0.84782 0.08310293 -0.07270497 0.14976303 -0.14910087 0.09350556 -0.34914443 -0.13775378 -0.023011453 -0.44825375 0.0058420068 0.3717211 -0.41880947 -0.17853023 0.33712655 0.15812562 0.045316115 -0.0063970643 0.04947536 0.31341362 0.05758431 0.24177413 0.081796356 -0.46300942 -0.04197399 0.36027443 -0.39994383 -0.26150048 -0.23993634 0.41695365 -0.1119265 0.29628235 -0.08944561 0.12936732 -0.5919744 0.49632972 -0.5067811 -0.25991046 0.35722977 -0.100705676 -0.11337182 -0.26068175 0.35562006 -0.7515856 0.10191873 -0.40044108 0.034695793
class -0.24838823 0.09163915 0.021466946 -0.05578096 -0.17081806 -0.20135204 -0.53120655 -0.4391146 0.74201834 0.32864317 0.38305482 0.13948868 -0.23008274 -0.756298 0.0017534816 -0.47919875 0.01814168 0.6317538 -0.30880252 -0.16990522 -0.46428704 0.13170898 -0.07827256 0.23520684 0.030805789 -0.5839025 0.13267778 -0.34766373 0.18683526 -0.22609112 -0.041323837 -0.17298664 0.086991586 -0.102485575 -0.27340317 0.10843791 -0.28857404 -0.40406528 0.05487874 -0.04019391 -0.006732748 0.5533845 0.003150226 -0.12056026 -0.21785645 0.1661912 0.32649535 -0.4023482 0.21250215 -0.21825504 -0.0374059 -0.13885257 0.20604554 -0.48395637 -0.088885225 -0.23213628 -0.12724862 -0.34860858 -0.25043255 -0.18333256 0.020826425 -0.05254464 -0.32250682 -0.103690475 0.32026047 -0.67585105 -0.21659188 0.038837746 0.11598835 0.15124594 -0.18008468 0.13007285 0.47837213 -0.038395178 0.22518778 -0.4448766 -0.41216278 0.07209575 0.44157472 -0.46070027 0.07291955 -0.083320186 0.61344105 0.11623144 0.5716679 -0.39428902 0.33916894 -0.5749018 0.62448055 -0.5501132 -0.54837465 0.3220061 -0.41770744 -0.13799249 -0.069632895 0.2616324 -0.40463713 0.21558493 -0.2810525 0.44281724
by -0.0071261562 0.4182597 0.29535007 0.11186076 -0.3360186 -0.047505926 -0.50656104 -0.23573853 0.5347076 0.46020573 0.8842743 0.14389703 -0.012122813 -0.09981058 -0.2080129 0.2850172 -0.027625004 0.45853046 -0.35321265 -0.08608396 -0.35024622 0.04350654 0.10158696 0.14576787 0.27375463 -0.2764383 -0.14602634 0.17756489 0.36006516 -0.14149147 -0.406976 0.11447064 0.0715661 0.2512814 -0.035872918 0.40945497 -0.12788786 -0.44078687 0.12990218 0.15024605 -0.5570739 0.2972282 0.2728902 -0.13946424 -0.9180181 -0.0477137 0.17072487 -0.044540778 0.19220461 -0.082019165 -0.14055799 -0.07288931 0.5170424 0.23042779 0.58461666 0.82640076 0.3828021 -0.3067693 0.41022584 0.5955146 0.12607227 -0.2546977 0.34879684 0.46154907 -0.6391377 -0.35353157 0.18510999 -0.15070379 0.16517666 0.017338222 -0.10073724 0.29518598 0.9034926 0.4118877 0.20571636 0.22138071 0.2526928 -0.15919596 0.07785755 -0.94808257 -0.18914886 -0.53240854 0.3835645 0.313047 -0.2429894 -0.18261428 0.33026335 0.027460206 0.22172295 0.14245695 0.2796856 0.6013992 0.43970197 -0.10559793 -0.3923797 0.13624428 -0.64926857 0.11685789 -0.41494372 0.56900066
administrator -0.06193525 -0.058859445 -0.018921664 -0.24898937 -0.3157203 -0.24793237 -0.019215023 0.025116786 0.26923475 0.2971069 0.44970268 -0.14003158 0.28912732 0.14566919 0.2644915 0.2415108 0.10592275 0.33319265 -0.17766997 0.0025730145 -0.14852498 0.014872543 0.3096394 0.3234825 0.28323403 -0.30323333 -0.46275553 -0.31383353 -0.100185595 -0.29070753 -0.12958884 0.019386169 -0.028371422 0.061926372 0.0019714185 0.41112563 -0.28306457 -0.53603524 0.3453059 -0.55994725 -0.36164775 -0.0055975225 0.19204204 -0.43373317 -0.9429191 0.19385178 -0.06258832 -0.09503728 0.22611679 -0.24402568 -0.06018317 0.016246166 -0.00050598325 0.40712658 0.3080595 0.37236884 0.26339582 -0.15579732 0.37375462 0.35051465 0.3188955 -0.10520824 0.31594473 0.39143887 -0.95093703 -0.60312515 0.23416676 -0.1601443 0.1929029 0.10663243 -0.054269314 0.1128943 0.49072236 0.3633157 -0.2942503 -0.12156837 0.38273552 -0.109775744 0.18476945 -0.45983005 0.06869023 -0.3846408 0.33309796 -0.026230041 0.26219755 -0.3405754 0.18843234 -0.22638582 0.07913049 0.29422536 -0.15773867 0.5766958 0.64264566 -0.045473717 -0.18406676 -0.14334325 -0.26645762 -0.27024907 -0.502811 0.6249611
committee -0.043366946 0.05612792 0.34806934 0.0922217 -0.40222546 0.35553128 -0.24470523 0.21014057 0.40858784 -0.11503135 0.8646255 -0.2240656 0.29167026 -0.11184652 -0.010780902 -0.2856107 -0.004792691 0.28315583 -0.3310275 -0.13546517 -0.43467715 -0.00061875896 0.15338778 0.3614068 0.4561368 -0.22193094 0.17569317 -0.11269989 -0.4321255 -0.10869214 -0.11848675 -0.39481905 0.4082955 -0.7529091 0.4246415 0.362326 -0.14550614 -0.10386377 0.27626657 -0.69470936 -0.12405514 0.03669214 0.46481678 -0.6971392 -0.23655598 -0.17862432 0.3134318 -0.06397904 0.051700935 -0.2834338 0.30287528 0.3202337 -0.051092293 -0.20930469 0.38620144 0.08749648 0.030822877 -0.086616375 0.14367385 -0.337055 0.22258756 0.6486973 0.08553811 0.047239672 -1.0161033 0.15561181 -0.110551395 -0.4052799 0.2717437 0.014456409 -0.7874906 0.065731846 0.4739997 -0.18062459 -0.07323332 -0.14445896 0.13425504 0.14745818 0.7287013 -0.1276593 -0.24563988 -0.8219573 0.46369433 -0.17367135 0.53009856 0.061101258 0.60046166 -0.4744427 -0.28218472 -0.019178959 0.00093729474 0.34400782 0.4249865 -0.18775642 0.49503312 0.21047476 -0.63544554 0.23620874 -0.37641057 0.9038481
http://cmt#Conference 0.15993725 -0.6955834 -0.39227745 -0.3057567 -0.26627308 0.38263208 0.15098272 0.35369557 0.17147607 0.004121047 -0.20557764 0.15622437 0.008444859 0.33065373 0.11192635 0.0012188639 0.39257362 -0.2161924 0.025184095 -0.16082297 0.5631322 -0.17997813 -0.11286117 0.33799148 0.34321335 -0.38888547 0.18083294 -0.33595794 0.17053546 -0.20412044 0.46684074 0.02699069 -0.3824592 -0.09960447 0.39460123 0.15181102 -0.26011202 -0.25276947 -0.3832902 -0.20043193 -0.28712082 -0.09358277 -0.060280044 -0.27547446 -1.2884896 0.23360294 -0.2946484 -0.26966432 -0.18016806 -0.2710915 -0.067148104 0.4234658 -0.19768779 0.16674735 0.362726 0.39085838 0.5529966 -0.028473927 -0.014623602 -0.18563198 -0.09061092 0.2593758 -0.03701654 0.32725546 -0.8456401 -0.36529866 0.6178254 0.21774697 0.63837206 -0.0018845086 0.05605312 0.32086602 0.6823877 0.22922713 -0.62454575 -0.37131867 0.5260233 -0.71987957 0.07243837 -0.2292564 0.18843144 -0.4754206 0.29963094 0.094017126 0.24045509 -0.4417319 0.45443046 -0.593313 0.16941512 0.5297499 -0.46574295 0.41150954 -0.14763981 -0.7087997 0.041973457 -0.30161306 -0.3967896 0.2988548 0.003078213 0.8527864
http://www.semanticweb.org/owl2vec#superClassOf -0.21937035 -0.35602784 0.077863924 -0.15340339 -0.7414779 0.25537112 -0.56475216 -0.49495855 0.8519673 0.25211662 -0.010223752 -0.24021406 0.049237248 -0.1940893 -0.20991823 -0.42437747 0.06301985 0.56200296 0.07733176 0.09450104 0.15698999 -0.16092771 -0.29136452 0.14812635 0.051784966 -0.60677147 0.4584323 -0.52749103 0.7879998 0.042946346 0.33316606 -0.016238406 0.046141196 0.032179464 -0.08060784 0.5767392 -0.12841077 -0.24493688 -0.36563188 -0.24346125 0.46383747 0.5022598 -0.2586024 -0.002011679 0.15026578 0.5969127 0.17125578 -0.2905042 -0.5262129 -0.25241414 0.028988937 -0.07987522 0.077479124 -0.2600824 -0.12785354 -0.19130544 0.015003137 -0.5997177 -0.1778456 -0.6484396 0.081471205 0.1700969 -0.5491156 -0.07564612 0.3152756 -0.69774544 -0.16633597 0.2786364 0.13667305 -0.11017054 -0.044672817 0.3282477 0.032774348 -0.004063013 0.48705655 -0.39790878 -0.21933295 -0.34021953 0.046616428 -0.3413099 -0.49968174 -0.35684162 0.14730641 0.039747484 0.5327646 -0.25624895 -0.10475428 -0.7847114 0.3705399 -0.5638362 -0.23780379 -0.076443724 -0.5018697 -0.1766109 -0.20351565 0.2911053 -0.47962376 0.5526055 0.1932406 0.22392683
program 0.17170016 -0.21392052 0.35180098 -0.07197434 -0.08344212 0.26112017 -0.24163775 0.059875462 0.38707379 -0.037160207 1.0143499 0.0060097477 0.102383964 -0.322 -0.064586274 -0.09176964 0.23013777 0.07450472 -0.29314727 -0.26885408 -0.3218413 0.1954503 0.26828542 0.07575079 0.5038435 -0.1309572 0.14193502 -0.12705915 -0.33817855 -0.24235606 0.019871898 -0.21675144 0.19269598 -0.61960363 0.025788497 0.1805894 -0.34178767 -0.12284375 0.39614043 -0.691082 -0.31336978 0.33615756 0.47270888 -0.784931 -0.4877474 -0.12020938 0.3822034 0.18104245 0.0761857 -0.37890044 0.13171159 0.30136338 -0.14926225 -0.052313086 0.45770934 0.25749242 0.22129291 -0.08478882 0.04643674 -0.43614766 0.25725833 0.5127393 0.14663087 0.25281683 -1.0381236 0.19200504 -0.032023165 -0.2359903 0.3823687 0.29039472 -0.7271352 -0.08228009 0.43194073 -0.21504645 -0.039564863 0.16323996 0.26094866 0.12979862 0.5787848 -0.18115188 -0.10449893 -0.8218139 0.35424837 -0.21315798 0.317183 -0.22620612 0.58902735 -0.36475703 -0.20345114 -0.07851058 -0.0051646107 0.14506556 0.37825456 -0.24449039 0.58144045 0.11927798 -0.58165413 0.38351882 -0.4984248 0.6202326
review 0.11926634 0.19220296 -0.39933443 0.03874413 -0.2688411 0.031834237 -0.60096854 -0.3709909 0.69113916 0.7247918 0.5830214 0.6067185 -0.098878264 0.2162543 -0.2141682 0.075564586 -0.07611741 0.21499404 -0.48942488 -0.0005617996 0.12763174 -0.43936118 0.053106938 0.14048275 0.10917974 -0.38817063 -0.12575664 0.10996249 0.32162407 -0.1319323 0.053934645 -0.1363777 -0.49182183 -0.36908135 -0.055390615 0.6327972 0.036114626 -0.33537424 0.7467334 -0.27132666 0.029228585 0.14416695 -0.35360983 -0.3882901 -0.6120529 0.5635917 0.020402864 0.0022992177 0.04062744 -0.1821447 -0.29335064 0.02714871 0.3418588 0.31180122 0.28053758 0.6351276 0.39899486 -0.526835 0.4110643 -0.106000304 0.42058185 0.20802285 0.6326176 0.107870005 -0.41046897 0.05757232 -0.23691316 0.23112747 0.24259463 0.58532983 -0.44369885 -0.38972622 0.49867627 0.13950087 -0.3024546 -0.14753696 -0.42275187 0.15939945 -0.17684668 -0.44338065 -0.16859828 -0.074354425 0.7531302 0.28702924 0.6449 0.69048375 0.29740232 0.24046944 0.29102257 0.28474447 -0.14600511 0.6166257 0.05638509 -0.26705462 0.06106744 -0.08693965 -0.37447226 -0.5263789 -0.03842518 0.2141332
subclassof 0.015931642 0.10671926 0.08492578 -0.0031781844 0.012986773 0.08173612 -0.37882465 -0.1459784 0.72038513 0.14829394 0.28978926 -0.09778283 -0.3270079 -0.40571213 0.23990564 -0.480859 -0.08204086 0.6403747 -0.24824138 -0.12318795 -0.27774453 -0.724145 0.0013531714 0.120689996 -0.23007537 -0.12581678 0.11264896 -0.17757095 0.26985434 -0.1269418 -0.35754895 -0.41185215 -0.2828718 0.1352644 -0.17279142 0.47430408 -0.53045607 -0.51770073 0.1545478 -0.23025464 0.3613875 0.3803663 -0.23652314 -0.6037999 -0.27679178 0.32072365 -0.08261621 -0.18387337 0.11388176 -0.10764414 0.31553137 -0.20139824 0.41011482 -0.3644773 -0.34542763 -0.17553383 0.1464712 -0.42359346 0.2906959 -0.15296935 0.077636376 -0.14920291 0.14906499 0.22156636 0.14108513 -0.5702182 -0.22499701 0.17760593 0.39653608 0.19510405 -0.06776993 0.12306325 0.52346617 0.15222667 0.14836897 -0.24233203 -0.14378738 0.26597452 0.06367265 -0.1113412 0.06242328 -0.50780386 0.5502688 -0.45691642 0.39452147 -0.48562613 0.05250212 -0.30386207 0.27249566 -0.48291522 -0.3014545 0.23016435 0.3134939 -0.04629917 -0.07349666 -0.16563389 -0.5009031 0.10623445 -0.2448582 0.14501797
http://cmt#Paper -0.14014298 -0.30591467 -0.3425661 0.470728 -0.34445465 -0.092855215 0.03899106 -0.4518921 0.10047526 -0.28569353 -0.2656319 -0.16589206 0.09772365 0.19924432 -0.4605656 0.029061845 0.46400464 0.606876 0.5507935 0.2134387 0.4059528 -0.24518031 -0.3875526 -0.2507267 0.12920016 0.006301174 -0.45917478 -0.80352616 0.111730754 -0.27106303 0.2738404 0.18388468 0.39925605 -0.29645446 0.12238841 0.44330463 -0.40891126 0.41302833 0.6250675 -0.3062948 0.039220463 0.22350821 -0.14356376 -0.15673131 -0.28502432 0.053407785 0.4893739 -0.26265383 -0.053077787 -0.4313054 -0.03745205 0.05250704 0.4443866 0.72282785 0.2569116 0.96255404 0.3331054 -0.19605346 0.29078007 -0.32354075 0.20006742 -0.30919906 0.06534245 0.8201532 -0.37822923 -0.3075745 -0.1250627 0.23160699 0.34923485 -0.22199577 0.047988642 0.058937516 -0.24376462 0.452938 -0.041539848 -0.057292365 -0.14807433 -0.6918727 -0.10894405 -0.82588464 -0.006341518 -0.063966945 0.15977408 0.029484315 -0.060992982 -0.4939286 0.04930647 -0.4466373 -0.22131094 0.10181651 0.17236337 0.61480427 0.19183367 -0.49877828 0.24271 0.3062464 0.13776426 -0.22353587 -0.3283935 0.5397387
member -0.12151531 -0.36157823 0.30259058 0.10561507 -0.03045395 0.2006946 -0.61456335 0.43153283 0.28478107 0.18063085 1.0280471 -0.47049674 0.18696003 -0.45005676 0.27457175 0.4981731 0.1265315 0.6465731 -0.04090107 -0.36815742 -0.17511545 0.39190292 0.19780748 -0.06180283 0.49517196 0.078709684 -0.2985032 0.15290774 -0.05441683 -0.036927864 0.057663083 -0.32339275 0.25631014 -0.43805355 0.25357172 0.15662442 -0.5148928 0.12436219 0.3703891 -0.41036576 -0.2627056 0.32020882 0.4046004 -0.9104688 -0.29531348 -0.104198106 0.45001277 -0.11986673 0.16811553 -0.043334477 0.19159761 0.44667882 -0.13786204 0.1273059 0.79829144 0.51420844 0.03566409 -0.21015172 -0.21452652 -0.56789845 -0.034220863 0.6539784 -0.28649226 -0.0919544 -0.8304682 -0.23309839 0.055912104 -0.1433262 0.049162112 -0.054435134 -0.54298246 -0.08748537 0.577698 -0.03559851 -0.23038718 0.07956365 0.16437857 -0.21941295 0.33425 -0.27420086 0.092852734 -0.41314116 0.55249107 -0.60485053 0.18047063 -0.34902516 0.59722567 -0.46989062 0.0027096497 0.32964337 0.2543784 0.25931346 -0.041024093 0.07792991 0.6584724 0.49463525 -0.57133853 0.12624852 -0.52930474 0.5440619
http://cmt#Reviewer 0.5049336 -0.38067374 -0.4420359 0.3507314 0.22026272 0.055625845 0.09311641 -0.44054255 0.05857157 0.20965628 -0.49982744 0.028449817 0.056335393 0.08700893 -0.22331454 0.3193654 0.41163298 0.2344971 0.36989167 -0.025518276 0.5519453 -0.23194993 -0.3221398 0.19028926 0.39291468 -0.23453684 -0.06736709 -0.3655979 0.37151054 -0.33475327 0.24189454 0.07773905 0.2780971 -0.15765221 0.036504533 0.48693767 -0.2848872 0.08760323 0.18733548 -0.40383014 0.19392577 0.18277295 0.092286944 0.008407865 -0.38727498 0.08408484 0.17735997 -0.05838732 -0.4093979 -0.018231565 -0.51391745 -0.4438251 0.4370161 0.25249878 0.8144877 0.8038474 0.20841224 -0.49748573 0.44655347 -0.28707254 0.24786437 -0.22667664 0.22548164 0.3708652 -0.051469024 -0.39764708 0.32500967 0.5536279 0.107036136 -0.21819335 0.21584949 0.06727673 0.12802489 0.017685773 -0.12687527 -0.027982587 -0.14201456 -0.36862597 0.08217739 -0.8037224 -0.4071124 -0.13390282 0.53277284 -0.18086426 -0.16752826 -0.49621406 0.4622776 -0.38717917 -0.279531 0.0026567567 0.016417112 0.4151215 0.18834853 -0.15222448 0.23670687 0.23174556 -0.005098588 -0.27610645 -0.43011612 0.33737025
http://cmt#Administrator 0.36331576 -0.11093966 -0.53884023 -0.1438731 -0.32559538 -0.008821145 0.18840991 -0.22371453 0.17362255 0.10623149 0.14277372 -0.0861545 0.06374519 0.32043186 0.3751339 0.24783264 0.48282576 0.05251427 0.07071731 0.013678035 0.13929014 -0.15231119 0.4639077 0.42402822 0.117056854 -0.38969445 -0.36812603 -0.51599383 -0.03370608 -0.42528248 0.2628672 0.45283517 -0.21905684 0.008854941 0.30750027 0.5785812 -0.5509429 -0.10902305 0.33306262 -0.694399 -0.58014405 -0.1252813 0.3226598 -0.27355158 -1.4330511 0.008862006 -0.043216903 0.17222518 0.018177945 -0.39667237 -0.21705791 0.26082575 -0.061892945 0.49913377 0.14159995 0.34650502 0.72633374 -0.24668139 0.25631845 0.11839673 -0.016233375 0.3878201 0.21874762 0.63219506 -0.9908643 -0.60097075 0.4983182 -0.07886593 0.521395 -0.42978588 -0.008784217 -0.002282107 0.16995746 0.6184757 -0.17057982 -0.34625536 0.5162976 -0.53873426 0.09201655 -0.3468778 -0.06345091 -0.25546116 0.39074188 0.037962247 0.3145654 -0.52939475 0.20809293 -0.51962286 -0.31618208 0.48083702 -0.06484939 0.13666177 0.16063419 -0.5472062 0.010136846 -0.168468 -0.025230443 0.013081906 -0.345526 0.64342874
http://www.w3.org/1999/02/22-rdf-syntax-ns#type 0.16383503 -0.27253386 -0.28369054 0.030632887 -0.24092695 0.38388652 -0.53642005 -0.1897595 0.31214577 -0.2639914 0.06487572 -0.07282207 -0.12476921 0.13265614 -0.308335 -0.32944387 0.3522159 0.34592992 0.25033653 0.54951036 0.011048709 -0.3836975 -0.1225153 -0.11327772 0.21885228 -0.22052042 0.42375594 -0.4607552 0.35031298 -0.6900649 0.3021535 0.19974932 0.19203237 0.14142384 -0.3628666 0.582979 -0.45781067 -0.44892275 -0.26680818 0.004958653 0.48655623 0.6481589 0.2583028 -0.6524015 -0.08991079 0.37629613 -0.098308384 -0.13420792 -0.04626699 -0.2460316 -0.15793896 0.3358654 0.6851324 0.13648382 0.26765782 -0.26605356 -0.03673574 -0.26713383 -0.019426644 -0.1779772 -0.028927475 0.097639196 -0.24166651 -0.031213777 0.043848097 -0.6352532 0.05329504 0.028415984 0.43921086 -0.06929841 -0.30612102 -0.14874272 -0.11851419 0.31304926 0.096290715 0.2366779 -0.37777293 -0.38717985 -0.014716222 -0.49455976 -0.20213282 -0.44005537 0.008485763 -0.3236967 -0.042485002 0.053660844 -0.03708572 -0.46573862 -0.16176456 -0.6747107 0.26265302 0.027835188 -0.2999175 -0.086484544 0.07891005 -0.14684409 -0.11919364 -0.18263222 -0.14106639 -0.024061244
http://www.semanticweb.org/owl2vec#typeOf 0.12512454 -0.066935666 -0.33890092 0.047114383 -0.055997223 0.36280406 -0.4748793 -0.17917523 0.35817662 -0.34203583 0.06519471 0.24619977 -0.025924036 0.20597368 -0.41206628 -0.28239974 0.45475474 0.30611983 0.18301947 0.4225626 -0.16617468 -0.26749358 -0.17945866 -0.12191239 0.22097768 -0.5213467 0.52025914 -0.4176126 0.17489497 -0.59977716 0.3584412 -0.07000355 0.034655515 -0.12683928 -0.3213031 0.42144063 -0.47407427 -0.42577684 -0.25571153 -0.37945557 0.27282798 0.36173898 0.27487314 -0.4360838 -0.034959495 0.5349067 -0.047962803 -0.09615991 -0.06890686 -0.20109478 0.0075772414 0.1776329 0.90563697 -0.0409235 0.11392047 -0.29871216 -0.14237455 -0.29192972 -0.13501051 -0.04891371 -0.17905436 0.015743405 -0.108532615 -0.07200654 0.19716121 -0.522529 0.123945996 -0.031493 0.53097206 -0.18323086 -0.27140376 -0.023791201 -0.25965607 0.37216172 0.1885615 0.2549325 -0.5698994 -0.48813686 0.07255741 -0.4696262 -0.2286286 -0.21800876 0.054872047 -0.43847844 -0.09242013 0.14941017 0.036693484 -0.4727342 -0.040803093 -0.6569675 0.24796453 -0.04867565 -0.15580408 -0.22028866 0.05554617 -0.07876808 -0.09604926 0.06564764 -0.15372135 0.058634255
http://conference#Person -0.41366625 -0.15703663 0.08265827 0.06722388 0.038675383 0.0716161 -0.3429988 -0.4751704 0.18812823 -0.15771966 0.19012485 -0.39431727 -0.46458066 -0.2030988 0.012749024 0.32830647 -0.26349777 0.24727039 -0.025645109 0.6626857 0.035872698 -0.47813314 0.060677134 0.15344699 -0.1285732 -0.7846038 0.08597346 -0.64174217 0.93243897 -0.26491207 0.41707852 -0.21461661 0.12495215 -0.6480415 0.1688172 0.6119406 0.09177587 -0.5825069 -0.19441512 -0.6996179 -0.35925648 0.34063235 0.1466219 -0.06577997 -0.17935395 -0.16354765 -0.4189411 -0.20890538 -0.32248008 0.34899125 0.078485146 0.28136483 0.46611482 -0.5591857 0.074774876 0.21235551 0.26703593 -0.43789253 -0.76837075 -0.7579406 0.3922059 0.68365085 -0.23545569 -0.5757932 -0.07309113 -0.6816745 0.48590145 0.28653243 0.10890585 -0.05796816 -0.029540395 0.43038267 0.4195469 0.0040863263 0.049394883 -0.21033305 -0.18372999 -0.33762908 -0.12347162 -0.2888537 -0.6197764 -0.14495482 0.29877028 -0.5125391 0.14387292 0.0029416038 0.58915305 -0.58983636 0.13299912 -0.92069685 -0.04894895 0.1653429 -0.5883911 -0.27691782 0.5797677 -0.031145347 -0.53071076 0.59568363 -0.3332529 0.3304521
http://www.w3.org/2000/01/rdf-schema#subClassOf 0.24031092 -0.40626308 -0.10324077 -0.0010993951 -0.3006129 0.24318606 -0.7444716 -0.28203318 0.35125822 0.08755235 0.068770364 -0.33156013 -0.3580342 -0.020856887 0.08480722 -0.6901598 0.31170186 0.33312196 0.05282288 0.36122003 0.14120379 -0.74427086 -0.2628306 -0.12052957 -0.11094256 -0.11571187 0.3040831 -0.4152732 0.19363797 -0.2638526 0.25285622 0.14592278 -0.23823325 0.18736503 0.048205804 0.65726054 -0.5441585 -0.3336192 -0.33646405 -0.1648457 0.5526675 0.5960684 -0.38382593 -0.55318826 -0.09586357 0.47180927 0.10779146 0.0048950464 0.08214728 0.0807171 -0.27304384 -0.040143535 0.2817664 -0.043058086 -0.22628157 -0.37778914 0.22124869 -0.35487846 0.17740056 -0.4423941 0.1968108 0.06184786 -0.1357257 0.31535545 0.19040497 -0.80540997 -0.3342146 0.16307367 0.47181895 0.085655674 -0.35704795 0.25212082 -0.03593805 0.118555464 -0.07628804 -0.6915751 -0.12143856 -0.18856077 -0.2752458 -0.046136808 -0.51534724 -0.6819937 0.15569504 -0.43540955 0.64239496 -0.5950009 -0.17757972 -0.71246386 0.15361527 -0.61846566 -0.05223219 0.15879667 -0.14210574 -0.27474043 0.10121431 -0.33533213 -0.16317046 0.16980754 -0.040176738 0.053781886
has 0.02073796 -0.14631732 0.06284019 0.33274552 -0.44379985 -0.09567705 -0.94470924 -0.031843252 0.7363146 -0.34378895 0.80006135 -0.11246892 -0.12702323 -0.5261953 -0.32787928 0.37122422 -0.7863466 0.52563363 0.12890798 -0.37262577 -0.34283742 0.24631788 0.3834111 0.23499206 0.47085926 -0.19911106 -0.3586656 -0.215616 0.042598672 -0.9988688 0.32048935 -0.52006716 0.46059763 -0.007757382 0.02821515 -0.5916569 -0.35035223 -0.25902104 0.8966518 -0.018176522 -0.08885148 0.22938159 0.30120817 -0.38837045 -0.37950298 0.0053135953 -0.1886806 0.020726377 -0.22625022 -0.21129374 0.43858334 0.21427314 0.43544507 0.18724479 0.07427708 0.9256302 -0.013705289 -0.527692 0.45763937 -0.22569248 0.27022022 -0.5198603 -0.49584147 0.4690624 0.315625 -0.15677726 -0.005295062 0.1219259 -0.10989181 -0.16495147 -0.35632896 -0.3903345 -0.0049721743 -0.20515856 0.5273316 -0.101253755 -0.35398975 -0.23390697 0.09369497 -0.5616975 0.08460836 -0.06538522 0.50878537 -0.18551922 0.2862458 -0.59900737 0.45846942 -0.5145633 -0.2454452 -0.4601619 0.09863871 0.41544598 -0.20758675 0.34481698 0.03156514 0.23662357 -0.07916068 0.06750498 -0.42669713 0.38637638
author -0.94656634 -0.65204114 -0.102828205 -0.034355614 0.28849652 -0.1096083 -0.72273016 -0.34443 0.79145604 -0.3581889 0.021709524 -0.4423568 -0.22576949 -0.64934003 -0.051644582 0.59165615 -0.23996238 0.5553517 0.111229084 0.636348 -0.27937716 -0.28664774 0.35703626 0.31559497 0.11304336 -0.56322545 -0.58983004 -0.41506642 0.47534648 -0.3848226 0.24407193 -0.7887065 -0.22636579 -0.39056292 0.24156743 0.40428385 -0.34974295 -0.04402705 0.26092198 -0.27405435 0.23119435 0.5716031 0.18518822 -0.85016257 -0.48529115 -0.43306947 -0.22449364 -0.050115436 0.44760495 -0.14470962 0.00146088 0.36457416 0.45934018 -0.3958133 -0.050587334 -0.2545399 0.17445715 -0.6118399 0.4962914 0.34781978 -0.17094901 -0.31804556 0.37862486 -0.071505964 -0.027795617 -0.20044334 0.10991101 0.4240215 -0.3791927 -0.25327507 -0.11969484 -0.457585 0.6783255 0.14263405 -0.3047558 0.3963014 -0.51934624 -0.35892987 0.03631989 -0.7174605 0.0155708175 -0.41172728 0.48629996 -0.4410311 -0.26454645 -0.44447032 0.7634703 -0.26420352 0.14251782 -0.4534612 -0.63682204 0.2559273 0.12203284 0.2944396 -0.11847752 0.41550103 -0.15202248 0.7834004 -0.06447219 0.825515
= 0.19997032 0.120989285 0.30125213 -0.0368719 0.28993762 -0.2402249 -0.63233244 -0.631517 -0.58177096 -0.47463587 0.9612125 -0.53847784 0.27406552 0.1433377 0.30148515 0.25993446 -0.45715207 0.32145232 0.14692742 0.16498107 -0.093838826 -0.08127784 0.24198723 0.07575702 0.17898561 -0.2970263 0.41190103 -0.3741608 0.33563572 -0.15509048 -0.53775465 -0.5278238 0.26776507 0.20265293 -0.33456707 0.32477963 -0.34174833 -0.38348338 -0.43227658 -0.38572976 0.21005541 0.009535432 0.6517745 -0.2748301 0.08668483 0.34360898 0.012648695 0.27233243 0.12558696 0.36789072 -0.5699696 -0.4328509 0.48206314 -0.5258296 -0.6823823 -0.12580857 0.47776031 0.15871444 -0.62735504 -0.22049977 0.066962205 -0.19767192 0.25252464 -0.3298543 0.41956183 -1.0312631 -0.12981069 -0.6689497 -0.10187524 -0.59868675 -0.41132686 0.22661874 0.38428542 0.096450865 0.27150792 -0.36520097 -0.09353844 -0.1284671 -0.19328882 -0.47474414 -0.3114836 -0.40943533 0.34886876 -0.6853692 0.18850654 -0.08092885 0.69208103 -0.5267425 -0.13506438 -0.92063165 0.011951892 0.5822873 -0.57213664 0.12946603 0.13560845 -0.16170146 -0.052449066 0.18842895 -0.3381119 0.18109034
document 0.04068291 -0.20950915 0.034166276 0.26184884 -0.14757131 -0.40399617 -0.687612 0.09803136 0.18177532 0.49966922 0.86344635 0.7621698 -0.2529787 -0.30511427 -0.27097896 -0.017224303 -0.2509932 0.65033627 0.325848 0.278529 0.30011603 -0.72598267 0.44122908 0.15900023 0.34920844 -0.82893187 -0.44112283 0.02286457 0.47154278 -0.55132097 0.6524401 -0.43708104 -0.31447583 -0.62500966 0.26041752 -0.21678992 0.2609686 -0.30568135 0.06756104 -0.5590325 0.25851655 -0.19879141 0.0384741 0.23814835 -0.2113845 0.6328222 0.15632817 0.2705152 0.54345924 -0.15079887 -0.10009845 0.11347295 0.62378746 0.066764206 0.16986942 0.04324268 0.11774592 -0.7165742 0.31600338 -0.04283581 0.15663788 0.041048627 0.15230937 -0.003903463 -0.0068870545 -0.1564628 -0.53236276 0.84163195 0.032828912 0.48726088 -0.6078245 -0.720272 0.32539612 -0.080453195 -0.3021229 0.13049538 -0.2978057 -0.08403791 0.48389158 -0.59155107 -0.23578422 -0.27608907 0.65441734 0.29744548 0.2872103 0.65704346 0.21938361 -0.52046853 0.14562736 -0.6570762 0.04271972 0.6062008 -0.30686438 -0.09712433 -0.17236422 0.25196892 -0.32843694 0.0050543803 0.276639 0.08654823
http://cmt#Person 0.41051102 -0.9021582 -0.1423449 0.22363818 -0.27030748 -0.17994437 -0.52420366 0.14401895 0.57774067 0.41484353 -0.09909287 0.15324028 -0.8227995 -0.70226115 0.045915265 -0.108857304 -0.07092181 -0.01405079 -0.5472161 0.15521896 0.41969895 -0.26871946 0.02842848 -0.0563662 -0.05035271 0.22332786 -0.0057844934 -0.5167686 0.6047742 -0.27759746 0.43543872 -0.092689395 0.23462123 -0.43127808 0.22550689 0.87327147 -0.20180425 -0.40806484 0.3229551 -0.9453212 0.08577531 0.1816411 0.023527106 -0.060345087 -0.31442901 -0.30866125 0.3924271 -0.078437194 -0.611455 0.31174216 -0.10150337 0.31458712 0.07755276 -0.090782635 0.24054717 -0.12556052 0.1544334 -0.6954096 -0.03722861 -0.63970083 0.18620636 0.3707188 -0.28620657 0.114452295 -0.4699102 -0.38614076 0.23699225 0.28456536 -0.36157534 0.041224662 0.044102706 0.025049971 -0.49919063 -0.21973796 0.17937313 0.37482008 -0.2434304 -0.22758497 0.10038369 -0.48135844 -0.5184261 -0.3504432 0.7347468 -0.8391309 0.17924182 -0.43559393 -0.14661357 -0.8433798 -0.11108527 -0.41765705 0.11006528 0.069925345 0.132295 -0.5114072 0.14154236 0.22118096 -0.39583054 0.387284 -0.23622365 0.3045425
assigned -0.47928664 -0.15347491 0.008920365 0.25925037 -0.1388204 -0.029246548 -0.26542094 0.11666247 0.23635416 -0.33407614 0.22392876 0.200483 0.2726792 0.23874986 -0.23593307 0.62795174 -0.56688225 0.18588069 0.0012313391 -0.19321673 -0.053118702 0.5140116 -0.35275155 0.0032239049 0.15587083 -0.28902766 -0.31863734 -0.40204898 0.17219985 0.12857461 0.009283204 -0.5538351 0.30462906 0.20731255 -0.26256406 0.6886754 -0.5728349 0.07542604 0.17804255 -0.08533315 -0.2136851 0.2358808 -0.41807738 -0.40923747 -0.20720808 0.3262596 0.58552366 -0.5264298 -0.28421542 0.00482064 -0.059726812 -0.0877919 0.6547004 0.033348776 0.5135724 0.9413386 0.46694744 -0.010309227 0.8372336 -0.07233247 0.2711723 -0.15181395 0.28406006 0.41791478 -0.35915282 -0.27215922 -0.092533134 0.1082172 0.020196332 -0.21931584 -0.09467458 -0.22524406 0.10061264 0.14448486 -0.1131178 -0.046860397 -0.2826023 0.22976251 0.30252066 -1.0402634 0.25291905 -0.01852768 0.4866634 -0.0012108318 0.046467554 -0.18725874 0.50537306 0.125721 -0.22157857 -0.24294528 -0.04467982 0.588739 0.36422685 0.016964266 0.19857858 0.3437132 -0.9752849 0.09089595 -0.2888847 0.75559336
assignment -0.48866382 -0.13132118 -0.16427203 0.14570569 -0.53485966 -0.3153432 -0.29357007 0.290774 0.2587516 -0.09634637 1.1185803 -0.15961677 0.69930923 0.10355714 0.4122783 0.09136435 0.20239234 0.32729408 -0.019258637 -0.332991 0.20556585 -0.035606075 0.47358063 -0.00401373 0.33049586 -0.2524541 -0.48717314 -0.5481459 0.24267809 -0.42873916 0.24412285 -0.22472656 -0.08926778 -0.10606107 -0.08390491 0.5947601 -0.06196884 -0.488452 -0.37523943 -0.74464417 -0.45976532 -0.11068507 0.049673367 -0.13990344 -0.88483346 0.7164738 0.03819135 0.18899594 0.0723534 -0.07303272 0.1397976 -0.1705975 0.13660307 0.051356703 0.19997449 0.3904984 -0.01798742 -0.19174942 0.2928473 0.42695454 -0.11602241 -0.27133417 0.393302 0.5915431 -0.6825185 -0.39372227 0.24692367 0.3532793 0.31238845 0.15573674 0.103353135 -0.21806239 0.6856207 0.7640661 -0.27174985 0.24205868 0.24502689 -0.08391138 0.06869836 -0.23346318 -0.0043299533 -0.5659017 0.59767085 -0.13786711 0.42513335 0.12645042 0.24238469 -0.5404473 0.44715038 0.2188843 -0.20842347 0.10196052 0.7324493 -0.11564185 0.15620877 -0.24697532 -0.5777692 0.078563325 -0.11536513 0.87546104
http://conference#Reviewer -0.21735714 -0.3864208 -0.32811612 -0.20758702 -0.07688586 0.17299065 -0.4398991 -0.44383392 -0.1845996 -0.3458717 0.005783892 -0.15102986 -0.47398186 -0.087473966 0.0028978593 0.5580416 -0.0026927528 0.16141494 0.14363772 0.54180914 -0.12620768 -0.47017056 -0.13550907 0.16623275 -0.24549842 -0.7025059 0.22314712 -0.8610129 0.3413684 -0.07018959 0.30340198 -0.2919244 0.13819031 -0.73367274 -0.117460646 0.7309975 -0.20768364 -0.48336676 -0.22408348 -0.58857816 -0.3002289 0.141757 0.42976457 -0.18470046 -0.07152255 -0.11656523 -0.5683244 0.03140523 -0.13049701 0.060810048 -0.26443923 0.4289386 0.7433093 -0.21562476 0.20608765 0.48963133 0.48353836 -0.30343583 -0.25054136 -0.61443114 0.70531785 0.29979005 -0.064936236 -0.25661698 -0.125088 -0.7548324 0.55682313 0.33482373 -0.1910628 -0.16859493 -0.252624 0.43551722 0.39918178 0.18403073 -0.1237763 -0.061966453 -0.39729685 -0.2102104 -0.25794643 -0.44287258 -0.7063765 -0.23018761 0.22863156 -0.28193364 0.010879965 0.2693973 0.5335075 -0.2858175 0.05938837 -0.7692425 -0.053487044 -0.03723627 -0.43422025 0.11202467 0.465624 -0.52848965 -0.34581858 0.090900615 -0.2597475 0.5146988
read -0.23505674 -0.1723156 -0.23866287 0.22488467 -0.19986703 0.0017350038 -0.43725792 -0.59938735 0.62976944 -0.4734432 0.14431113 -0.021463618 -0.07350608 -0.42853144 -0.077448495 0.15551019 -0.17594667 0.18107533 0.022042537 0.18402752 0.01956396 -0.086873576 -0.33435905 -0.12877464 0.30703282 -0.62708914 -0.19863558 -0.87448853 0.17085321 -0.33872223 -0.20837492 -0.4111555 0.54294467 0.04058005 -0.13700026 0.60622305 -0.33041766 -0.3444071 0.32236457 -0.054537967 -0.32833695 0.3827129 -0.18340491 -0.42164373 -0.23937492 0.31144077 0.32031864 0.012117321 0.0059188167 -0.17090406 0.36361426 -0.23888607 0.38448012 -0.17327271 0.13961199 1.1751276 0.22205015 -0.3842341 0.6140716 0.0024172734 0.45798114 -0.25746685 0.22464822 0.2905881 -0.10530689 -0.22787894 -0.027191114 0.54627836 0.017112121 0.26343924 -0.12879327 -0.12937503 0.12257539 0.114098154 0.16915698 0.087929025 -0.1424236 0.21797624 0.5396806 -0.5992139 0.12851743 0.38116914 0.9056692 0.058415484 0.13609438 -0.09002656 -0.04289107 0.0011737625 -0.049726103 0.018268224 -0.028841063 0.21686557 0.10357726 0.1495313 0.10860943 0.35592335 -0.1730855 0.041566443 -0.61905056 0.3292948
contribution -0.24405351 0.031070573 -0.060682215 0.39803332 0.58787423 0.12218605 -0.8972187 -0.45043337 -0.11663156 0.31039605 0.3692591 0.38144752 -0.58156437 -0.67567897 -0.105237804 0.330392 -0.27988586 0.98594975 0.40876222 -0.011741569 -0.038148005 -0.27695477 0.45135862 0.14762476 -0.022052357 -0.3792024 -0.79719657 -1.0298586 0.39045852 -0.21366905 -0.033482153 -0.20451953 -0.007659282 -0.30993465 0.5930017 0.7695003 0.227231 -0.931467 0.6049357 0.49751657 0.046154384 0.11235102 0.047898386 -0.1812163 -0.18622984 0.30869636 -0.1941196 -0.22484653 -0.021535235 -0.47517052 0.4095782 -0.09186881 0.32030475 -0.81057185 0.25483182 0.15578789 0.8670477 -0.3797715 0.2200915 -0.1475667 0.053840604 -0.16036546 -0.041450296 0.06886525 -0.1951743 -0.54160166 -0.89490145 0.49682978 -0.27452445 0.15020555 -0.14790618 -0.072161555 0.6830733 0.33861944 -0.54163617 -0.30079168 -0.31982794 -0.06204907 -0.28459725 -0.3668803 -0.5963708 -0.19516486 0.62749916 -0.13787898 -0.015310058 -0.23485623 0.26926464 -0.00399042 0.7534472 -0.625571 -0.5001361 0.77865684 0.11941186 0.35929275 -0.030585378 -0.2846865 0.10221801 0.29628104 -0.29862487 0.6191505
http://cmt#Review 0.5815732 -0.56243175 -0.61352193 0.16837144 0.13557798 -0.12140821 -0.2673087 -0.6849123 0.5530003 0.48507577 -0.20989423 0.47486532 -0.67733747 -0.09329438 0.05181158 0.30951446 0.28996 -0.06857285 0.20076442 0.08895217 0.55716985 -0.45885104 -0.11047343 0.28769565 0.094487414 -0.46645844 0.040198635 -0.6020074 0.5546426 -0.37230775 0.22955708 -0.13369384 -0.04647112 -0.53416 0.05381954 0.6901235 -0.3042927 0.07801637 0.5054965 -0.7072599 0.33557254 0.33010462 -0.115080595 -0.009277033 -0.7240974 0.12505856 -0.04648766 0.48847508 -0.2738623 -0.20741965 -0.33350578 -0.2371767 0.8660775 -0.1278112 0.35457793 0.796197 0.7850361 -0.9444263 0.39385742 -0.6049296 0.58805853 0.32936102 0.16824332 0.3805796 -0.34475663 -0.46685544 -0.02969748 0.80686015 0.1463618 0.1672055 -0.1307534 -0.19583274 0.19371459 -0.053374518 -0.11031837 -0.026335653 -0.3928259 0.111851454 0.09501519 -0.60388225 -0.4325954 -0.0960016 1.2245535 0.33735904 0.26726174 0.10166569 -0.06289668 -0.2753075 0.16713504 -0.03762743 0.18397923 0.27252886 -0.17393029 -0.38332975 0.068031274 -0.26182497 0.08833258 -0.4876294 -0.4170136 -0.03989063
regular -0.37028882 -0.4823156 0.06308172 0.07883815 0.7150779 0.05452176 -0.5300658 -0.279072 0.42893407 -0.25492334 0.4572019 -0.32965183 -0.07891452 -0.29634222 0.010502061 -0.19723916 0.23646197 0.5479455 0.25165898 -0.1091177 0.0033665812 -0.14351042 0.3110234 0.2707433 0.17318313 -0.6664868 -0.46208537 -0.38936305 0.29738566 0.2364595 0.19726682 -0.9176957 -0.075730324 -0.47750065 0.29739854 0.58641535 0.20331179 -0.6676787 0.088238254 0.31879437 -0.11630828 -0.002235433 0.025559029 -0.257603 -0.28850928 -0.057716604 -0.17946608 -0.28014222 0.13771695 -0.6153123 -0.40780988 -0.20696542 -0.044621963 -0.7918107 -0.4078085 0.0694616 0.41790012 0.23043866 0.22173804 -0.7403328 0.39092416 -0.27735892 -0.08704278 0.3514369 -0.1074376 -0.641961 -0.28712812 0.80268395 -0.19344565 0.1704442 -0.172597 0.060579535 1.011972 -0.10228573 -0.10205856 -0.6570326 -0.4091533 -0.20909123 -0.30587992 -0.8559771 -0.37780663 -0.80780685 0.58890736 -0.2885805 0.1369436 -0.06076746 0.87418604 -0.1495654 0.44902965 -0.40840638 -0.81846815 0.5826617 -0.214316 0.13983044 0.25021854 0.14546539 0.17220752 0.15754674 -0.037328154 0.5827856
Type 0.23849422 0.5091942 -0.3988332 0.07334598 -0.81716305 0.32722968 -0.9447582 -0.3891901 0.60965425 0.2003396 -0.20236327 0.117889404 -0.39013174 -0.20768598 -0.8889804 -0.43935597 -0.91239697 0.34993985 0.007002486 0.16673316 0.02798148 -0.047737945 -0.13320687 -0.09962111 0.25379047 -0.71158475 0.43069956 -0.18741873 0.4290038 -0.6545536 0.57152957 -0.36127016 0.5171272 -0.22958554 -0.12737027 0.27631378 -0.086144246 -0.82493234 -0.15947889 -0.14663382 0.6781878 -0.2694511 -0.20439424 -0.24178164 0.19848551 1.3393675 0.8239376 -0.5101651 -0.056569647 -0.26920983 0.41868415 -0.16966859 0.32122925 0.14989947 0.01410299 0.08797606 -0.8543823 -0.5831457 0.21763839 -0.43514904 -0.0030537436 -0.0059655476 -0.6037602 -0.23242706 0.6409905 -0.7129548 -0.83839697 -0.04990732 0.4654672 -0.11041559 0.013691633 -0.011876896 -0.3674353 -0.25787368 0.20010333 -0.069907874 0.11408046 -0.8341461 -0.2427447 -0.15381236 -0.1513153 -0.41627848 -0.19408697 -0.8901793 0.0800752 -0.05361036 -0.07270282 -0.3488354 -0.26657882 -0.82925355 0.07219585 0.52312124 -0.28392178 0.53433406 -0.21180654 0.28515476 -0.31101027 -0.08300366 -0.048717726 0.09143225
bid 0.27421382 -0.42909673 -0.39489588 0.09268645 -0.18641807 0.35388812 -0.92512304 -0.4057454 0.12421948 -0.19830108 0.37327948 0.5224374 -0.028415184 -0.34789148 0.05025381 0.7580736 -0.3435318 -0.11906349 0.23235825 -0.2647602 0.0703557 0.09275211 0.022387974 0.19709909 0.37029564 -0.9082457 -0.056180168 -0.13638848 -0.059178006 -0.33129072 -0.29182196 -0.5701118 0.6740875 -0.43675432 -0.57756895 0.34885767 -0.84988976 -0.021059716 0.4521501 -0.35335153 0.062964216 0.3501478 0.55217564 -0.23270962 -0.6585244 0.34722695 -0.2855552 0.5018063 0.43218833 0.013166479 0.14394855 -0.3996491 1.2022288 -0.37934676 0.6657414 1.0549849 0.76995003 0.09883105 0.19685264 0.2545562 0.50670904 -0.50738144 0.51995677 0.29819208 -0.10803524 -0.56383765 -0.37339342 0.29178378 0.16783413 -0.39765427 -0.42175475 -0.5366209 1.1078961 -0.24274053 -0.50577873 0.23600852 -0.09029352 0.3049143 -0.015708702 -0.8560938 0.075024515 -0.43328756 1.09939 0.111623034 -0.44285795 -0.30995822 0.6697144 0.00020602862 -0.38931844 -0.36543337 0.07751003 0.49108902 -0.029347321 0.05649465 0.38524237 -0.26401213 -0.06676773 -0.40129384 -0.4683576 0.6641823
entered -0.20196052 -0.2659384 -0.2836941 0.29671037 -0.5684161 -0.5084327 -0.41767058 0.3212737 0.25338987 0.45034528 0.55733097 0.2923069 0.022774415 -0.07271999 0.22102538 0.33253703 -0.41733518 0.33349454 -0.023887888 -0.12948506 -0.016749179 -0.21026549 0.38339758 0.4200923 0.23168966 -0.3396614 -0.31410292 -0.07958049 -0.010670891 -0.1901455 -0.105406016 -0.5225295 -0.2625748 -0.21270636 -0.21847747 0.089616604 -0.14943391 -0.121851094 -0.15649083 -0.2612915 -0.62475944 -0.0021766427 0.1462122 -0.42422622 -0.8603635 0.65298235 0.76224077 -0.3133704 0.10265981 0.25091362 -0.4150349 -0.130072 0.0019595441 0.20128512 0.15092243 0.44848326 -0.26159298 -0.23165524 0.7718029 0.48554468 0.13364816 0.015491355 0.07006285 0.389014 -1.077992 -0.6380946 0.09399669 0.11616136 0.3998625 0.26991707 0.0618517 0.1520614 0.24476607 0.2529272 -0.74498856 0.5636544 0.46427488 -0.0390572 0.0101793315 -0.47872585 0.19917917 -0.63679606 0.54184914 -0.27613434 0.60813445 0.5675162 0.70681626 -0.37377438 -0.4890365 -0.26424006 -0.27744427 0.52216136 0.092120714 -0.3376389 -0.3262215 0.072198935 -0.9067771 -0.23038584 -0.14840981 0.1617047
http://conference#Review -0.01207609 -0.33211997 -0.1588757 0.22748064 -0.5695978 -0.1277198 -0.24849297 -0.2453217 0.12173057 0.48862347 0.54912376 0.5181935 -0.2205201 0.38865858 -0.27526438 -0.40707853 -0.49482957 0.78710693 0.26622912 0.028479386 0.17797549 -0.92490053 0.49967858 0.26738867 0.09789617 -0.7861939 -0.019596461 -0.71822107 0.7007037 -0.6352661 0.34952348 0.30037746 -0.36792153 -0.26170442 0.13124634 0.4939854 0.6336783 -0.6694684 0.3062611 -0.47731045 -0.07929287 0.31739807 0.3244133 0.084200345 -0.553462 0.38207576 -0.42500395 0.038193014 -0.34061888 -0.29981112 -0.027310828 0.32772872 0.14426829 0.009578876 0.20043646 0.2903065 0.76406604 -0.6217663 -0.066983104 -0.13616635 0.17509699 0.57538325 -0.008236524 -0.08980727 -0.64805484 -0.29123533 -0.61747307 0.46614915 0.42344874 0.43214747 -0.29367957 -0.12094002 0.32077837 0.4011667 -0.39172712 -0.2586495 -0.06570661 -0.36520573 0.3695811 -0.20137627 -0.30516103 -0.31025156 0.04802558 0.5721384 0.3241261 0.70700866 0.08556049 -0.40969855 0.28195718 -0.62349916 -0.18190673 0.33212134 -0.27370995 -0.53461206 0.23606804 -0.35891894 -0.053691268 0.10966201 0.17635198 0.3461796
http://cmt#ProgramCommitteeMember 0.572043 -0.517842 -0.24844177 0.104042634 0.17235763 0.17952026 -0.23611902 0.16288991 -0.002105384 -0.0027738758 0.45580685 -0.1564487 -0.005950316 0.15507433 -0.06560019 0.4997666 0.55655265 -0.15095519 0.15333733 -0.25444332 0.11810754 0.16083331 0.30978763 0.07730885 1.0288955 0.19147725 0.061109103 0.18999444 -0.37213558 -0.46158546 0.1688137 -0.23903413 -0.038707875 -0.62039703 0.52900565 0.22919093 -0.8191906 0.18978131 -0.019934596 -0.92670727 0.02952557 0.022514053 0.5570022 -1.0170023 -0.67242795 -0.2418635 0.46196347 0.1816035 -0.11521425 -0.37660298 -0.640266 0.4871058 -0.3082782 0.30622166 0.65613174 -0.014391588 0.03934692 0.11557032 -0.16897851 -0.45000246 -0.010586741 0.73387307 -0.035374787 -0.07975439 -1.2853746 -0.10445982 -0.042998165 -0.29095483 0.3315587 -0.15962116 -0.61343145 -0.23451637 0.1908424 -0.17621988 -0.5015539 0.27141035 0.030164337 -0.8029934 0.46058568 -0.23782997 -0.019681925 -0.75887567 0.3597027 -0.60730135 0.176859 0.028494088 0.61622137 -1.1119463 -0.24243663 0.40916744 0.108387515 0.30054283 -0.24311692 -0.53381497 0.48880807 0.35015512 0.076634206 -0.08517713 -0.5984004 0.2583574
external 0.3133931 -0.4818849 -0.36540857 -0.21509318 0.146707 0.0009704222 -0.72996265 0.15844409 0.4236237 0.44495383 0.34484315 -0.20130463 -0.091242954 0.07556615 0.7440281 0.20088768 -0.44492587 0.12209121 -0.39201322 -0.29192138 -0.12395605 0.11662906 -0.38628402 -0.0025966638 0.6582818 -0.61424464 -0.37109444 -0.88250464 0.518458 -0.06448128 0.027720781 -0.93357027 0.3116976 0.1706555 -0.7075132 0.7014375 -0.073923856 -0.24049509 0.3029426 -0.75967234 -0.15298586 0.21923435 0.011620103 -0.4100091 -0.19731219 -0.16184127 -0.17784481 -0.23118594 -0.2932249 0.52107275 -0.7577253 -0.25489953 0.04105765 0.077988826 0.24563606 0.6029742 0.17277524 -0.22688584 0.05893132 0.054701608 1.2206248 -0.1383461 0.5024565 -0.29224706 -0.42679685 -0.45402077 0.26614296 0.17866938 -0.36930496 0.10719706 -0.29593563 0.034020547 0.7524653 -0.11535286 -0.42560393 -0.055229634 -0.77056307 -0.22099233 0.7588445 -0.54926145 -0.3647301 -0.76938593 1.2306024 -0.8039024 -0.061535917 0.15693314 0.65455145 -0.19356343 -0.08504621 0.21597874 -0.26474988 0.6765812 -0.113156915 0.23707989 0.38154522 -0.27059263 -0.11309178 -0.06060104 -0.74844223 0.2132095
meta -0.6291494 -0.12461344 -0.24612257 0.4631713 -0.46546 -0.5473861 -0.3938122 -0.7887923 0.37942258 -0.2758154 0.23497838 -0.29312807 -0.05922563 0.10183336 0.46441042 0.038675908 -0.07034363 0.60521656 0.14623442 -0.09486015 -0.080855995 -0.57550985 -0.34069008 0.43247503 0.34019768 -0.56393075 -0.36672342 -0.56890225 0.46950388 -0.47431558 -0.26794222 -0.288491 0.35096878 0.19137439 -0.62487763 0.5142697 -0.29931122 0.13055213 0.34946698 -0.5102051 -0.29817596 0.51922995 0.31432953 -0.30983424 -0.05894891 0.046267413 0.1468561 0.48220924 0.38572714 0.054750036 -0.56037444 -0.052588478 0.51252216 -0.20831366 0.12016206 1.0610678 0.35092455 -0.42929947 0.248528 0.26494125 0.6992455 0.119933404 0.4045015 0.24861689 -0.24892208 -0.42535836 -0.038902808 1.0327057 0.045181945 0.3230723 -0.5693795 -0.019214107 0.85850847 0.12620878 -0.3633232 -0.10222857 -0.57510096 -0.051381994 0.7377952 -1.0490184 0.37078536 -0.013623065 1.329593 0.046431616 0.3201851 0.47776482 0.15220036 -0.31438395 -0.21292776 0.1406473 0.028012957 0.36374652 -0.25374678 0.024763536 0.1964886 0.45036098 -0.15340242 -0.12501135 -0.7907596 -0.105205424
http://conference#Program_committee 0.08079502 -0.53060764 0.09599982 0.15145256 -0.04946681 0.22750258 -0.43177196 -0.42288932 -0.053120513 -0.5320587 0.71141183 -0.09466932 0.19655722 0.12426668 -0.2879649 -0.5711902 0.15224034 -0.007574187 -0.12035587 0.31030747 -0.33670646 -0.13586737 0.5020138 0.25471 0.58485305 -0.3530402 0.3409664 -0.9360911 0.3220181 -0.6319479 0.268933 -0.22220603 0.27340508 -0.7194316 -0.11287655 0.75680363 -0.124052696 -0.08728098 0.18101695 -0.954634 0.061142173 0.29761806 0.81456757 -0.9169925 -0.1450684 0.10071151 0.29538584 0.112522475 -0.20020825 -0.5466298 0.15734461 -0.07128165 0.11947411 -0.22415121 0.26082712 -0.12866308 0.47002196 -0.22810335 0.23539975 -0.7932424 0.39022192 0.69006497 -0.07605451 0.11200623 -0.7510221 -0.38545895 -0.4081422 -0.09961886 0.47193092 0.023503307 -0.8587496 0.47606245 0.004562821 -0.2878557 -0.030289005 -0.2653412 0.18626204 -0.011847013 0.61140925 -0.19234508 -0.84919924 -0.8126319 0.06628182 0.15287437 0.5117102 0.17012244 0.5879071 -0.5041633 -0.35952145 -0.75354785 0.169729 0.091026105 0.2902881 -0.16905412 0.6832789 -0.40005475 0.019499406 0.26738825 -0.27463624 0.45056418
details -0.1953172 0.19039616 0.16408767 0.070998356 -0.63251877 -0.03822341 -0.2911197 0.29877687 0.41376948 0.23407973 0.6089234 0.16843839 0.32390758 0.31304753 0.49478853 0.44093236 0.049871545 0.17893119 0.16785893 0.18569085 0.14366864 -0.0026308955 0.3863356 -0.03458759 0.4224464 -0.2500727 -0.5519601 -0.18212152 0.56723535 -0.43558568 -0.100052156 -0.14827293 -0.3037073 -0.3954217 0.31528223 0.47009894 -0.1880181 -0.56214994 -0.07452211 -0.5503658 -0.39456573 -0.06476713 -0.16687863 -0.5056381 -0.95778453 0.53580153 0.35947365 0.11248906 0.0051387274 0.17389074 -0.047585398 0.18950708 -0.19989778 0.58772504 0.72762984 0.5916454 0.11316542 -0.462817 0.4431895 0.25075522 0.16665404 0.22091348 0.6177958 0.26913458 -0.36332226 -0.481178 0.2554106 0.19075994 0.5593644 0.55408484 0.1003746 -0.25102133 0.333331 0.30155504 -0.3252048 -0.12041516 -0.011491059 -0.10413256 -0.16643752 -0.3617581 -0.32012787 -0.27919662 0.3521888 -0.37499753 0.55941963 -0.09201809 0.5420166 -0.38645914 0.0037082324 0.42512795 -0.20234264 0.54846627 0.55922073 -0.17772642 0.23814698 -0.0119417505 -0.4050042 0.21228361 -0.41524976 0.38336182
http://cmt#ConferenceMember 0.44714665 -1.132738 -0.49495688 -0.29191187 -0.07797676 0.2229311 -1.1379955 0.17245957 0.34749493 0.6354129 -0.10884885 -0.26387635 -0.4515161 -0.19691886 0.3485284 0.39441472 0.08737444 0.37157038 -0.20775962 -0.4966837 0.20107739 -0.035225704 0.05746305 0.11143875 0.102458775 -0.23303035 0.20721677 0.14503293 0.27006668 0.087054916 0.61263514 -0.07431863 -0.33714095 -0.25783965 0.53788453 0.13011207 -0.10008683 0.21290968 0.41184366 -0.46907735 0.1162267 -0.071457155 1.0143385 -0.58088434 -0.6690869 -0.043593846 -0.12621549 -0.14590111 -0.3510017 0.10964386 -0.19540837 0.17255011 0.36105028 0.012161468 0.16979843 0.41462192 0.81475836 -0.21028152 -0.34762266 -0.67199576 0.107950106 0.50054806 -0.6450342 0.47811458 -0.62985444 -0.41615254 -0.14613287 -0.023401156 0.21592416 -0.9346592 -0.4534574 0.11726852 0.28936568 -0.20032847 -0.13318245 -0.19860955 -0.08292684 -0.9208508 -0.2801114 -0.38109484 -0.3394944 -0.10284131 0.6316714 -0.7188263 0.100618266 -0.32467964 0.14239581 -0.6296641 0.25674596 0.13179 0.20276815 0.06126283 -0.24230422 -0.22638054 0.2642377 0.2094553 0.20426291 0.31215537 -0.28713343 0.277596
tools -0.30861926 -0.15434739 -0.21277042 -0.08050733 -0.6264845 -0.4437901 -0.41191396 0.08723344 0.13880141 -0.24018802 0.59373975 0.14964809 0.37977695 -0.038325213 0.38062885 0.16544585 0.15523712 0.8343432 0.16234317 0.07538949 -0.09177534 -0.2474594 0.50542897 0.039343584 0.23438726 -0.57238775 -0.5980025 -0.6048071 -0.33740434 -0.15158673 0.12822711 -0.15007128 0.16468045 -0.28547192 0.19134595 0.3075073 -0.37365678 -0.69143194 -0.10367064 -0.19806708 -0.6251783 0.16418532 0.2119082 -0.21179536 -1.2694343 0.5687049 0.08501354 -0.13182138 -0.24014145 0.2798628 0.15769835 -0.042502157 0.12251818 0.4868884 0.12085271 0.35758325 0.04053539 -0.06099796 0.17473061 0.47761434 -0.17937402 -0.14703928 0.44325528 0.6220265 -0.61290425 -0.056916673 0.12083533 -0.13493441 0.853829 0.62284166 -0.14988658 0.230169 0.3300431 0.50442487 -0.37647626 -0.15538873 0.09912091 -0.016481813 0.27048653 -0.6072774 -0.21514212 -0.34164938 0.46101648 -0.3071829 0.01129635 0.14817001 0.38070738 -0.3709324 -0.15384491 0.30269948 -0.13566922 0.5126236 0.5747174 -0.275191 0.281325 -0.15637434 -0.40113708 0.32137868 -0.14430247 0.4728934
run -0.2971739 -0.38101035 0.28399357 0.22627288 -0.07375752 -0.040639967 -0.5029263 0.41221243 0.52819747 -0.27546275 0.56037736 0.14779831 0.5370638 -0.13090982 0.49021548 0.2618398 0.17767397 0.16790852 -0.1932108 0.27436578 -0.043394998 -0.19942015 0.49393806 0.15401548 0.3373057 -0.4155313 -0.2710035 -0.4814555 -0.10495299 -0.29536492 -0.111430734 -0.29603454 -0.0056061754 -0.24837095 -0.100392036 0.55268073 -0.3077152 -0.9481716 -0.15925634 -0.6790403 -0.64681077 -0.018182712 0.237852 -0.1853955 -1.078357 0.818235 0.2834268 0.23661576 0.11707669 -0.10938286 0.31202692 0.33373573 0.13633847 0.422243 0.3426719 0.5500471 0.22735561 -0.21964741 0.6362506 0.6002724 0.2657763 -0.21291694 -0.09996781 0.7433952 -0.9232254 -0.44277918 0.26905504 0.12686087 0.46691915 0.17118059 0.18506852 0.1725888 0.27305052 0.54335165 -0.22539142 0.038832128 0.09102288 -0.113600746 0.11707088 -0.20206343 -0.05046099 -0.20840703 0.17153563 0.26872873 0.19855632 0.26885003 0.6087645 -0.2626566 0.107596494 0.10949137 -0.14155822 0.3212557 0.4869642 -0.12325357 -0.03619656 0.09426255 -0.19322768 0.18654126 -0.14402914 0.76070595
chair -0.19760416 -0.15001681 0.35184926 0.21096061 -0.08801375 0.122591406 -1.2805583 -0.30019435 0.262317 0.34469625 0.24143185 -0.42429712 -0.45283008 -1.2018678 -0.23618874 0.47578052 -0.77181584 0.6511694 -0.31828964 -0.27350715 -0.37267604 -0.23279576 0.51077706 0.080104075 0.4098535 -0.114001766 -0.14460331 -0.45988545 0.58290505 -0.78645515 0.17051485 -0.33637485 0.2469344 -0.6538958 -0.048738915 0.068119764 -0.44103205 -0.41530436 0.27446014 -0.6136654 0.15010044 0.74295616 0.9401178 -1.0094764 -0.06667728 -0.32950693 0.31519035 -0.2870726 0.2783916 0.5198614 -0.15165664 0.34507483 -0.0075179283 -0.27484238 1.0180129 0.059976593 -0.030209912 -0.47937992 -0.24239531 -0.5190863 -0.016970651 0.61469835 -0.35232893 -0.32570544 0.14413606 -0.5909251 -0.50733453 0.34166664 0.034567192 0.03970884 -0.07997019 -0.48485905 0.17895043 0.0008894961 -0.55457515 0.108817175 -0.2821121 -0.8089398 0.71117795 0.19652039 0.21422555 0.18468395 0.58586776 -0.47267368 0.489078 -0.22831684 0.43695304 -0.47238132 -0.30947533 -0.56309867 -0.1343881 0.38336092 -0.31527114 0.38079304 0.43796647 0.47089636 -0.49110654 0.4300098 -0.38724822 0.6360349
criteria -0.16112216 0.4643681 0.1318988 -0.086969964 -0.45699123 -0.036539398 -0.19613744 -0.014061381 0.3576556 0.3928602 0.72411436 0.3699088 0.078922085 0.26560548 0.3365779 0.44325313 -0.0110492995 0.5248672 0.31948826 0.08959127 -0.08024172 -0.18605977 0.37389657 0.088909075 0.3565332 -0.3773205 -0.42614472 -0.15832424 0.36299974 -0.5939037 -0.24957167 -0.11872924 -0.43294108 0.10986523 0.031778045 0.11012681 -0.098686874 -0.6003648 -0.105620585 -0.31609404 -0.5933609 -0.17561 0.15246367 -0.4517687 -0.87083006 0.29997325 0.2825683 0.2586375 0.088728726 0.040905412 -0.09017843 0.15968345 -0.06122723 0.78385645 0.60988104 0.7187533 0.41405934 -0.59817815 0.3806337 0.58812505 0.21418709 0.2797597 0.49188814 0.31583107 -0.449722 -0.63910437 0.09602091 0.19378994 0.5412786 0.5314378 0.023644319 -0.21465057 0.41521463 0.429391 -0.45202878 0.25158736 -0.08480069 -0.42180732 0.18860635 -0.46856034 -0.22481936 -0.27699077 0.515746 -0.2602299 0.4640207 0.1962876 0.34570345 -0.4359959 -0.0637223 0.37928915 -0.44548702 0.49720228 0.303988 -0.17688216 0.12781574 0.0068701105 -0.51834226 0.098501556 -0.67749834 0.30417195
bidding -0.6519095 -0.15980643 0.34182364 -0.04964802 -0.31698927 -0.12435708 -0.19389315 0.29024783 0.26228255 0.02142243 1.0785942 -0.15463476 0.23056895 0.48420095 -0.035726316 0.15936336 -0.3075468 0.2540685 0.0910826 0.008136245 0.11540095 -0.2502873 -0.042932905 0.29125705 0.16819216 -0.17492753 -0.056970596 -0.40463093 0.086080305 0.043806735 0.1535065 -0.45052633 -0.23618202 0.42470485 -0.37193486 0.5129793 -0.1437276 -0.6782908 0.13286507 -0.23333839 -0.82502294 0.14091699 0.0023596946 -0.26221746 -1.1756608 0.54485387 0.0018922471 0.20235978 0.37098327 0.06560213 0.21314688 -0.02432538 0.06286238 0.41703194 0.45151398 1.0017159 0.4929672 -0.5187772 0.032141075 0.21312818 -0.015477099 0.15054245 0.29603952 0.33775893 -0.63329095 -0.68015355 0.7432456 -0.072698124 0.28697485 0.20207031 -0.6647837 0.33145553 0.45477578 0.57974833 -0.7194058 -0.012534443 0.1564537 -0.33059886 -0.03254809 -0.57973826 0.051705204 -0.25131398 0.8114274 -0.58082724 0.01712976 0.06812292 0.10729316 0.06942589 -0.14719673 0.2555047 -0.3015619 0.3143209 0.17946029 -0.25715822 -0.024856398 0.01794214 -0.53517634 0.15523848 -0.55518574 0.61222935
co -0.3660944 -0.30794594 -0.10670359 -0.014886454 0.15719533 0.20382358 -0.9981211 -0.85385984 0.7955883 -0.47363845 -0.02515651 -0.5306184 -0.07250075 -0.8211888 -0.20830174 0.860823 -0.07594075 0.591998 0.40062442 0.36355495 -0.36835286 -0.03875213 0.30770198 0.38466075 0.16192587 -0.48351413 -0.40700904 -0.540263 -0.11168244 -0.4067547 0.40182644 -0.7206995 0.12360745 -0.10637646 0.21824637 0.08984877 -0.4048487 -0.2086428 0.5141963 0.12327639 0.18664986 0.57220495 -0.06574807 -0.79870313 -0.058026526 0.0142573975 -0.39090008 0.18407586 0.5057118 -0.53024226 -0.038962256 0.6050734 0.5737577 -0.42628488 -0.23916347 0.21996586 0.28930297 -0.33052686 0.43847597 -0.20962746 0.35164446 -0.17007852 0.23962481 0.4020108 -0.076133065 -0.3017212 -0.023785641 0.558266 -0.45844054 -0.09913358 -0.2692648 -0.3822064 0.7306979 -0.25972286 -0.53101593 0.13008857 -0.28248188 -0.5644738 0.29348364 -0.37514016 0.07834495 -0.5575059 0.62858814 0.011339719 0.13498913 -0.2975935 0.639166 -0.33274475 -0.37306243 -0.4415006 -0.28610665 0.57372826 -0.06346858 0.42779845 0.11551744 0.41655692 -0.4977516 0.21214983 -0.28776327 0.8663739
virtual -0.27462485 0.025597623 0.05721465 0.18983509 -0.18496127 -0.49853876 -0.4306373 -0.019687554 0.4363768 0.3075284 0.6997455 0.59975064 0.3097117 0.1944984 0.14624901 0.73060304 -0.41958466 0.20743272 -0.3148995 0.31372178 0.4214814 0.1699691 0.31507337 0.23143637 0.16541906 -0.41755223 -0.11576289 -0.38709483 -0.09572405 -0.40732124 0.08719382 0.031212084 -0.018128239 0.16649708 0.41356328 0.4870451 -0.032903682 -0.71602786 0.22821684 -0.33134457 -0.59319925 -0.27809724 -0.18188652 -0.5763631 -1.0483464 0.13173689 0.56797487 0.533131 0.3015994 0.1742399 -0.013118377 0.53363013 -0.19101045 0.09658362 0.65776455 0.52077127 0.5829274 0.09722639 0.5028417 0.3000703 0.3927706 -0.26609918 0.58352154 0.041958213 -0.529759 -0.37668636 0.35692894 0.04513599 0.24554905 0.2665931 -0.26444927 0.445148 0.6963554 0.8061113 -0.47378775 0.11772494 0.23591824 -0.47586018 0.028986363 -0.83314043 0.14068095 -0.7373825 0.041479733 -0.87154645 0.46290985 0.24911778 0.44530228 -0.32204685 -0.21491495 0.07896549 -0.040326204 0.5191375 0.34060216 0.011298737 0.4086168 -0.38111773 -0.07848428 0.085394256 -0.1854216 0.47098
meeting -0.3945435 0.17728566 0.015126135 -0.32425898 -0.52819455 -0.4696123 -0.45071772 -0.3999783 0.5563556 0.10079817 0.5771302 0.5802455 0.2906539 -0.104559965 0.31049907 0.5563836 -0.12194307 0.024702905 -0.25290096 -0.17946556 0.49459565 0.30481708 0.5533234 -0.06321593 0.14156206 -0.12542413 -0.25776088 -0.010575329 0.0816057 -0.26264578 -0.10399517 -0.5976864 -0.0511313 0.06117446 -0.048175164 0.24656087 -0.30990005 -0.79283535 -0.08606843 -0.6195126 -0.68696356 -0.088550135 0.050769206 -0.3535158 -0.749898 0.17810993 0.67514586 0.17612459 -0.117599875 0.55982727 0.24701558 -0.20793313 -0.4602162 0.30350575 0.632278 0.32040456 0.85630095 -0.12974592 -0.04980959 0.19098078 0.5808976 -0.047686867 0.3150586 0.43708763 -0.9773573 -0.6616503 0.040258493 -0.22706139 0.32258692 -0.08114302 -0.18325956 0.008289495 0.7662057 0.9470414 -0.69006306 -0.084868826 0.2092551 -0.5240087 -0.29098758 -0.9458742 -0.03359749 -0.572578 0.49546564 -0.35373202 0.57177275 -0.20715079 0.42602053 -0.014473243 -0.44255707 0.45711312 -0.2772343 0.74761647 0.30767047 -0.19791873 0.07280737 0.1721619 -0.3702198 0.30349743 -0.26168585 0.5506449
user 0.073103406 -0.6184308 0.046686485 -0.18244909 0.46933505 0.20131075 -0.42120638 0.28793713 0.2590457 -0.0052724155 0.49273768 -0.46897087 -0.059250727 0.44185597 0.0003270883 0.40585834 0.47717083 0.6472864 0.19770536 -0.27230096 -0.06744723 -0.07907855 -0.27853397 -0.24707955 -0.02587202 -0.24269095 -0.21328522 0.00032365893 -0.21576609 0.073376276 -0.07233997 -0.8687603 -0.22716299 -0.06201306 0.5486062 -0.029087279 -0.2342859 -0.20857467 0.23201127 0.11141722 -0.31976584 -0.2677342 0.3600862 -0.9217378 -0.20358527 0.19639786 0.12494681 -0.10791133 -0.1260642 -0.32458803 -0.34321073 0.22387916 0.646399 -0.12239071 0.24437352 0.50335485 0.28240395 -0.06855699 0.47442475 -0.40899616 0.5582732 0.0011893346 0.14684102 0.40367177 -0.9462887 0.0037697246 0.30760804 0.13801384 0.07639586 0.15816464 -0.47126803 0.16578251 1.1896268 0.35381687 -0.36601558 -0.25619468 -0.49312496 -0.1713264 -0.22445142 -0.5016249 0.0017114164 -0.6445616 0.73266166 -0.56812334 0.025899611 0.19969703 0.20745242 -0.36435094 0.4267977 0.33273292 0.15021618 0.2850124 0.10164168 -0.02623707 -0.007536207 0.19336577 -0.0053454414 0.27845445 -0.49926722 0.37572703
hardcopy -0.5311062 0.3082923 0.0663293 -0.35173914 -0.16390361 -0.076202914 -0.010000913 -0.042599693 0.38881603 0.2558225 0.59267735 -0.41867694 -0.004388781 0.3701399 -0.2517369 0.46809083 -0.111154236 0.58302724 0.12251014 -0.2997245 0.40437397 -0.05465684 -0.26260182 -0.019162795 0.20206895 -0.7247917 -0.31592676 0.070567995 -0.1411437 0.099215224 -0.14375524 0.16466665 -0.39363703 -0.19944826 0.45442373 0.45520884 -0.734301 -0.8685867 0.012207001 -0.59607476 -0.24536414 -0.3186372 0.55298364 -0.25774947 -0.99557686 0.9787439 0.5224279 -0.11653223 -0.2558312 -0.043796964 -0.22836745 0.006055751 0.62807083 0.16550902 0.6575758 0.37585494 0.15925673 -0.4951047 0.30937567 0.67334 0.062143393 0.058329966 0.027540322 0.19520879 -0.757537 -0.74898195 -0.07300086 -0.10781884 0.35977855 0.25337893 -0.17153022 0.32229134 0.611059 0.27027938 -0.69657487 0.064252265 0.39317065 -0.2516327 -0.12124597 -0.35169291 0.36520317 -0.27262232 0.062216863 -0.39384466 0.14451717 -0.12765788 0.22456487 0.0042484077 0.040979937 0.20039651 0.20601565 0.55032796 0.07559161 0.43979043 0.15545757 0.053145435 -0.051852025 0.35891575 -0.4505936 0.81013757
mailing -0.115297526 -0.0625668 -0.3824473 -0.2924003 -0.013921658 -0.13345698 -0.44071633 0.3036482 0.41714245 0.05008065 0.3551364 -0.23032092 0.3757887 0.41146523 0.1236061 0.54187244 0.11828411 0.49737835 0.21025784 -0.051725134 -0.113494664 0.29209474 0.29351583 0.39405578 0.09827069 -0.6776298 -0.5088288 -0.33713588 0.07592205 -0.59746736 0.017902205 -0.33408 -0.056290936 0.03981553 0.15983361 0.4577255 0.019144429 -1.0095916 -0.13887995 -0.28678 -0.18669592 -0.3494582 0.4480997 -0.60608333 -0.9179965 0.60658973 0.5674179 -0.21033731 0.26984128 -0.12691638 -0.4190104 -0.12887348 0.124394216 -0.12591487 0.7622702 0.95732534 0.46487325 0.017552624 0.23803121 0.39525 0.048487857 0.61827546 -0.060284417 0.19354028 -0.78040344 -0.80207866 -0.23067902 -0.16735253 0.47963494 0.091904484 -0.14956479 0.4079803 0.23442632 0.5172616 -0.5796058 -0.104190186 0.25202298 0.035923496 0.163776 -0.6751314 0.41270703 -0.19997363 -0.1383359 -0.7690083 -0.02345547 -0.23159447 -0.09876813 0.16196981 0.37189668 0.55764216 0.06522128 0.33183852 0.7896862 -0.054921098 -0.3842709 0.10451469 -0.8196859 0.47290835 -0.31514168 0.5689267
manifests -0.06931316 -0.16815619 -0.09726404 0.19933875 -0.33436334 -0.17763406 -0.0024960043 0.52780443 0.24247575 0.25954732 0.4487906 -0.09204068 0.20030375 0.47912037 -0.2331093 0.65969044 -0.41539314 0.80781704 0.34991404 -0.309368 0.023894206 0.32345915 0.3220993 0.18735047 0.44080424 -0.43337795 0.06569857 -0.22294927 -0.32243693 -0.5748729 -0.23813571 -0.20266944 -0.35622856 -0.032518607 0.134545 0.7598014 -0.23248613 -1.0668398 0.37976736 -0.75692534 -0.7282424 0.08561396 0.36889192 -0.10044646 -1.1246483 0.81183636 0.39252773 -0.197391 -0.17248505 -0.0069233757 -0.37654394 -0.06339464 0.4811348 0.1875517 0.036215443 0.48634714 0.14117229 -0.07566929 0.2350598 0.26408127 0.024526985 0.5410248 0.23673022 0.55131185 -0.38387507 -0.51847625 0.0046879956 -0.13819589 0.5860178 -0.34799132 -0.05301125 -0.07288778 0.6874962 0.6314228 -0.03370771 -0.48650348 0.28784564 -0.5147517 0.16075192 -0.3687473 0.22720976 -0.4138857 -0.06844854 -0.57163864 0.43705148 0.19108422 0.2849963 0.14992097 0.20121728 0.40330908 -0.17749019 0.7842922 0.5073066 0.42590293 -0.39305043 0.44955915 -0.57327026 0.14204201 -0.43862543 0.32504043
http://conference#Conference_document -0.2563758 -0.66572267 -0.30759838 0.26894864 -0.6248018 -0.08879388 -0.4412981 -0.3611931 -0.06202477 0.26793543 0.18898082 0.37836224 -0.17045316 0.34871104 -0.4344657 -0.22932957 -0.4498555 0.866976 0.85268813 0.028320119 0.066584945 -0.6191095 0.50417936 0.09532055 0.19754384 -0.9176025 0.03081293 -0.7367215 0.20622785 -0.68885684 0.28699762 0.11040412 -0.35396186 -0.465827 0.017622884 0.42461547 0.75748783 -0.857074 0.40397865 -0.35761225 -0.14542027 0.46334845 0.33061853 0.023126941 -0.4398387 0.12951815 -0.42435807 0.25474074 -0.25102416 -0.7425107 -0.17994401 0.33659768 0.0787594 0.13758709 0.023939483 0.2035098 0.59979135 -0.2917176 -0.027573386 -0.12276185 0.082477935 0.45893773 0.202717 -0.037399553 -0.8675999 -0.66076183 -0.7952549 0.56347156 0.20579022 0.62179494 -0.25403193 -0.18139778 0.34205452 0.35055152 -0.53474206 -0.42093253 -0.26274592 -0.5251594 0.11266953 -0.1765103 -0.14915395 -0.5513977 -0.32485643 0.31164032 0.3985117 0.6823502 0.15779063 -0.24279067 0.24967597 -0.59624064 -0.34066036 0.44238082 -0.38064805 -0.5773314 0.3991053 -0.17858714 -0.025771681 -0.21764138 0.1389081 0.44315386
http://cmt#ProgramCommittee 0.50356 -0.534399 -0.07007953 0.10251525 -0.32267767 0.17718473 -0.23673278 -0.25566256 0.26591378 -0.28342554 0.5797178 0.15021715 0.07619075 -0.30620256 -0.17925122 -0.30646217 0.082184866 0.030979766 -0.38375565 -0.15816002 0.015241038 0.14173785 0.5133988 0.025645657 0.6815665 -0.22004378 0.6025507 -0.56758827 0.05547718 -0.4322743 0.1512517 -0.13410924 0.5899789 -0.75990725 0.18384895 0.71170795 -0.46610484 0.047745846 0.3048773 -0.938301 0.22429791 0.43340635 0.56598175 -0.73016006 -0.3959336 -0.3156382 0.13113298 0.107447654 -0.16659738 -0.29685885 0.27342293 0.3690356 -0.038141273 -0.25113544 0.44431955 -0.18428412 0.2672576 -0.37394017 -0.16980933 -0.95687205 -0.031011611 0.57485384 -0.1214366 -0.1301639 -0.7958651 -0.19977471 -0.20009685 -0.33758834 0.32676366 -0.45391154 -0.6655492 -0.24070407 0.14256771 -0.42403927 0.12274722 0.12656316 0.17578617 -0.32341537 0.5596157 -0.28322822 -0.24133793 -0.6722268 0.3602542 0.14374086 0.11549895 -0.40415952 0.542232 -0.905005 -0.5874768 -0.53842694 0.18773808 0.10244433 -0.12330313 -0.46250597 0.7109875 0.23910543 -0.032910265 0.057718575 -0.4457111 0.5224875
invited -0.9279097 -0.16418143 -0.11071756 0.0888812 -0.32594687 0.10684762 -0.59566504 0.49507394 0.18676443 0.45158267 0.46693218 0.63648766 -0.99888134 0.13075007 0.45786613 0.2938787 -0.061886307 0.10666234 0.09996192 -0.34518093 -0.10815636 -0.22119561 -0.28078827 0.4760296 0.44379696 -1.0279782 -0.21861178 -0.66825724 0.6205407 -0.48189726 -0.18249808 -0.6972398 -0.14092387 -0.38845435 -0.6351831 0.22664614 0.44398853 -0.45205593 0.15410441 -0.42017913 -0.18495387 0.03383513 0.7060856 -0.06701578 -0.65503895 0.29153264 -0.2728579 -0.48245642 -0.28652883 -0.42332816 0.08940535 -0.10731551 0.33508167 -0.4963916 0.2065386 -0.15985464 -0.18333861 -0.06591636 -0.16582157 -0.2544464 0.089667544 0.32738 -0.108347416 -0.21467112 -0.76416636 -0.28793997 -0.018728528 0.795105 0.65861046 0.4662771 -0.43032444 0.45664632 1.1435 -0.40298524 -0.0999086 0.3072171 -0.6117664 0.008298707 0.00020055124 -0.5592629 0.08669455 -0.73961776 0.7844573 -0.6310715 0.13005003 0.2610861 0.46239552 0.053204864 -0.021446303 -0.80615443 -0.46532556 0.12073735 -0.37111753 -0.44643998 0.38899496 -0.71729547 0.120861605 0.11209178 -0.044667523 -0.17741172
participant -1.3815584 -0.60226864 0.1069079 0.13176149 0.12842873 -0.31405392 -0.84836906 0.55621934 0.558805 0.053663597 0.84996 -0.0066802795 -0.27772203 -0.16688077 0.07674411 0.26697922 -0.18021056 0.78699654 -0.31235868 -0.039899997 0.0854551 -0.20354158 0.101937555 0.39408478 0.17167073 -0.72710496 -0.5001769 -0.54361224 0.50702494 0.037092716 -0.14572093 -0.9543003 -0.28163758 -0.81852776 -0.09170954 0.53472614 -0.048882503 -0.46798462 0.17214647 -0.5809254 -0.19365203 0.10286532 0.6286966 -0.30510712 -0.7603248 0.5461058 0.08514859 -0.15167826 0.3737293 -0.22203867 -0.06187252 0.18383422 0.08654605 -0.97833216 0.1660808 -0.17455943 -0.12489246 -0.24481909 -0.2877749 -0.5269005 -0.45856947 0.68921226 -0.3102303 -0.48533666 -0.041494 -0.5294756 0.14857206 0.48253727 0.19110751 0.38026586 -0.17916574 0.5618362 0.75188947 -0.24103315 -0.73052305 -0.28565255 -0.6622431 -0.28336146 -0.34323868 -1.0661868 -0.058816843 -0.51269484 0.5821392 -0.96030235 0.27314433 -0.12878735 0.7179537 -0.112171285 0.42648923 -0.4249475 -0.48259667 0.58626825 -0.34355095 0.1823465 0.4338586 -0.15605311 -0.04486031 0.9175448 0.12585644 0.4165067
enter 0.50567293 0.23624143 -0.48561344 0.29672825 0.07378231 -0.21649088 -0.3930892 -0.07423369 0.961795 0.3109367 0.7972922 0.17260477 0.37677768 -0.0837313 0.32456768 0.17901057 -0.12211374 0.78435 0.11970357 -0.033110492 0.22544111 -0.22779107 0.303662 0.039898902 0.5868625 -0.60353017 -0.41212156 -0.3467164 -0.018310076 -0.43338907 -0.07709669 -0.37148792 0.10050686 0.024281709 -0.10271391 -0.053221706 -0.6311997 -0.5145351 0.24500138 0.010453059 -0.43878236 -0.6538946 -0.3393385 -0.2043917 -1.0808483 0.8832134 0.24404047 0.09698357 0.19683489 -0.09368734 0.15091893 -0.019158918 0.3163805 -0.08280742 0.55468166 0.4940848 0.18692963 -0.5661447 0.6477787 0.2823715 0.16482198 -0.006001746 -0.2033951 0.017315097 -1.1155738 -0.20825663 0.53118235 -0.13262811 0.6443851 0.4226092 -0.097775534 -0.039531875 0.9856545 0.90020394 -0.61907065 -0.050322384 0.21970691 -0.21880744 -0.4605223 -0.43628198 0.12134417 -0.87128156 0.6317195 -0.4913248 0.30538368 0.061974704 0.16842578 -0.46439883 -0.03566933 0.20063998 0.12837769 0.19984263 -0.15573268 -0.37575498 -0.028468376 -0.034727283 -0.28222507 -0.4279627 -0.5821645 0.13673952
been -0.27251607 0.053412817 -0.23312585 0.0012423357 0.0040660347 0.07714024 -0.31610805 -0.52184194 0.3031963 -0.39950952 0.37284446 -0.20439634 0.010420222 -0.7180254 -0.05624764 0.22657213 -0.07790631 0.58946055 0.38955027 0.17073703 -0.05899461 0.19408262 -0.40813658 -0.37705722 0.6463026 -0.48722622 -0.5491497 -1.2288697 0.043955114 -0.06916094 -0.02312736 -0.6052137 0.7053374 -0.14716052 0.05133154 0.37016585 -0.988132 -0.050277114 0.44736806 0.032096222 0.25767875 -0.14853598 -0.29297882 -0.3181922 -0.083431676 0.26354206 -0.024738612 -0.118949 0.14565678 -0.4836327 0.6746342 -0.0010598126 0.6251805 -0.036862493 0.22607559 0.75771654 0.46932957 -0.30319682 0.2941666 -0.59544194 0.67286885 -0.42013645 0.108410984 -0.017906887 -0.52085114 0.02322632 -0.0018426582 0.13030712 0.11316878 -0.02031153 -0.5272526 -0.34269032 0.6631889 0.15836643 0.166245 -0.18201317 -0.33795896 0.28392822 0.08018309 -0.5813191 -0.089731835 -0.040623654 0.5655292 -0.2864461 -0.1439405 -0.674669 -0.07099806 0.045060392 0.05933426 -0.16655003 0.030506205 0.4415689 -0.21581028 0.16547692 0.29182252 0.24390835 -0.10852467 -0.18455003 -0.9800938 0.3405798
written 0.078093946 -0.3672506 -0.51582354 0.34840444 -0.24138787 0.23042211 -0.8144215 -0.4581744 0.3867856 0.31393367 -0.33755034 0.60895556 -0.15468957 -0.4696111 0.011838077 0.16167848 -0.38054237 0.42394543 -0.09915023 0.06507149 -0.08493379 -0.6136551 -0.23636279 0.28632602 0.31032687 -0.6181046 -0.20484842 -0.83892643 -0.2911403 -0.25850338 -0.73393977 -0.5065618 0.052191522 -0.20529684 -0.63855314 0.12792805 -0.16797052 -0.105947636 0.07335618 -0.48507607 0.3114687 0.089109726 0.1455232 -0.3093641 -0.08590907 0.45371586 0.46868712 0.5101712 0.25470796 -0.1959088 -0.4265469 -0.60848695 0.32321537 -0.2976652 0.3427258 0.57854354 0.18471314 -0.5568589 0.63338983 0.46149305 0.4842241 -0.53216165 0.53011644 0.22595355 0.13275298 -0.39749968 -0.012357539 0.39853653 -0.3020281 0.2769027 0.07615191 0.01214722 0.13361327 0.041949943 -0.8273288 0.21002692 -0.46869788 0.21916959 0.35765573 -0.49612388 -0.13780321 -0.035153892 0.7531543 -0.41741186 0.35329112 0.12168504 0.2076246 -0.38976124 -0.030564953 0.054430116 -1.006441 0.3998841 -0.22499043 -0.23437104 -0.10269887 0.14026533 -0.16966665 0.045872305 -0.49871722 0.3442678
speaker -0.33577862 -0.79706764 0.12921092 -0.16237234 0.30430564 -0.34644243 -0.6492788 -0.1083074 0.7214566 0.10404229 0.98119795 0.1008878 0.05855957 -0.2637995 0.11571197 -0.1051654 -0.17528015 0.33637917 -0.6097824 0.14972386 -0.054570884 -0.50958335 -0.2788056 0.29373047 0.38516277 -1.1222578 0.023687858 -0.049103137 0.8265837 0.17416562 -0.13781278 -0.8000023 -0.019734114 -0.7356182 -0.25088653 0.3758286 -0.16058567 -0.20959795 0.24445666 -0.846265 -0.25165558 -0.24611245 0.55654645 -0.059851542 -0.4764378 0.23637427 -0.5386933 0.2598121 0.80565494 0.25173122 -0.2764392 0.05757211 0.4672991 -0.63971895 -0.02748532 -0.074103236 0.41114235 -0.24113593 -0.37555212 -0.29435343 0.028889706 0.5486067 -0.04967081 -0.6169911 -0.28423312 -0.20438635 0.51377934 0.37669683 0.12575611 0.6019931 -0.64897794 0.13248521 0.9909669 -0.24891517 -0.41892362 -0.16025156 -0.62480795 -0.39020792 0.11378718 -1.2520489 -0.3163915 -0.58617675 0.8036641 -0.6435221 0.2272356 0.18703319 0.6614774 -0.11354162 0.26197836 -0.67626745 -0.36540082 0.54202116 -0.5484439 -0.10805619 0.65761036 -0.10818613 0.16498008 0.41238195 -0.029029705 0.47918984
http://conference#Committee -0.04232137 -0.40486914 0.10192211 0.16870862 -0.15890706 -0.119844005 -0.47642058 -0.3076317 -0.22067466 -0.40241054 0.8952653 -0.37276697 0.40957353 0.032402277 -0.11755931 -0.54782957 0.062613465 0.24515224 0.09106557 0.2609564 -0.45815638 -0.10301689 0.6024253 0.32189944 0.39141566 -0.452845 0.11352605 -0.79239124 0.2896715 -0.5623709 0.10549081 -0.41916347 0.48438776 -0.82086396 0.2450058 0.7713617 -0.04452919 -0.07644315 0.2032159 -0.8553968 0.0015382862 0.019563233 0.8905701 -0.65080476 -0.12395956 0.17983153 0.41617835 0.056751795 -0.099854685 -0.36233228 0.1267098 -0.2890414 0.21655534 -0.18835299 0.22711667 -0.17217626 0.32258376 -0.21091205 0.28818977 -0.58930373 0.39960185 0.82602495 -0.22301458 -0.00035972468 -0.73227835 -0.6150416 -0.6002809 -0.13482405 0.36500585 -0.12318286 -0.9330171 0.49858546 0.06878357 -0.25613743 0.023876822 -0.5452875 0.25906587 0.26459217 0.5919386 -0.13845196 -0.93945736 -0.6603901 0.22930959 0.27897918 0.7227312 0.28360215 0.58416784 -0.48766643 -0.118614994 -0.6283967 0.33786473 0.114308 0.42301744 0.117958546 0.42582574 -0.33188918 -0.06259349 0.16284706 -0.36171106 0.29924455
http://cmt#Document 0.34149304 -0.69732434 -0.22032592 -0.0053652367 -0.3124412 -0.33151367 -0.6603852 -0.34670037 0.15345432 0.3866356 0.18526301 0.25105184 -0.87551945 -0.33518258 -0.039425775 0.3717428 0.18265593 -0.13418557 0.77703 0.25979447 0.03600504 -0.22818708 0.00077812665 0.12397219 0.20177975 -0.57464993 0.010049929 -0.4939772 0.89864147 -0.7810264 0.67288774 -0.63532484 0.002737515 -0.5304479 0.31415424 -0.06281156 -0.034228172 0.040429324 0.07414072 -0.8381235 0.19966292 0.057808507 0.45887712 0.10000618 -0.6231431 0.2216952 0.29362586 0.20912537 -0.16405843 -0.06364092 -0.19152977 -0.01247685 1.2484256 0.055748656 -0.25647897 0.3387803 0.5097952 -0.48536554 0.08831527 -0.0769078 0.35174152 0.012905382 -0.1079803 0.5986563 -0.71786636 -0.38032842 -0.4691167 0.6586866 -0.13258593 -0.1677531 -0.56069386 -0.44337448 -0.01970349 -0.065926105 0.44167903 0.5196873 -0.2393253 0.019520728 0.5507309 -0.502052 -0.45547402 -0.250872 1.1905783 0.20089175 0.030562786 0.52504593 -0.17757122 -0.8419377 0.17056641 -0.7229414 0.58254033 0.2514115 -0.087482 -0.45783445 -0.695557 0.08451812 -0.22008179 0.01794269 -0.25060174 -0.059995264
accepted -0.41670677 -0.2767134 -0.002888736 0.21834938 -0.46664605 -0.27381524 -0.24182227 0.15876997 -0.039669186 -0.22902352 0.5157947 0.010831046 0.29707813 0.0060135364 0.1294389 0.22370775 -0.06418962 0.18256022 0.35692564 -0.10055175 -0.049620625 0.092978284 0.26078084 0.41207042 0.4109735 -0.2369952 -0.36324963 -0.0919315 0.13021946 -0.18252596 0.022930125 -0.46598163 0.06352262 -0.02954592 -0.084866725 0.24325041 -0.4038842 -0.04034615 -0.17066737 -0.32177082 -0.4556035 0.085110135 0.21244878 -0.35417625 -0.6957449 0.4732785 0.65437263 0.06600312 -0.10798298 -0.004640208 -0.26887202 -0.17648767 0.318118 0.4769474 0.1078734 0.52823114 -0.03573088 -0.13705693 0.67986006 0.3731104 0.13522965 -0.30138314 0.36653718 0.77663857 -0.5566555 -0.44290218 0.071286164 0.29544666 0.39605343 0.15880078 -0.04443586 -0.0330656 0.26870307 -0.031175843 -0.3315055 0.3318796 0.36952862 0.2193512 0.22521144 -0.52050555 0.056673847 -0.45200664 0.47048232 -0.108704224 0.23568161 0.10262016 0.8660893 -0.25076705 -0.59926647 -0.0071094823 -0.31823313 0.73665535 0.454433 0.048602015 -0.06521266 0.176547 -0.7152073 0.14567365 -0.2518632 0.4623975
decision -0.8065561 0.05548291 -0.1306461 0.15690224 -0.5689159 -0.2510466 -0.5688938 -0.5999952 0.45905006 -0.8742272 0.52845585 0.019825347 0.08810743 -0.64328086 -0.00837561 0.21017677 -0.18016498 0.09519115 0.007983118 -0.20521045 -0.17708862 0.2534576 0.33195943 0.47080886 1.0817232 -0.46866113 -0.94847727 0.09219095 0.49020144 -0.2391512 0.58920145 -0.22871643 1.1373293 0.26187575 -0.1528482 0.4282338 -1.1459403 0.25623053 0.4606658 -1.0121101 -0.15030643 -0.26198825 0.33539143 0.059374824 -0.20108746 0.27296582 -0.09200046 0.335547 -0.10611543 -0.100226566 0.48740995 0.075949244 0.3603001 -0.06520472 0.3698409 0.019796813 0.35086405 -0.23697896 -0.330778 -0.23637502 0.32089823 -0.4183934 -0.3063495 0.37323493 -0.63458484 -0.16798408 -0.7165897 0.5590432 0.32943842 0.2011695 -0.842158 -0.32209533 0.8015932 -0.41524994 -0.058882833 -0.08749084 -0.23481481 0.11297583 0.6447744 -0.8442638 -0.16757621 -0.09181081 0.80469364 0.27473903 -0.27919665 -0.04711754 0.2123891 -0.2369647 -0.097293764 -0.48306918 -0.14656164 0.829244 -0.03479653 0.15086928 0.20492712 0.22813553 -0.3647935 0.056592718 -0.19350593 0.6850354
assign 0.52477366 0.14759913 -0.32666 0.08625987 0.23072545 0.29245585 -0.37602058 0.1486884 0.9356946 0.25108796 0.3920274 0.005643933 0.46126327 0.3654472 0.57412386 -0.06907501 -0.32247263 0.53751725 -0.16000499 -0.52152187 -0.15167074 0.27407968 -0.38538328 -0.15312476 0.4045566 -0.8143745 -0.14590366 -0.5165259 0.32622012 0.098867625 -0.10076041 -0.48529744 0.6418139 0.38541704 -0.5017883 0.8207444 -0.5746361 -0.1814881 0.3314626 0.04659646 -0.57629716 -0.037927117 -0.50000036 -0.24169143 -0.456601 0.37033147 -0.13382187 0.030643666 -0.5039586 0.012081081 -0.003638377 -0.1027141 0.43262416 -0.113496326 0.51979023 0.330173 0.21162516 -0.2888789 0.12774481 0.2964625 0.5699185 0.0992045 -0.114937745 -0.20419107 -0.75865734 -0.20048232 0.37117082 -0.18159968 0.2946789 0.2406097 0.019171225 -0.14408834 0.7707258 0.5839476 -0.26846907 -0.12973304 -0.4799592 -0.3021749 0.2423959 -0.47195664 -0.072994806 -0.87060434 0.92937815 -0.49736825 -0.2806447 -0.027507395 0.40990233 -0.41190118 0.34857216 0.4681709 0.008950246 0.3679967 -0.21848653 -0.17215468 0.5033127 -0.3460828 -0.062107313 0.10199463 -0.6647634 0.3285803
rejected -0.46804002 -0.3288104 -0.09806196 0.31238857 -0.4033901 -0.31958318 -0.26721248 -0.08435259 0.044652175 -0.21368521 0.2714219 0.04985743 0.17022118 0.15069363 -0.0047190236 0.23397294 -0.14122862 0.18064272 0.32592905 -0.17400068 0.047462907 0.17617728 0.09920855 0.43037012 0.36338037 -0.415121 -0.20293102 -0.13144837 0.048301615 -0.1497625 -0.15786318 -0.445318 0.08305478 0.15378994 -0.1108311 0.3115583 -0.32473508 -0.21387936 -0.18318935 -0.10485085 -0.5554835 0.2073167 0.33762497 -0.33440125 -0.70401466 0.27699628 0.7762782 -0.013286164 0.09260683 0.07437655 -0.3615687 -0.12575981 0.34216902 0.102384694 0.21830896 0.4832323 0.21706325 0.25021514 0.5337638 0.38384205 0.014167141 -0.1917255 0.32314998 0.5545068 -0.55322796 -0.5847524 0.047069322 0.21575154 0.3364368 -0.032730006 0.06137748 0.045157213 0.38159442 0.18004277 -0.4513993 0.2924481 0.39917013 0.028655255 0.38609177 -0.63954854 0.32657066 -0.37144715 0.4340651 0.017768748 0.1203227 0.17695707 0.62588817 -0.10085557 -0.6937444 -0.012162402 -0.24697393 0.79994553 0.37250444 -0.06549878 -0.1527464 0.27467626 -0.5145845 0.14847003 -0.16945878 0.4427383
http://cmt#Meta-Reviewer -0.19630875 -0.41360363 -0.7140115 0.2156525 -0.4965981 -0.43688193 -0.3547188 -0.9800507 0.09682255 -0.12138124 -0.3880374 -0.5001345 -0.28464907 0.2994897 0.5361651 -0.0077698682 0.20026529 0.3986134 0.15148078 -0.28078392 0.07857998 -0.53628415 -0.30921882 0.23769745 0.13273107 -0.63486946 -0.008702226 -0.8668403 0.38825485 -0.12041784 0.021728562 0.2430307 0.08382218 -0.15525495 0.11149994 0.9458941 -0.29322395 -0.06892946 0.32778338 -0.4597818 -0.37234867 0.09598038 0.30395374 -0.0584216 -0.07962584 -0.035596743 -0.0702998 0.22381261 0.10585442 0.019121887 -0.53643775 0.09025118 0.2816596 -0.20579627 -0.20646073 1.2085133 0.6468584 0.023531534 -0.1466098 -0.20591584 0.8868607 0.4957614 0.17871086 0.45886624 -0.65440816 -0.23381674 -0.3212211 0.84303766 0.18599872 -0.28653324 -0.43050435 0.19250882 0.82105476 0.35345948 -0.008625844 -0.36192667 -0.19726096 -0.5775129 0.20002227 -0.86584073 0.11509994 0.17121446 0.935933 0.10787258 -0.10120195 0.37154043 -0.14260069 -0.26542374 0.16385515 0.18231033 0.33604705 0.10645623 -0.49829134 -0.07128143 0.2729481 0.4104519 0.20266728 -0.2903728 -0.87656903 -0.2830459
http://conference#Regular_author -0.3806328 -0.5675571 -0.17929049 -0.14797723 0.2752256 -0.0363911 -0.3921311 -0.2002014 -0.14120294 -0.5380076 0.24800833 -0.3400416 -0.43462884 -0.2133731 -0.6447598 0.3051079 0.30383828 0.27861366 0.19922942 0.42807513 0.19856513 -0.35563898 0.18775554 0.18579605 -0.00865379 -0.29772857 -0.1432416 -0.65900964 0.5119504 -0.32376596 0.5440534 -0.5800734 0.012027343 -1.0902512 0.3273614 0.69118327 0.033582926 -0.43098968 0.0010382674 -0.44277054 0.17772087 -0.028151449 0.33915183 -0.28269476 -0.11489829 -0.2688915 -0.20257129 -0.38771537 -0.06549254 -0.6060045 -0.58598185 0.3269969 0.13150999 -0.1192367 0.008534031 0.15606809 -0.074299514 -0.26767644 -0.058643755 -0.8091785 0.2552401 0.1533689 -0.19691963 -0.103632934 -0.17397903 -0.6789461 0.10346397 0.5367945 -0.3032076 -0.010368527 -0.26363412 0.17051353 0.3995851 -0.21498778 -0.1840087 0.07409316 -0.60554796 -0.60870755 -0.2449285 -0.8044484 -0.37017226 -0.68800735 0.22725733 -0.31341025 0.08992878 0.22501789 0.8890108 -0.38470662 0.17424712 -0.54032284 -0.47455472 0.4111942 -0.5716662 0.07825922 0.21916828 -0.022108614 -0.13265812 0.21042761 0.043178666 0.7071511
http://conference#Paper -0.18390569 -0.27632105 -0.2550107 0.5220306 -0.13941446 0.21926768 -1.0799025 -0.79527706 -0.2306442 0.14608756 -0.13391005 -0.20952946 -0.48382616 -0.19826621 -0.20567185 -0.020786608 -0.07212031 0.2387077 0.07984673 0.16577967 -0.11111739 -0.52097225 -0.19075315 0.17735757 0.28258696 -0.35806558 -0.2843461 -1.0804585 0.6326222 -0.047011543 -0.20136726 0.10437651 -0.18901272 -0.20328808 0.4097028 0.7495018 0.20195004 -0.17238532 -0.018285813 -0.08681071 0.27376536 0.0005369053 0.47476617 0.08137012 -0.30877912 0.3864693 0.20090704 -0.06061784 -0.118692696 -0.6264898 -0.56482995 -0.59517056 0.43761784 -0.7969398 -0.20846486 0.39862487 0.8589404 0.21454525 0.40013495 0.23823418 -0.035705507 -0.3558332 0.43579835 0.37365386 -0.30898514 -0.23914528 -0.93897164 0.3488711 -0.3342797 -0.2400998 -0.36719033 0.27391562 0.27283475 0.28568876 -0.34903502 -0.43730834 -0.09103959 0.07453534 0.036790762 -0.5421532 -0.5186805 -0.16989006 0.3450263 -0.29126468 0.08362003 -0.029999403 0.089104325 -0.4545204 0.68177867 -0.12608477 -0.3405628 0.8640818 -0.021217095 -0.46110108 -0.3031288 0.12124088 0.16160089 0.9215955 -0.19667123 0.93503696
printed -0.33292496 -0.61760575 0.013553313 0.23318654 -0.5267277 -0.095710695 -0.473779 0.35454038 0.14529186 0.5176127 0.19093113 -0.10686757 -0.05597298 0.5504487 0.24606617 0.38483614 -0.34575295 0.48740453 -0.03049073 -0.56473327 0.23922239 0.14392418 0.02393669 0.10712704 0.056204606 -0.8001476 -0.23064654 -0.60605234 0.0116025815 0.16601665 -0.4048558 -0.13895388 -0.15416925 0.12363928 -0.09046648 0.628699 -0.24520598 -0.6805933 -0.1657452 -0.2569979 -0.44106483 0.07589163 0.6734769 -0.5123691 -0.892713 0.8625291 1.0750883 -0.1998885 -0.08667718 -0.26392072 -0.17490846 -0.20469724 0.40368074 -0.047079813 0.56366706 0.22995993 0.09840833 0.0024536334 0.427785 0.30685702 0.0060480987 0.39620054 0.20076571 0.39127967 -0.80511457 -0.75777096 0.074954845 -0.09737315 0.54467314 0.19938351 0.52460194 0.006516429 0.33622584 0.11871804 -0.3236739 0.025831461 0.5934894 0.10931825 0.7660463 -0.28040794 0.41548774 -0.4005483 0.32061222 -0.0979729 -0.064715825 0.20726636 0.02579713 -0.06519977 -0.51705545 -0.086656414 -0.04527738 0.67853934 0.49880165 0.01990796 -0.07878119 0.2804672 -0.731835 0.37443173 0.1509416 0.51153773
started -0.6147782 -0.3746726 -0.45279416 -0.023519972 -0.76530564 -0.06000572 -0.37937897 0.1846631 0.14258084 -0.077416174 0.8096124 0.46980113 0.1882386 0.13229573 -0.051353056 0.1390693 -0.23500551 0.32803097 -0.21761356 -0.14378779 -0.32780865 0.035479862 0.19598067 0.23581125 0.2740814 -0.4961857 -0.4100268 -0.17337888 0.39673877 -0.035921298 -0.62298226 -0.61986375 -0.32400048 0.11952954 -0.38270995 0.2714753 -0.24330759 -0.20207635 -0.18235858 -0.21977791 -0.94362104 0.062367074 0.69064116 -0.5277053 -0.6901115 0.49205774 0.49679592 -0.24315685 0.13011783 -0.14703603 -0.2792809 0.22769734 0.026762724 0.36794904 -0.04943879 0.46250296 0.20684989 0.25405237 0.5884669 0.1015685 -0.19911365 0.0993797 0.21405128 0.2764418 -0.60048896 -0.8067495 0.30475783 0.3850946 0.47605512 0.3096563 0.33256394 0.43587074 0.6594729 0.70093423 -0.3388201 0.3240154 0.27356604 0.13944173 0.3238131 -0.6115837 0.49233708 -0.005028175 0.46082354 -0.40392703 0.21300872 0.3135552 0.62767535 -0.25646016 -0.5883748 -0.12551205 -0.2964882 0.7757158 -0.014038117 -0.042805653 0.114941746 0.16969669 -0.5684026 -0.032719053 -0.19159666 0.55979985
subject -0.37253863 0.034169834 0.009180393 0.4254255 -0.3109609 -0.346332 -0.7621353 -0.29426715 -0.1178111 -0.46374947 0.5882434 -0.21021672 0.049708884 -0.62362176 0.10298684 0.31232658 -0.75368655 0.032398745 0.44744417 0.093421735 -0.01728688 -0.028458571 0.044090282 -0.08021066 0.7000051 -0.5922096 -0.16980517 -1.0938143 0.535533 -0.72123015 0.43432656 -0.8765659 0.83094555 -0.69824976 0.21282153 -0.025392741 -0.37145612 -0.14383696 0.3877391 -0.5185899 -0.06810672 -0.4983371 0.1869509 -0.024573483 -0.3556345 0.2600968 0.15366587 0.04322348 0.5522019 -0.33329043 0.5221189 0.21583304 0.39680395 0.06040211 -0.23511241 1.2594175 0.024647597 0.116073206 0.4465111 0.1442028 0.62123984 -0.21939301 0.28111887 0.34057584 -0.70454365 0.51659256 -0.2618594 0.50916135 -0.19371253 -0.5808402 -0.7061835 -0.45343494 0.53893125 -0.07576758 0.13276099 0.48121968 0.37269047 -0.17780916 0.61007684 -0.6764153 0.21989053 -0.62324166 0.612717 -0.44043815 -0.42978367 -0.10612366 0.78928655 -0.43219513 -0.8269955 -0.57368463 0.49670836 0.8549231 0.15000907 0.50552446 0.3084918 0.4924396 -0.43549383 0.11060441 -0.68217105 0.64580226
area -0.3923377 0.14628682 -0.1340291 0.47425625 -0.53958434 -0.548229 -0.3449854 -0.39215446 -0.119441554 -0.42671737 0.539496 -0.30481285 -0.014194514 -0.5605896 0.13320917 0.5924165 -0.7200628 0.16772263 0.43617374 0.25448394 -0.08997136 -0.069377765 -0.1945919 0.023608495 0.8833367 -0.67971873 -0.39588147 -1.1422246 0.24114774 -0.7368215 0.60318726 -0.79037076 0.87627673 -0.7433416 0.18543655 0.24736437 -0.17089024 0.01664387 0.44488972 -0.56592333 -0.2691529 -0.3190534 0.3161623 0.014161806 -0.44060197 0.5475606 0.21857923 -0.13647874 0.23314321 -0.2767508 0.6261974 -0.0056351996 0.43324584 0.05821907 -0.21117902 1.3492244 0.021147061 -0.07175149 0.5610456 -0.06151536 0.53194076 -0.13624403 0.47189903 -0.020155689 -0.732649 0.54284614 -0.17672439 0.40107846 -0.103691034 -0.3120859 -0.75553215 -0.5842541 0.41329417 -0.37018782 0.1204027 0.45091859 0.37596685 -0.31559938 0.6400043 -0.8515658 0.017537978 -0.58457327 0.90169674 -0.3983139 -0.19917245 -0.2512338 0.70845246 -0.23396903 -0.81478643 -0.6450764 0.5255791 0.87139976 0.11714895 0.45539325 0.14749457 0.4659567 -0.21026061 0.2928283 -0.8041734 0.39869595
enabled -0.54508007 -0.35221606 -0.0068865023 0.24604206 -0.41862005 -0.21914247 -0.73030865 -0.11816091 0.3009723 0.17904526 0.56738967 0.29788795 -0.08296837 0.21784322 0.27474266 0.582824 -0.47827142 0.1669794 0.07350217 0.215054 -0.17470224 0.32981625 0.3996254 0.47594777 0.26971656 -0.4409391 -0.10045157 -0.123559505 0.17600803 -0.32141998 -0.39181343 -0.38237336 -0.14613073 0.4009189 -0.3281154 0.32149777 -0.10832975 -0.41264468 -0.10734873 -0.3157734 -0.80413157 0.08336939 0.19961098 -0.6804157 -0.9818798 0.197268 0.8534057 -0.12974992 -0.07648379 0.26693448 -0.16134678 0.0963807 0.39655337 0.08306464 0.2236174 0.16877955 0.4410472 0.08026062 0.6223861 0.0829675 -0.11959728 0.05519705 0.24852334 0.07176478 -0.74569607 -0.54900503 -0.13363937 -0.12747173 0.064541444 0.080694035 0.20096871 -0.14975369 0.17005937 0.28962088 -0.9039926 0.22671804 0.8525098 -0.13329905 -0.021488566 -0.5565914 0.37771583 -0.6687014 0.36661574 -0.370287 0.5493711 0.35352618 0.5871797 -0.0036150108 -0.764559 0.24906528 -0.59610003 0.95312566 0.32004926 -0.28705674 0.2827939 -0.2991699 -0.44508177 0.1663771 -0.08252263 0.87022454
http://cmt#User 0.473065 -0.92676765 -0.35493693 -0.09121113 0.20473053 0.29619074 -0.5140531 -0.06448735 0.22800855 -0.017377554 -0.10232015 -0.46682498 0.25045937 0.26121703 0.014808781 0.3903958 0.49738994 0.3642582 0.8164804 0.42903167 -0.12428866 -0.0826058 -0.2093607 -0.13292146 0.13324825 -0.2631458 -0.107104145 -0.38844195 0.19135708 -0.30856612 0.3633873 -0.54525524 -0.0072387005 -0.4669555 0.639686 0.10811437 -0.2860319 0.24445881 0.08296585 -0.15395881 -0.14590366 -0.40510157 0.2165884 -0.82047427 -0.41613063 0.24166735 0.16185048 -0.0251203 -0.44785088 -0.3279547 -0.30898318 0.009748387 0.5689639 0.42429107 0.34014437 0.4871719 0.5694253 -0.23111065 0.38473338 -0.04149121 0.44227016 0.10430875 -0.115718044 0.40722558 -1.1232982 -0.20501958 0.46869624 -0.26858437 0.21365106 -0.056668986 -0.42181212 0.33139423 0.21237488 0.69497985 -0.27078426 -0.10337853 -0.3281099 -0.34733966 -0.5749416 -0.28507543 -0.8676987 -0.5535067 0.2684538 -0.7037434 0.29314867 0.19593957 0.2530407 -0.88101566 0.6919597 0.24223624 0.044425715 -0.24184483 0.20110673 -0.48914203 0.0064492733 -0.2550784 0.20738524 0.15812919 -0.58131456 0.2729305
http://cmt#readPaper -0.13826093 -0.49835822 -0.36230057 0.4128422 -0.2765191 -0.011173508 -0.41541153 -0.6714518 0.48700547 -0.6848985 -0.1884473 -0.46826127 0.2600546 0.18802103 0.060814593 -0.07742841 0.3037994 0.5669172 0.7000138 0.16485073 0.18698937 -0.12620321 -0.57266843 -0.2528028 0.2473256 -0.41859874 -0.093586355 -0.9187647 0.078770936 -0.13217373 0.32826093 -0.2917892 0.6280646 -0.123463534 -0.13597815 0.5798498 -0.6880841 0.18985923 0.37135905 0.015356251 0.18678528 0.064419195 -0.16919285 -0.25452515 0.082633495 0.39239818 0.18104592 0.014651857 0.18203361 -0.3851461 -0.07929789 0.17922615 0.7932989 0.066502124 -0.18398875 0.73606044 0.6352792 0.019166032 0.09917907 -0.38719118 0.5401559 -0.17152879 -0.14988762 0.53108555 -0.3303363 -0.32951415 -0.0012523017 0.21865049 0.36478803 -0.30264723 -0.47788876 0.04718396 0.2217876 0.4631931 0.101765975 -0.26604348 -0.55293 -0.38645774 -0.31556243 -0.7930076 0.05142258 -0.35118032 0.32562685 -0.21911396 -0.038410984 -0.15453765 -0.22726591 -0.38150755 -0.2001863 -0.20041633 0.4032697 0.005117894 -0.108122356 -0.23589292 0.3743832 0.19556665 0.43771818 -0.27360865 -0.5041567 0.11510858
to 0.018717675 -0.30171263 -0.34812218 0.04280975 -0.07197664 -0.059023738 -0.4421289 -0.530829 0.41610914 0.104768485 0.16633388 0.2447617 -0.27310553 -0.599667 0.045130733 0.15459974 -0.21361905 -0.08448741 -0.305015 0.4735918 -0.114903525 -0.02652193 -0.094114885 0.3074063 0.7445179 -0.7588302 -0.4359363 -1.0483751 0.5446129 -0.40111375 -0.07151323 -0.31706592 0.20227244 0.1278031 -0.5391446 0.27688056 -0.36657152 -0.3154482 0.23147959 -0.39296362 -0.18151318 0.2949848 0.33306208 0.12704787 -0.7318788 -0.07136473 -0.31392094 0.27335486 0.014973713 0.004479494 -0.2093769 -0.34843865 0.67193633 -0.18233708 0.47730526 0.56238735 0.57824796 -0.44971842 0.7317495 0.37833077 0.5895168 -0.63007843 0.5492498 0.06815942 -0.09894153 -0.13727546 0.54700166 0.55012137 -0.16889752 0.063145936 -0.2355185 -0.12840666 0.5745193 0.038557168 -0.08378916 0.0028764927 -0.37238914 0.37821576 0.5784505 -0.53003323 -0.49774888 0.158574 0.7995271 -0.00026867315 -0.23763797 -0.38958764 0.23924984 -0.036690567 -0.34713668 -0.1874016 -0.15141435 0.4976935 0.20608771 -0.01782267 -0.06629094 0.21530867 -0.028944409 0.110071346 -0.8124382 0.5224841
finalized -0.33993655 -0.63983697 -0.004894399 -0.026113722 -0.5387584 -0.19198206 -0.57753086 0.39811853 0.119350165 -0.089098945 0.23712662 0.17510764 0.25304246 -0.17445624 0.45001954 0.1199361 -0.2384843 0.32861263 0.016532067 0.28673193 -0.021360716 -0.18045725 0.27601928 0.32115963 0.12845011 -0.4057458 -0.36327806 -0.41221094 -0.020354874 0.0906135 -0.09327033 -0.37964904 0.029936349 -0.16403407 -0.26712155 0.446926 -0.32078117 -0.6702172 -0.14344434 -0.21094401 -0.70112586 0.24537122 0.30676532 -0.19352481 -0.872718 0.868291 0.5362602 -0.38736242 -0.3126691 0.22183053 0.044434894 0.12973107 0.043598786 0.65245163 0.048132762 0.44728303 0.05864763 0.2315017 0.6164486 0.49270177 0.116228096 -0.00037889043 -0.07371927 0.46176815 -0.73213214 -0.60531896 -0.02579519 0.080973804 0.53359073 0.42622492 0.095484406 0.23315005 0.06933141 0.13603868 -0.5622341 0.09265087 0.20822689 0.18542054 0.26704732 -0.39119017 -0.11268955 -0.22892466 0.3960473 0.013781981 0.27030554 0.5045807 0.6984107 -0.23281181 -0.49741656 -0.12076558 -0.26116663 0.6795619 0.35096928 -0.07098548 0.10208288 0.16971484 -0.77361304 0.06650272 0.052895747 0.41324815
http://cmt#ExternalReviewer 0.85463554 -0.7903771 -0.5919347 -0.2982922 0.17504556 0.03017111 -0.54902303 -0.3155021 0.20247738 0.70350116 -0.10871307 -0.083862275 -0.3270517 0.21647432 0.27122918 0.3944359 -0.38525566 -0.1488285 0.02632001 -0.20671134 0.017238636 0.24114993 -0.3068187 -0.0006881102 0.668335 -0.54812527 0.15531012 -0.77979153 0.95923305 -0.075207375 0.23824422 -0.5957113 0.2692599 0.14481229 -0.21155848 0.95296466 -0.027166795 -0.16019487 0.16779119 -0.84338206 -0.24384224 0.10894137 0.14947346 -0.19232544 -0.32858723 -0.43036485 -0.007822142 -0.2518546 -0.9036153 0.57621485 -0.8911286 -0.27234328 0.13812813 0.08959346 0.3914482 0.52550673 0.7776485 -0.24638899 -0.33528003 -0.2543724 1.0101593 0.31484658 0.30062306 -0.30022186 -0.8303677 -0.5556868 0.037117794 -0.045251634 -0.46458644 -0.2817129 -0.15241766 0.2801571 0.44204545 0.21945171 -0.023502052 0.13372089 -0.23374224 -0.5254708 0.6797783 -0.45867172 -0.73903614 -0.57595474 0.906081 -0.68504566 -0.51811653 0.071612045 0.42764333 -0.4168617 0.07633164 -0.13399506 0.16387586 0.43843117 -0.24252798 -0.11122726 0.16806822 -0.2621481 -0.03402048 -0.12258921 -0.72580445 0.13124806
track 0.09777636 -0.11641261 0.022123046 -0.22376463 0.20110719 0.31725368 -0.9370983 -0.45422044 0.060993787 0.18410343 -0.13257879 -0.36312655 -0.6011259 -0.7258955 0.052409075 0.38782275 -0.10249197 -0.0001417065 -0.6717576 -0.39652896 -0.3911228 -0.43195763 0.30902418 0.02650925 0.14907543 -0.5563758 0.37438625 -0.75489277 0.3443768 -0.29753366 0.14327917 -0.22059828 0.069906175 -0.6162832 -0.17045407 0.2739726 -0.093115956 -0.6756234 0.15924537 -0.6716415 0.09500528 0.22233322 0.9207913 -0.7627961 0.021848418 0.2045904 -0.32076645 -0.4016821 0.4762133 0.06596731 -0.27805614 0.28260842 -0.01050427 -0.709282 0.19726752 0.22781289 -0.07953262 0.15694146 -0.398692 -0.8322851 0.6855103 0.7396281 -0.11893654 0.008519705 -0.4082965 -0.31419674 -0.35383245 0.80665463 0.32457247 0.03951218 -0.20668052 0.01553746 1.0304543 -0.20242077 -0.6497412 -0.09630004 -0.16080251 -1.0096736 0.51343477 0.01954052 0.27697375 -0.19915278 0.8514277 -0.41990685 0.33812433 0.07751137 0.50629926 -0.3144704 -0.40638864 -0.71987015 0.08919993 0.7200979 -0.4566986 0.42856073 0.54367584 0.030159954 -0.4741189 0.044435747 -0.18833409 0.7903381
workshop 0.15681714 0.23205854 -0.008367052 -0.15190507 -0.057572044 0.3703234 -1.1579465 -0.47152308 0.23849061 0.39058968 0.03368588 -0.319706 -0.6442726 -0.7876202 0.15187575 0.25955862 -0.211933 0.18123996 -0.58563596 -0.10264138 -0.132672 -0.22352204 0.0014676962 0.35235333 0.23233984 -0.7291446 0.14437781 -0.54459995 0.351786 -0.17588225 0.47607636 -0.3420275 0.340552 -0.74433243 -0.3253396 0.06511596 -0.046129864 -0.669389 0.28451636 -0.40869102 0.07294562 0.23896989 1.0047991 -0.32222855 -0.036985703 0.28212684 -0.005446905 -0.34798875 0.54819745 0.042298153 -0.30865273 0.5437414 0.28651395 -0.7689395 0.044553097 0.2485794 0.08724277 0.21534517 -0.375946 -0.8457655 0.2768138 0.7878366 -0.33121324 0.02094272 -0.06832479 -0.40877557 -0.5556559 0.67710435 0.24844879 -0.041636184 -0.2542664 -0.005872632 0.7866317 -0.57471496 -0.53501666 -0.2486641 -0.29340625 -1.0593051 0.4115658 0.06285155 0.097302616 -0.47541067 0.9854874 -0.4091339 0.5404376 0.18839699 0.45902973 -0.21526363 -0.57943636 -0.9905028 0.27395362 0.7565307 -0.27240488 0.37361264 0.73188376 0.2020592 -0.58582735 0.14111876 -0.26470232 0.8456697
